
\data\
ngram 1=744
ngram 2=2449
ngram 3=414

\1-grams:
-1.390193	</s>
-99	<s>	-0.2893106
-3.045812	a	-0.1364176
-2.802774	an	-0.2086385
-3.170751	anh	-0.1395768
-2.249932	ba	-0.2314879
-2.471781	ban	-0.2466307
-3.346842	bay	-0.1404612
-3.647872	binh	-0.1417355
-3.346842	biến	-0.1418334
-2.86972	biết	-0.1170673
-3.647872	biển	-0.1424201
-2.948902	biểu	-0.4557611
-3.346842	biện	-0.5936549
-2.606479	biệt	-0.2154588
-3.647872	buôn	-0.1424201
-3.170751	buổi	-0.3865891
-3.647872	bà	-0.1423224
-3.170751	bài	-0.3859034
-3.647872	bàn	-0.1416376
-3.647872	bào	-0.1408537
-3.170751	bày	-0.2864968
-3.647872	bái	-0.1363184
-3.647872	bán	-0.1423224
-2.802774	báo	-0.1131126
-3.647872	báu	-0.1409518
-3.647872	bão	-0.1408537
-3.647872	bè	-0.1416376
-3.346842	bê	-0.1392816
-2.86972	bên	-0.2253532
-2.948902	bình	-0.2654565
-3.045812	bí	-0.4655167
-3.346842	bó	-0.1386906
-3.346842	bùi	-0.1421268
-3.647872	bút	-0.1397735
-3.647872	băng	-0.1424201
-3.647872	bưu	-0.1411478
-3.647872	bước	-0.1424201
-3.647872	bạn	-0.1424201
-2.744782	bản	-0.1802596
-2.802774	bảo	-0.2619308
-2.091569	bảy	-0.3351365
-3.647872	bầu	-0.1423224
-3.647872	bật	-0.1413438
-3.346842	bắc	-0.5917928
-3.346842	bắt	-0.5910065
-3.346842	bằng	-0.1400683
-3.647872	bền	-0.1424201
-3.647872	bệnh	-0.1424201
-3.647872	bị	-0.1423224
-3.346842	bố	-0.1237497
-2.369118	bốn	-0.2372024
-3.647872	bổ	-0.1424201
-2.286144	bộ	-0.227601
-2.802774	cam	-0.4750608
-2.647872	cao	-0.1840785
-3.647872	chi	-0.1424201
-2.948902	chia	-0.2650592
-3.170751	chiến	-0.1421269
-3.170751	chiều	-0.1275081
-2.369118	cho	-0.4383416
-3.647872	chu	-0.1417355
-3.647872	chung	-0.1422246
-3.647872	chuyên	-0.1415397
-2.948902	chuyến	-0.7451622
-3.647872	chuyện	-0.1382961
-3.647872	chân	-0.1398718
-2.948902	châu	-0.7456515
-2.744782	chí	-0.2719914
-2.232898	chín	-0.7047226
-2.501744	chính	-0.5050916
-3.647872	chúc	-0.1422246
-3.647872	chúng	-0.1423224
-3.170751	chương	-0.2860077
-3.647872	chấp	-0.1421268
-3.647872	chất	-0.1423224
-3.346842	chặng	-0.5938504
-3.647872	chế	-0.1424201
-2.86972	chỉ	-0.3845287
-3.647872	chịu	-0.1424201
-3.045812	chống	-0.1412458
-3.647872	chợ	-0.1421268
-2.568691	chủ	-0.7418335
-2.533928	chức	-0.187548
-3.045812	chứng	-0.2454982
-3.647872	chữ	-0.1424201
-3.647872	coi	-0.142029
-3.346842	con	-0.1372095
-3.045812	cuối	-0.2324917
-2.948902	cuộc	-0.1382961
-3.647872	cà	-0.1424201
-3.346842	càng	-0.1392816
-3.647872	cá	-0.1423224
-2.185474	các	-0.1922094
-3.346842	cách	-0.5937527
-3.346842	cáo	-0.1380987
-3.647872	câu	-0.1424201
-3.045812	còn	-0.1395768
-2.501744	có	-0.2581618
-2.443752	công	-0.2694862
-3.170751	cùng	-0.3841351
-2.948902	cúm	-0.7451622
-3.346842	cũng	-0.1399701
-3.647872	cơ	-0.1417355
-2.86972	cường	-0.2395272
-3.346842	cả	-0.1255822
-3.346842	cảm	-0.5938504
-3.647872	cảnh	-0.1423224
-2.86972	cấp	-0.2054541
-2.948902	cầm	-0.1399701
-3.346842	cần	-0.1408537
-2.948902	cầu	-0.1141568
-3.346842	cẩm	-0.5935571
-3.647872	cận	-0.1417355
-3.647872	cắm	-0.1423224
-3.346842	cổ	-0.1416376
-2.802774	cộng	-0.260852
-3.045812	cục	-0.1380988
-2.014403	của	-0.2829921
-3.346842	cứu	-0.1412458
-3.647872	cử	-0.1414418
-3.346842	cửa	-0.1417355
-3.647872	cửu	-0.1424201
-3.647872	cực	-0.1382961
-3.647872	cựu	-0.1422246
-3.647872	da	-0.1418334
-2.86972	diễn	-0.2463464
-3.170751	diện	-0.1357234
-2.802774	do	-0.2228125
-3.346842	doanh	-0.5932636
-3.170751	du	-0.2863013
-3.647872	duy	-0.1424201
-3.170751	duyệt	-0.3839382
-3.647872	dài	-0.1417355
-3.647872	dành	-0.1406575
-2.417423	dân	-0.280292
-3.647872	dâng	-0.1418334
-3.647872	dùng	-0.1421268
-2.802774	dũng	-0.2246018
-3.346842	dương	-0.1320357
-3.346842	dấu	-0.5889353
-3.647872	dẫn	-0.1394784
-2.744782	dịch	-0.3080436
-3.346842	dịp	-0.1415397
-2.744782	dục	-0.2084886
-3.647872	dụng	-0.140363
-2.267661	dự	-0.4720096
-3.170751	dựng	-0.3796828
-3.346842	e	-0.5912032
-3.346842	ga	-0.5938504
-2.647872	gia	-0.4426689
-3.170751	giai	-0.2864968
-3.045812	gian	-0.1405594
-2.802774	giao	-0.1721094
-2.948902	giá	-0.4521062
-3.170751	giám	-0.3869804
-2.693629	giáo	-0.2485536
-3.170751	giúp	-0.2864968
-3.045812	giải	-0.3099132
-3.647872	giảm	-0.1404612
-3.647872	giấy	-0.1421268
-3.647872	giềng	-0.1416376
-2.693629	giới	-0.1595256
-2.443752	giữa	-0.5633164
-3.346842	góp	-0.1413438
-3.647872	gạo	-0.1421268
-3.346842	gấp	-0.1395768
-2.948902	gần	-0.2382082
-3.647872	gắn	-0.1423224
-3.346842	gặp	-0.5938504
-3.346842	gỡ	-0.1350281
-1.498653	hai	-0.9045625
-3.647872	hinh	-0.1410498
-2.802774	hiện	-0.2206156
-3.045812	hiệp	-0.2414692
-2.86972	hiệu	-0.5683758
-3.346842	hoa	-0.1235456
-3.647872	hoan	-0.1423224
-2.948902	hoàn	-0.381815
-3.647872	hoàng	-0.1416376
-3.045812	hoạch	-0.2372031
-3.045812	hoạt	-0.4651254
-3.647872	hun	-0.1424201
-3.346842	huy	-0.1415397
-3.647872	huấn	-0.1418334
-3.647872	huế	-0.1419312
-3.647872	hy	-0.1419312
-2.948902	hà	-0.7455537
-3.647872	hàn	-0.1400683
-3.045812	hàng	-0.3057695
-3.045812	hành	-0.3070563
-3.647872	hè	-0.1424201
-3.045812	hòa	-0.3083393
-2.802774	hóa	-0.1276093
-3.647872	hùng	-0.1423224
-2.744782	hơn	-0.2831852
-3.647872	hướng	-0.1324359
-3.647872	hưởng	-0.1382961
-3.346842	hạt	-0.5924798
-3.647872	hải	-0.1424201
-3.647872	hậu	-0.1422246
-3.346842	hết	-0.1423224
-2.392599	hệ	-0.5232977
-2.744782	học	-0.1760674
-3.170751	họp	-0.1410498
-3.647872	hỏi	-0.1382961
-2.693629	hồ	-0.34609
-3.647872	hỗn	-0.1402648
-3.647872	hộ	-0.1424201
-2.216508	hội	-0.2446539
-3.647872	hợi	-0.1285183
-2.286144	hợp	-0.7084325
-3.647872	hụt	-0.1406575
-2.693629	hữu	-0.99863
-3.647872	khai	-0.1424201
-2.647872	khi	-0.1131126
-3.647872	khiêm	-0.1422246
-3.170751	khoa	-0.2860077
-3.170751	khoán	-0.3795834
-2.948902	khoảng	-0.2117428
-3.045812	khu	-0.3074515
-3.346842	khuôn	-0.5938504
-3.647872	khách	-0.1422246
-3.647872	khí	-0.1424201
-3.647872	khích	-0.1423224
-3.346842	khóa	-0.5800464
-1.755777	không	-1.213459
-3.647872	khương	-0.1419312
-3.647872	khả	-0.1424201
-3.346842	khảo	-0.1394784
-2.802774	khẩu	-0.1732503
-2.744782	khẳng	-0.9523821
-3.346842	khổ	-0.137605
-3.647872	khởi	-0.1409518
-3.647872	khủng	-0.1423224
-2.744782	kim	-0.9534602
-2.369118	kinh	-1.418527
-3.346842	kiếm	-0.1418334
-2.802774	kiến	-0.3319747
-3.647872	kiềm	-0.1424201
-3.346842	kiều	-0.1222167
-3.045812	kiểm	-0.3114814
-3.647872	kéo	-0.1424201
-3.045812	kép	-0.4655167
-3.647872	kê	-0.1398718
-2.744782	ký	-0.2118792
-3.170751	kế	-0.2863991
-2.86972	kết	-0.2429996
-3.045812	kể	-0.4637529
-3.045812	kỳ	-0.2873421
-3.170751	kỷ	-0.2864968
-3.346842	la	-0.1323359
-3.346842	lan	-0.1200614
-3.647872	li	-0.1421268
-3.647872	lim	-0.1424201
-1.85548	linh	-1.014312
-2.948902	liên	-0.2199907
-3.647872	liềm	-0.1423224
-3.647872	long	-0.1244633
-3.346842	luôn	-0.1423224
-3.647872	luận	-0.1408537
-2.325652	là	-0.2535909
-3.346842	làm	-0.138592
-2.948902	lào	-0.356791
-3.647872	láng	-0.1424201
-3.647872	lây	-0.1423224
-3.346842	lãm	-0.1415397
-3.346842	lãnh	-0.5935571
-3.647872	lê	-0.1424201
-2.86972	lên	-0.1236477
-3.647872	lò	-0.1424201
-3.647872	lúa	-0.1424201
-2.533928	lăm	-0.3703267
-2.802774	lĩnh	-0.2954512
-3.647872	lưỡi	-0.1424201
-3.647872	lược	-0.1423224
-3.346842	lượng	-0.1423224
-3.647872	lượt	-0.142029
-2.744782	lại	-0.198155
-3.647872	lạm	-0.1399701
-2.802774	lần	-0.294061
-3.647872	lẫn	-0.1424201
-3.045812	lập	-0.1378026
-2.86972	lễ	-0.2429008
-3.346842	lệ	-0.1423224
-2.948902	lịch	-0.1275081
-3.346842	lớn	-0.137605
-3.346842	lời	-0.1423224
-3.346842	lợi	-0.1405593
-3.647872	lợn	-0.1423224
-3.647872	lụt	-0.1424201
-3.170751	lực	-0.1198556
-3.647872	ma	-0.1424201
-3.346842	mang	-0.5932636
-3.647872	mau	-0.1244633
-2.647872	minh	-0.293228
-3.647872	miền	-0.1408537
-3.647872	miễn	-0.1419312
-3.346842	mong	-0.5938504
-3.346842	muốn	-0.1354256
-3.647872	mác	-0.1423224
-3.647872	mình	-0.1244633
-3.647872	mô	-0.1418334
-3.346842	môi	-0.5930678
-3.647872	mùa	-0.1424201
-3.647872	mũi	-0.1424201
-1.931868	mươi	-0.3877138
-2.024622	mười	-0.3006992
-3.647872	mạc	-0.1399701
-2.392599	mại	-0.2479226
-3.170751	mạng	-0.3861974
-2.802774	mạnh	-0.117378
-2.948902	mặt	-0.2657543
-3.647872	mẽ	-0.1404612
-3.346842	mốc	-0.1389862
-2.802774	mốt	-0.1898149
-3.647872	mỗi	-0.1419312
-1.931868	một	-0.499359
-2.802774	mới	-0.207092
-3.647872	mời	-0.1382961
-3.647872	mở	-0.1424201
-3.170751	mục	-0.2863013
-3.346842	mức	-0.1352269
-3.170751	mừng	-0.1407556
-3.647872	mỹ	-0.1396751
-3.647872	nai	-0.1394784
-1.940302	nam	-0.2608159
-2.948902	nay	-0.3601724
-3.647872	ngay	-0.1421268
-3.647872	nghiên	-0.1423224
-3.647872	nghiệm	-0.1417355
-2.744782	nghiệp	-0.2523214
-3.647872	nghèo	-0.1424201
-1.713373	nghìn	-1.181632
-3.647872	nghề	-0.1424201
-3.045812	nghệ	-0.1402648
-2.501744	nghị	-0.2136257
-2.86972	ngoài	-0.1842747
-3.045812	ngoại	-0.244519
-3.170751	nguyên	-0.1353262
-2.533928	nguyễn	-0.4247157
-3.647872	nguồn	-0.1412458
-3.170751	ngành	-0.140363
-2.232898	ngày	-0.7546093
-3.647872	ngân	-0.1421268
-3.647872	ngô	-0.1422246
-2.948902	người	-0.2487567
-2.744782	ngạch	-0.260328
-3.647872	ngọc	-0.1406575
-3.647872	ngừa	-0.1417355
-3.170751	ngừng	-0.2842423
-3.647872	nhanh	-0.1423224
-3.647872	nhau	-0.1409518
-3.647872	nhiên	-0.1417355
-2.802774	nhiều	-0.3380418
-3.647872	nhiệm	-0.1414418
-3.647872	nhiệt	-0.1422246
-3.647872	nhu	-0.142029
-3.170751	nhà	-0.3833469
-2.443752	nhân	-0.6397803
-3.647872	nhìn	-0.1423224
-3.346842	như	-0.130833
-3.346842	nhấn	-0.5933614
-2.802774	nhất	-0.324091
-3.346842	nhận	-0.1343317
-2.744782	nhập	-0.1841853
-2.802774	nhật	-0.2955491
-2.948902	nhằm	-0.2690164
-3.647872	nhớ	-0.1413438
-3.647872	nhờ	-0.1419312
-2.568691	những	-0.1546578
-3.647872	ninh	-0.1363184
-3.647872	niên	-0.1374073
-3.170751	niệm	-0.1313345
-3.170751	này	-0.1379013
-3.170751	nâng	-0.1387891
-3.346842	nêu	-0.1423224
-3.647872	nóng	-0.1419312
-2.86972	nông	-0.5924797
-1.639272	năm	-0.6508345
-3.346842	năng	-0.5878465
-2.116393	nước	-0.3437397
-3.346842	nạn	-0.1402648
-3.647872	nằm	-0.1390847
-3.647872	nếu	-0.1423224
-3.170751	nối	-0.1401666
-3.647872	nỗ	-0.1422246
-3.647872	nỗi	-0.1424201
-2.86972	nội	-0.1857192
-3.647872	nộp	-0.1424201
-3.346842	nữa	-0.1223191
-3.647872	pao	-0.1382961
-3.346842	phi	-0.1389862
-3.346842	phim	-0.1419312
-3.346842	phiên	-0.1415397
-3.647872	phiêu	-0.1244633
-3.647872	phiếu	-0.1419312
-3.647872	phá	-0.1414418
-3.045812	pháp	-0.1407556
-2.232898	phát	-0.8784361
-3.346842	phân	-0.1397735
-3.647872	phép	-0.1414418
-3.647872	phét	-0.1424201
-3.346842	phê	-0.5937527
-2.744782	phòng	-0.2571635
-2.86972	phó	-0.3296576
-3.647872	phóng	-0.1415397
-3.647872	phù	-0.1402648
-2.86972	phương	-0.130833
-3.647872	phước	-0.1363184
-3.170751	phạm	-0.1396752
-3.647872	phạt	-0.1421268
-3.647872	phản	-0.1423224
-2.744782	phần	-0.7343959
-3.647872	phẩm	-0.1422246
-2.417423	phẩy	-0.2884677
-3.170751	phật	-0.1410498
-2.606479	phố	-0.592107
-3.647872	phối	-0.1402648
-3.647872	phồn	-0.1424201
-3.647872	phục	-0.1421268
-2.86972	phủ	-0.3299537
-3.647872	phức	-0.1424201
-3.346842	po	-0.1212943
-2.948902	pu	-0.7456515
-3.647872	pác	-0.1423224
-3.647872	pích	-0.142029
-3.647872	pếch	-0.1244633
-2.86972	qua	-0.1832399
-2.325652	quan	-1.129635
-3.170751	quang	-0.1420291
-3.647872	quy	-0.1421268
-2.802774	quyết	-0.2923416
-3.647872	quyền	-0.1363184
-3.346842	quá	-0.5932636
-3.045812	quân	-0.1405594
-3.346842	quý	-0.1408537
-2.802774	quả	-0.2067821
-3.346842	quảng	-0.5937527
-2.249932	quốc	-0.3692617
-3.647872	quỹ	-0.1394784
-3.170751	ra	-0.1384934
-3.647872	ran	-0.1244633
-3.647872	riêng	-0.1418334
-3.647872	rum	-0.1422246
-3.647872	rõ	-0.1419312
-3.647872	rút	-0.1244633
-3.647872	rất	-0.1424201
-3.170751	rằng	-0.36584
-3.647872	rộng	-0.1363184
-3.647872	sang	-0.1419312
-3.045812	sau	-0.305472
-3.647872	sen	-0.1394784
-2.86972	sinh	-0.1355248
-3.647872	siêu	-0.1324359
-2.744782	so	-0.9513998
-3.346842	song	-0.5934592
-3.647872	soát	-0.1417355
-3.647872	sung	-0.1374073
-3.647872	sáng	-0.1285183
-3.346842	sát	-0.1406575
-2.249932	sáu	-0.1772912
-3.346842	sông	-0.1423224
-3.346842	sơn	-0.1421268
-3.647872	sưu	-0.142029
-2.802774	sản	-0.2233103
-2.647872	sẽ	-0.2580462
-2.693629	số	-0.1846241
-2.200714	sờ	-1.584466
-3.170751	sở	-0.1382961
-3.647872	sứ	-0.1374073
-3.647872	sử	-0.1244633
-3.647872	sửa	-0.1419312
-2.744782	sự	-0.1379013
-3.346842	ta	-0.1414418
-3.647872	tai	-0.1424201
-3.647872	tan	-0.1244633
-3.346842	tham	-0.1399701
-3.647872	thanh	-0.1424201
-3.647872	thao	-0.1374073
-2.744782	theo	-0.1341326
-3.647872	thi	-0.1423224
-3.647872	thiên	-0.1424201
-2.948902	thiết	-0.2193011
-3.647872	thiểu	-0.1416376
-3.647872	thiện	-0.1415397
-3.647872	thiệt	-0.1422246
-3.647872	thiệu	-0.1416376
-3.647872	thu	-0.1324359
-3.346842	thuận	-0.1407556
-3.647872	thuật	-0.1416376
-3.346842	thuộc	-0.1398718
-3.647872	thuỷ	-0.1418334
-2.216508	thành	-0.6030811
-3.170751	thái	-0.3866869
-2.116393	tháng	-0.4205766
-3.647872	thâm	-0.1424201
-3.647872	thêm	-0.1374073
-3.346842	thôn	-0.1413438
-2.802774	thông	-0.1914056
-3.647872	thú	-0.1418334
-3.045812	thúc	-0.2452047
-2.647872	thăm	-0.1757393
-3.045812	thư	-0.1395768
-2.369118	thương	-1.417148
-2.948902	thường	-0.3778726
-3.647872	thưởng	-0.1415397
-3.647872	thượng	-0.1424201
-3.170751	thảo	-0.1408537
-3.647872	thấy	-0.1406575
-3.647872	thần	-0.1406575
-3.647872	thập	-0.1423224
-3.647872	thắng	-0.1424201
-2.744782	thế	-0.2726777
-3.170751	thể	-0.1410498
-2.86972	thị	-0.3278829
-3.647872	thỏa	-0.1423224
-2.948902	thống	-0.1341326
-2.948902	thời	-0.3783622
-3.647872	thụ	-0.1423224
-2.501744	thủ	-1.286982
-3.346842	thủy	-0.1415397
-2.802774	thứ	-0.2000116
-3.170751	thức	-0.1297275
-3.647872	thừa	-0.1424201
-2.802774	thực	-0.2798305
-3.647872	ti	-0.1423224
-3.170751	tin	-0.1357234
-3.647872	tinh	-0.1424201
-3.647872	tiêm	-0.1417355
-2.948902	tiên	-0.2168293
-2.948902	tiêu	-0.1383948
-3.170751	tiến	-0.1358226
-3.647872	tiếng	-0.1422246
-2.693629	tiếp	-0.2530986
-3.647872	tiềm	-0.1423224
-3.647872	tiền	-0.1417355
-3.647872	to	-0.1423224
-2.948902	toàn	-0.2713735
-3.170751	tra	-0.3856091
-3.346842	tranh	-0.1240557
-3.045812	trao	-0.2453025
-3.346842	triết	-0.1421268
-3.647872	triều	-0.142029
-2.305449	triển	-0.300649
-2.647872	triệu	-1.139478
-2.103804	trong	-0.2535807
-2.417423	trung	-0.3561071
-3.170751	truyền	-0.2863013
-2.443752	trên	-0.2717585
-2.744782	trình	-0.3060668
-3.346842	trí	-0.140363
-1.647872	trăm	-0.8999636
-3.647872	trăng	-0.1424201
-3.045812	trước	-0.1210891
-2.647872	trường	-0.1857069
-2.744782	trưởng	-0.2669947
-3.346842	trạng	-0.1381974
-3.647872	trả	-0.1423224
-3.647872	trần	-0.1416376
-3.346842	trận	-0.1408537
-2.948902	trị	-0.1382961
-3.647872	trịnh	-0.1421268
-2.948902	trọng	-0.1326359
-3.170751	trở	-0.284144
-2.802774	trợ	-0.2864486
-3.647872	trụ	-0.1422246
-3.647872	trừng	-0.1424201
-2.86972	trực	-0.3293613
-3.647872	tuy	-0.1424201
-3.647872	tuyến	-0.140363
-3.647872	tuấn	-0.1394784
-3.647872	ty	-0.1423224
-3.170751	tài	-0.1406575
-2.305449	tác	-0.2621953
-2.305449	tám	-0.3748548
-3.346842	tâm	-0.1413438
-3.170751	tây	-0.1366157
-3.045812	tê	-0.4652233
-3.346842	tìm	-0.5938504
-3.170751	tình	-0.1352269
-3.647872	tích	-0.1424201
-2.86972	tính	-0.1861311
-3.647872	tú	-0.1382961
-3.647872	túy	-0.1244633
-2.568691	tăng	-0.6155182
-2.185474	tư	-0.2084671
-2.533928	tướng	-0.3329785
-3.647872	tưởng	-0.1424201
-3.647872	tạ	-0.1422246
-2.417423	tại	-0.222145
-2.948902	tạo	-0.1232393
-3.647872	tạp	-0.1418334
-2.86972	tấn	-0.5679839
-3.647872	tất	-0.1423224
-2.948902	tập	-0.2199907
-2.216508	tế	-0.2023539
-3.647872	tết	-0.1422246
-3.346842	tỉ	-0.1214995
-2.693629	tỉnh	-0.1344313
-2.693629	tịch	-0.4557897
-3.170751	tỏ	-0.3869804
-3.647872	tố	-0.1418334
-2.693629	tốt	-0.164886
-2.471781	tổ	-0.9820314
-2.346842	tổng	-0.5491366
-3.045812	tộc	-0.1350281
-3.647872	tội	-0.1422246
-2.948902	tới	-0.1158224
-3.045812	tục	-0.1407556
-2.305449	từ	-0.295033
-3.647872	từng	-0.1424201
-3.346842	tử	-0.1408537
-3.647872	tự	-0.1418334
-3.346842	tựu	-0.1243614
-2.325652	tỷ	-1.059598
-2.185474	u	-1.298973
-3.647872	uỷ	-0.1415397
-3.346842	van	-0.1417355
-3.647872	vay	-0.142029
-3.647872	vinh	-0.1418334
-2.647872	viên	-0.1598793
-3.346842	viễn	-0.5933614
-2.606479	việc	-0.1645672
-2.744782	viện	-0.2727757
-1.931868	việt	-1.620549
-3.647872	vong	-0.1418334
-3.346842	vui	-0.5937527
-1.848531	và	-0.1990105
-2.471781	vào	-0.353783
-3.045812	vê	-0.4655167
-3.346842	vì	-0.1419312
-3.647872	vùng	-0.1414418
-2.693629	văn	-0.2496486
-3.647872	vĩ	-0.1424201
-3.647872	vĩnh	-0.1423224
-3.647872	vấn	-0.1421268
-3.647872	vận	-0.1417355
-3.647872	vắc	-0.1422246
-2.606479	về	-0.2460032
-3.170751	vệ	-0.1406575
-3.346842	vịnh	-0.5938504
-2.533928	vốn	-0.507026
-2.185474	với	-0.3982644
-3.045812	vụ	-0.1402648
-3.170751	vừa	-0.1395768
-3.647872	vững	-0.1244633
-2.693629	vực	-0.1722006
-3.647872	xanh	-0.1418334
-3.170751	xin	-0.1409518
-3.346842	xinh	-0.5938504
-3.647872	xuân	-0.1324359
-2.86972	xuất	-0.331136
-3.647872	xuống	-0.1421268
-3.170751	xây	-0.2864968
-2.802774	xã	-0.9798278
-3.346842	xúc	-0.1394784
-3.647872	xờ	-0.1424201
-3.647872	xứng	-0.1396751
-2.802774	y	-0.1931899
-3.647872	yên	-0.1424201
-3.346842	yêu	-0.5935571
-3.647872	yếu	-0.1410498
-2.948902	á	-0.252046
-3.647872	ái	-0.1400683
-2.533928	án	-0.2732898
-3.346842	áp	-0.1421268
-2.216508	ét	-1.444414
-3.647872	ích	-0.142029
-2.802774	ô	-0.1955799
-3.647872	ôn	-0.1417355
-2.86972	ông	-0.1388876
-3.647872	đa	-0.1416376
-3.346842	đang	-0.1405593
-3.647872	đau	-0.1363184
-3.346842	đi	-0.140363
-3.647872	đinh	-0.1424201
-3.170751	điều	-0.1377038
-3.647872	điểm	-0.1402648
-3.170751	điện	-0.1421269
-2.693629	đoàn	-0.1990849
-3.170751	đoạn	-0.2727906
-3.647872	đoạt	-0.1421268
-3.647872	đàm	-0.1396751
-3.647872	đàn	-0.1402648
-2.948902	đào	-0.1981907
-3.647872	đán	-0.1424201
-3.045812	đánh	-0.5933615
-3.170751	đây	-0.3841351
-2.15651	đã	-0.2670238
-2.185474	đê	-0.6096713
-2.86972	đó	-0.1194436
-3.647872	đón	-0.1416376
-3.346842	đóng	-0.1421268
-2.86972	đăng	-0.8443157
-3.647872	đơn	-0.1422246
-3.346842	đường	-0.1394784
-2.802774	được	-0.1329356
-2.533928	đại	-0.2508644
-2.948902	đạo	-0.1352269
-2.443752	đạt	-0.2137563
-3.647872	đảm	-0.1418334
-3.647872	đản	-0.1324359
-2.744782	đảng	-0.2719687
-3.346842	đất	-0.1390847
-3.346842	đấu	-0.1421268
-2.15651	đầu	-0.7553442
-2.86972	đẩy	-0.3313327
-2.606479	đặc	-1.078105
-3.170751	đặt	-0.3842336
-3.170751	đẹp	-0.1335345
-2.286144	đến	-0.2711245
-3.045812	đề	-0.2440285
-3.346842	đều	-0.5932636
-2.86972	để	-0.1264955
-3.647872	đỉnh	-0.1419312
-3.045812	địa	-0.2453025
-2.369118	định	-0.2051059
-3.647872	đọc	-0.1419312
-3.346842	đỏ	-0.1338336
-3.346842	đốc	-0.1417355
-2.948902	đối	-0.3741329
-2.606479	đồng	-0.2154993
-2.86972	đổi	-0.1356241
-3.170751	độ	-0.3862953
-3.346842	độc	-0.142029
-2.744782	động	-0.1364175
-3.647872	đột	-0.1424201
-3.647872	đờ	-0.1424201
-3.170751	đỡ	-0.1421269
-3.647872	đợt	-0.1418334
-2.86972	đức	-0.2393279
-3.647872	đứng	-0.1418334
-3.346842	ơn	-0.1405593
-3.346842	ưu	-0.1419312
-2.948902	ương	-0.2195968
-3.346842	ước	-0.140363
-3.647872	ảnh	-0.1424201
-3.647872	ấn	-0.1422246
-3.647872	ể	-0.1421268
-3.647872	ổn	-0.1406575
-2.802774	ở	-0.131134
-2.606479	ủy	-1.331959
-3.346842	ứng	-0.1422246

\2-grams:
-2.084292	<s> bài	-0.01632926
-2.810906	<s> bốn
-1.479527	<s> bộ	-0.02910046
-2.084292	<s> chuyến	0.4314689
-2.810906	<s> chính
-2.810906	<s> chúc
-2.084292	<s> chủ	0.2873886
-2.09631	<s> các
-2.810906	<s> có
-2.810906	<s> cùng
-2.810906	<s> cũng
-2.810906	<s> cục
-2.810906	<s> của
-2.084292	<s> do
-2.084292	<s> dự	-0.2470198
-2.810906	<s> e
-2.810906	<s> giai
-2.084292	<s> gấp
-1.479527	<s> hai	-0.4406809
-2.810906	<s> hiện
-2.810906	<s> hội
-2.810906	<s> hợp
-2.810906	<s> kim
-2.810906	<s> kết
-2.084292	<s> kể	0.1512363
-2.810906	<s> là
-2.810906	<s> lên
-2.810906	<s> mang
-2.810906	<s> mới
-2.810906	<s> ngoại
-1.71836	<s> ngày	-0.007736206
-2.810906	<s> ngân
-2.810906	<s> nhiều
-2.09631	<s> nhằm
-2.810906	<s> nhờ
-2.084292	<s> những
-2.084292	<s> năm	-0.005041242
-2.810906	<s> nếu
-2.084292	<s> phát	-0.2890292
-1.644585	<s> phó	-0.00600747
-2.810906	<s> qua
-1.837427	<s> quan	-0.7086592
-2.810906	<s> rằng
-2.084292	<s> sau
-2.810906	<s> sáng
-2.810906	<s> thanh
-1.479527	<s> theo
-2.810906	<s> tháng
-2.810906	<s> thâm
-2.810906	<s> thăm
-2.084292	<s> thời
-1.479527	<s> thủ	0.30103
-2.810906	<s> triển
-1.303436	<s> trong	-0.03393193
-2.810906	<s> trên
-2.810906	<s> trước
-2.810906	<s> trả
-2.810906	<s> trị
-2.810906	<s> tuy
-2.084292	<s> tính	-0.1945314
-1.837427	<s> tăng	-0.07350957
-2.810906	<s> tưởng
-2.09631	<s> tại
-2.810906	<s> tổ
-1.837427	<s> tổng	-0.06816345
-2.09631	<s> từ
-2.810906	<s> viện
-2.084292	<s> việt	0.9242107
-1.257679	<s> và
-2.09631	<s> về	-0.1196148
-1.71836	<s> với	0.01976833
-2.084292	<s> ông
-2.810906	<s> điều
-2.810906	<s> đánh
-2.084292	<s> đây	-0.01632926
-2.09631	<s> đã
-2.084292	<s> đại
-2.810906	<s> đạt
-1.837427	<s> đặc	-0.474576
-2.084292	<s> đến
-2.810906	<s> đề
-2.810906	<s> đọc
-2.810906	<s> ước
-2.810906	<s> ể
-2.810906	<s> ủy
-2.810906	<s> ứng
-1.155287	a cho
-1.155287	a nguyễn
-1.155287	a pếch
-1.155287	a đê
-1.398325	an </s>
-0.6717113	an liên	-0.1659296
-1.398325	an ninh
-1.398325	an sinh
-1.398325	an thành
-1.398325	an toàn
-1.030348	anh cho
-1.030348	anh dũng
-1.030348	anh quân
-1.951167	ba </s>
-1.951167	ba hai
-1.951167	ba lần
-1.236571	ba mươi
-1.951167	ba ngày
-1.236571	ba năm	0.1267718
-1.951167	ba phần
-1.951167	ba phẩy
-0.7848466	ba tháng
-1.951167	ba thị
-1.951167	ba tại
-1.236571	ba tỷ	0.3865718
-1.951167	ba về
-1.224553	ba đến
-1.729318	ban ban
-1.729318	ban chấp
-1.002705	ban chỉ	-0.1906305
-1.729318	ban giám
-1.729318	ban hành
-1.002705	ban kiểm	-0.1121661
-1.729318	ban nguyễn
-1.014723	ban nhân	0.2684724
-1.729318	ban thể
-1.729318	ban trung
-1.729318	ban ô
-0.854257	bay kinh
-0.854257	bay áp
-0.5532271	binh thế
-0.854257	biến rất
-0.854257	biến đổi
-1.331378	biết </s>
-1.331378	biết chín
-1.331378	biết chỉ
-1.331378	biết các
-1.331378	biết dịch
-1.331378	biết ngành
-0.5532271	biển dâng
-0.5255833	biểu cấp	-0.1945314
-1.252197	biểu hiện
-0.5255833	biểu tại
-0.1276433	biện pháp
-1.59462	biệt của
-0.5020745	biệt là	-0.03721347
-1.59462	biệt việt
-1.59462	biệt và
-1.59462	biệt để
-0.5532271	buôn bán
-1.030348	buổi gặp
-0.3037346	buổi lễ
-0.5532271	bà con
-0.3037346	bài báo
-1.030348	bài học
-0.5532271	bàn tỉnh
-0.5532271	bào dân
-0.3157527	bày tỏ	0.1154837
-0.5532271	bái và
-0.5532271	bán song
-1.398325	báo </s>
-1.398325	báo cáo
-1.398325	báo nhu
-1.398325	báo nhấn
-1.398325	báo nêu
-1.398325	báo năm
-1.398325	báo thừa
-0.5532271	báu trên
-0.5532271	bão trung
-0.5532271	bè tốt
-0.854257	bê la
-0.854257	bê đã
-0.6047646	bên </s>
-1.331378	bên còn
-1.331378	bên cũng
-1.331378	bên nhất
-1.331378	bên đã
-0.5255833	bình dương
-1.252197	bình phước
-1.252197	bình thường
-1.252197	bình và
-0.1818085	bí thư
-0.854257	bó cao
-0.854257	bó với
-0.854257	bùi quang
-0.854257	bùi thiện
-0.5532271	bút sờ
-0.5532271	băng tan
-0.5532271	bưu chính
-0.5532271	bước đột
-0.5532271	bạn bè
-0.7297033	bản </s>
-1.456317	bản ba
-1.456317	bản hoàn
-1.456317	bản năm
-1.456317	bản trong
-1.456317	bản với
-1.456317	bản vừa
-0.6837295	bảo an	-0.07885776
-0.6837295	bảo vệ
-1.398325	bảo đảm
-0.5149098	bảy </s>
-2.109529	bảy dự
-1.382916	bảy hai	-0.01671067
-2.109529	bảy khai
-2.109529	bảy kim
-2.109529	bảy là
-0.9432091	bảy mươi	-0.08764852
-2.109529	bảy năm
-2.109529	bảy phẩy
-2.109529	bảy phật
-2.109529	bảy sẽ
-1.382916	bảy tháng	-0.1634038
-2.109529	bảy trên
-2.109529	bảy trăm
-2.109529	bảy tỷ
-2.109529	bảy và
-2.109529	bảy ông
-2.109529	bảy đã
-2.109529	bảy đạt
-2.109529	bảy đảng
-0.5532271	bầu làm
-0.5532271	bật những
-0.1276433	bắc bộ
-0.1276433	bắt đầu
-0.854257	bằng sông
-0.854257	bằng đến
-0.5532271	bền vững
-0.5532271	bệnh lây
-0.5532271	bị tử
-0.854257	bố </s>
-0.854257	bố quyết
-1.117385	bốn </s>
-1.831981	bốn cục
-1.831981	bốn dự
-1.117385	bốn mươi	-0.1296129
-1.831981	bốn nghìn
-1.105367	bốn phẩy
-1.105367	bốn tháng
-1.831981	bốn trăm
-1.831981	bốn tỉ
-1.831981	bốn tỉnh
-1.831981	bốn tốt
-1.105367	bốn tỷ	0.3085779
-0.5532271	bổ sung
-1.914955	bộ </s>
-1.914955	bộ chính
-1.914955	bộ chỉ
-1.914955	bộ công
-1.200359	bộ kế	0.05011255
-1.914955	bộ ngành
-1.188341	bộ nông	-0.1906305
-1.914955	bộ nội
-1.914955	bộ phim
-1.914955	bộ sưu
-1.914955	bộ thuỷ
-1.914955	bộ thương
-0.9414763	bộ trưởng	0.008884192
-1.914955	bộ tài
-1.914955	bộ và
-1.188341	bộ y	-0.2138662
-1.398325	cam kết
-0.2320047	cam pu	0.5663455
-1.398325	cam đi
-1.553227	cao bằng
-1.553227	cao cấp
-1.553227	cao hai
-1.553227	cao hiệu
-1.553227	cao nỗ
-1.553227	cao quý
-1.553227	cao việc
-1.553227	cao đức
-0.8266133	cao ủy	0.4256913
-0.5532271	chi dẫn
-1.252197	chia có
-1.252197	chia hun
-0.5255833	chia ngày
-1.252197	chia tháng
-1.030348	chiến binh
-1.030348	chiến lược
-1.030348	chiến tranh
-1.030348	chiều mười
-1.030348	chiều mới
-1.030348	chiều năm
-0.5006024	cho biết
-1.831981	cho các
-1.105367	cho công
-1.831981	cho cả
-1.831981	cho lào
-1.831981	cho năm
-1.831981	cho phép
-1.105367	cho rằng	-0.01632926
-1.831981	cho vay
-1.831981	cho việc
-1.105367	cho việt	0.9242107
-0.5532271	chu trình
-0.5532271	chung xây
-0.5532271	chuyên gia
-0.08587662	chuyến thăm
-0.5532271	chuyện của
-0.5532271	chân thành
-0.08587662	châu á	0.05346758
-0.3637718	chí minh	-0.2194533
-1.456317	chí tốt
-1.253605	chín </s>
-1.9682	chín của
-0.5118834	chín mươi	-0.03200609
-1.9682	chín năm
-1.253605	chín tháng
-0.4149733	chín trăm	-0.09897147
-1.699355	chính hai
-0.3679768	chính phủ	0.08359285
-1.699355	chính quyền
-0.9847595	chính thức
-0.9727414	chính trị
-1.699355	chính viễn
-0.5532271	chúc mừng
-0.5532271	chúng ta
-0.3157527	chương trình
-0.5532271	chấp hành
-0.5532271	chất độc
-0.1276433	chặng đường
-0.5532271	chế lạm
-1.331378	chỉ huy
-1.331378	chỉ tính
-0.6047646	chỉ đạo
-0.6047646	chỉ đạt
-0.5532271	chịu ảnh
-1.155287	chống chương
-1.155287	chống dịch
-1.155287	chống khủng
-1.155287	chống lụt
-0.5532271	chợ còn
-1.632408	chủ dân
-1.632408	chủ nhiệm
-0.1249387	chủ tịch	-0.04550537
-1.632408	chủ yếu
-1.66717	chức </s>
-1.66717	chức cuộc
-1.66717	chức hội
-1.66717	chức lễ
-1.66717	chức nhiều
-1.66717	chức năng
-1.66717	chức phi
-1.66717	chức thành
-0.6936918	chức thương	-0.2750036
-1.66717	chức trong
-0.4406915	chứng khoán	0.1154837
-1.155287	chứng nhận
-0.5532271	chữ thập
-0.5532271	coi trọng
-0.854257	con việt
-0.854257	con ưu
-0.4406915	cuối năm	0.1267718
-1.155287	cuối tháng
-1.252197	cuộc họp
-1.252197	cuộc phát
-1.252197	cuộc tham
-1.252197	cuộc tiếp
-1.252197	cuộc xây
-0.5532271	cà mau
-0.854257	càng phát
-0.854257	càng được
-0.5532271	cá vịnh
-1.289011	các biện	0.2793745
-2.015625	các bộ
-2.015625	các cam
-2.015625	các chuyên
-2.015625	các chuyến
-2.015625	các cuộc
-2.015625	các cổ
-2.015625	các dân
-1.289011	các dự	-0.08058822
-2.015625	các giải
-2.015625	các hoạt
-2.015625	các khu
-2.015625	các kết
-2.015625	các lĩnh
-2.015625	các ngành
-1.301029	các nước
-2.015625	các thủ
-2.015625	các tỉnh
-2.015625	các tổ
-2.015625	các vấn
-2.015625	các vận
-1.301029	các địa	-0.04115742
-2.015625	các đối
-0.1276433	cách mạng	-0.01632926
-0.854257	cáo của
-0.854257	cáo trạng
-0.5532271	câu hỏi
-1.155287	còn có
-1.155287	còn hiệu
-1.155287	còn khoảng
-1.155287	còn tạo
-1.699355	có buổi
-0.9727414	có bốn
-0.9727414	có các
-0.9727414	có hiệu	0.1853949
-1.699355	có một
-1.699355	có những
-1.699355	có năm
-1.699355	có sự
-1.699355	có thêm
-1.699355	có thể
-1.699355	có trên
-1.757347	công an
-1.757347	công bố
-1.030733	công cuộc
-1.042751	công nghiệp	-0.09600962
-1.042751	công nghệ
-1.757347	công thương
-1.757347	công ty
-1.030733	công tác
-1.757347	công xây
-1.757347	công đại
-0.3037346	cùng kỳ	-0.1121661
-1.030348	cùng với
-0.08587662	cúm gia	0.04956831
-0.854257	cũng dự
-0.854257	cũng như
-0.5532271	cơ bản
-1.331378	cường các
-0.6047646	cường hơn	-0.2251166
-1.331378	cường hợp
-1.331378	cường quan
-1.331378	cường trao
-0.854257	cả các
-0.854257	cả hai
-0.1276433	cảm ơn
-0.5532271	cảnh sát
-0.6167827	cấp cao	-0.1127529
-1.331378	cấp nguyễn
-1.331378	cấp nhà
-1.331378	cấp thứ
-1.252197	cầm chiều
-1.252197	cầm lần
-1.252197	cầm nâng
-1.252197	cầm để
-1.252197	cầm ở
-0.854257	cần thiết
-0.854257	cần tăng
-1.252197	cầu </s>
-1.252197	cầu các
-1.252197	cầu nối
-1.252197	cầu tiêu
-1.252197	cầu và
-0.1276433	cẩm đào
-0.5532271	cận trình
-0.5532271	cắm mốc
-0.854257	cổ phiếu
-0.854257	cổ phần
-0.6837295	cộng hòa	0.01964687
-0.6837295	cộng sản	-0.07885776
-1.398325	cộng đồng
-1.155287	cục thú
-1.155287	cục thống
-1.155287	cục trưởng
-1.155287	cục đầu
-2.186696	của ban
-2.186696	của bộ
-2.186696	của cam
-1.460082	của chính	-0.07163338
-2.186696	của chủ
-1.460082	của các
-2.186696	của công
-2.186696	của dân
-2.186696	của gần
-2.186696	của hơn
-2.186696	của mỗi
-2.186696	của mỹ
-2.186696	của nghị
-2.186696	của năm
-2.186696	của pao
-2.186696	của phóng
-2.186696	của quan
-2.186696	của sự
-1.460082	của thủ	0.8314567
-2.186696	của trung
-1.4721	của tổ	0.5161116
-1.460082	của tổng	-0.2533965
-2.186696	của viện
-0.6792259	của việt	0.2388821
-2.186696	của y
-2.186696	của đạo
-2.186696	của đảng
-2.186696	của đức
-2.186696	của ấn
-0.854257	cứu nạn
-0.854257	cứu về
-0.5532271	cử ủy
-0.854257	cửa khẩu
-0.854257	cửa lò
-0.5532271	cửu long
-0.5532271	cực của
-0.5532271	cựu chiến
-0.5532271	da cam
-1.331378	diễn biến
-1.331378	diễn ngô
-0.6047646	diễn ra
-1.331378	diễn văn
-1.331378	diễn đàn
-1.030348	diện bà
-1.030348	diện giữa
-1.030348	diện việt
-1.398325	do băng
-1.398325	do bộ
-1.398325	do chịu
-1.398325	do chủ
-0.6717113	do cúm	0.4314689
-1.398325	do của
-0.1276433	doanh nghiệp
-0.3157527	du lịch
-0.5532271	duy khương
-1.030348	duyệt đã
-0.3037346	duyệt đề	-0.1191513
-0.5532271	dài hơn
-0.5532271	dành cho
-1.783676	dân chủ
-1.783676	dân các
-1.057062	dân cách	0.2793745
-1.783676	dân nhân
-1.06908	dân thành	-0.009433746
-1.06908	dân trung	-0.143002
-1.783676	dân tỉnh
-0.8101974	dân tộc
-1.783676	dân việt
-0.5532271	dâng do
-0.5532271	dùng hàng
-0.6717113	dũng cho
-1.398325	dũng cảm
-1.398325	dũng diễn
-1.398325	dũng hy
-1.398325	dũng khẳng
-1.398325	dũng đã
-0.854257	dương a
-0.854257	dương năm
-0.1276433	dấu một
-0.5532271	dẫn đầu
-1.456317	dịch bệnh
-0.7297033	dịch chứng	-0.1191513
-0.7297033	dịch cúm	0.4314689
-1.456317	dịch ngày
-1.456317	dịch tai
-1.456317	dịch vụ
-0.854257	dịp cuối
-0.854257	dịp để
-1.456317	dục du
-1.456317	dục giải
-1.456317	dục giữa
-1.456317	dục thể
-1.456317	dục và
-1.456317	dục đào
-0.7297033	dục đại	-0.26331
-0.5532271	dụng từ
-1.218843	dự báo
-1.933438	dự hội
-0.8408931	dự kiến	0.08948733
-1.933438	dự lễ
-1.933438	dự thảo
-1.933438	dự tính
-0.3802112	dự án	0.0840371
-0.3037346	dựng và	-0.3042718
-1.030348	dựng vào
-0.1276433	e u
-0.1276433	ga po
-0.3869066	gia cầm
-1.553227	gia khiêm
-0.8266133	gia nhập
-1.553227	gia phòng
-1.553227	gia với
-0.3157527	giai đoạn	0.05011255
-1.155287	gian bay
-1.155287	gian diễn
-1.155287	gian tới
-1.155287	gian ở
-1.398325	giao </s>
-1.398325	giao ban
-0.6837295	giao dịch	-0.09330354
-1.398325	giao lần
-1.398325	giao việt
-0.5255833	giá cao
-1.252197	giá một
-0.5255833	giá trị
-1.030348	giám khảo
-0.3037346	giám đốc
-0.4149244	giáo dục	0.02036407
-1.50747	giáo hội
-1.50747	giáo việt
-0.3157527	giúp đỡ
-0.4286733	giải pháp
-1.155287	giải quyết
-1.155287	giải đặc
-0.5532271	giảm tỷ
-0.5532271	giấy chứng
-0.5532271	giềng tốt
-1.50747	giới </s>
-1.50747	giới cắm
-1.50747	giới lần
-1.50747	giới nhìn
-1.50747	giới thiệu
-1.50747	giới và
-0.792874	giới vê	0.2292302
-1.757347	giữa các
-1.757347	giữa doanh
-0.2498775	giữa hai	-0.9122334
-1.757347	giữa nhật
-1.757347	giữa thành
-1.757347	giữa tỉnh
-1.030733	giữa việt	0.9242107
-0.854257	góp mặt
-0.854257	góp nhất
-0.5532271	gạo vụ
-0.854257	gấp ba
-0.854257	gấp gần
-0.5255833	gần hai
-1.252197	gần mười
-1.252197	gần một
-1.252197	gần năm
-0.5532271	gắn bó
-0.1276433	gặp gỡ
-0.854257	gỡ và
-0.854257	gỡ đại
-1.536126	hai bên
-1.975832	hai chiều
-1.975832	hai dự	-0.08058822
-0.8067964	hai mươi	0.1519923
-0.3041211	hai nghìn	-1.141048
-2.702446	hai ngày
-1.536126	hai năm	0.1834827
-1.035276	hai nước	-0.222208
-2.702446	hai phần
-2.702446	hai phẩy
-2.702446	hai thành
-1.975832	hai tháng
-1.987851	hai triệu	0.7633225
-2.702446	hai trong
-1.728968	hai trăm
-2.702446	hai tỉ
-2.702446	hai từ
-1.987851	hai tỷ	0.3865718
-2.702446	hai ông
-2.702446	hai đại
-2.702446	hai đến
-0.5532271	hinh vào
-1.398325	hiện dự
-1.398325	hiện là
-1.398325	hiện sinh
-1.398325	hiện tốt
-0.6717113	hiện đã	-0.2212497
-1.398325	hiện đạt
-1.155287	hiệp hội
-0.4406915	hiệp định
-1.331378	hiệu lực
-0.1650579	hiệu quả	0.003720246
-0.854257	hoa </s>
-0.854257	hoa hồ
-0.5532271	hoan phim
-0.5376015	hoàn lại
-0.5255833	hoàn thành	-0.2900064
-0.5532271	hoàng văn
-1.155287	hoạch phát
-0.4406915	hoạch và	-0.2181453
-0.1818085	hoạt động
-0.5532271	hun sen
-0.854257	huy hiệu
-0.854257	huy quân
-0.5532271	huấn thứ
-0.5532271	huế để
-0.5532271	hy sinh
-0.08587662	hà nội	-0.00600747
-0.5532271	hàn quốc
-0.4286733	hàng hóa
-1.155287	hàng phát
-1.155287	hàng đầu
-1.155287	hành ngày
-1.155287	hành trung
-0.4286733	hành động
-0.5532271	hè thu
-1.155287	hòa bình
-1.155287	hòa dân
-0.4286733	hòa nhân	0.1904785
-1.398325	hóa giáo
-1.398325	hóa nghệ
-1.398325	hóa quan
-1.398325	hóa thông
-1.398325	hóa trong
-1.398325	hóa từ
-1.398325	hóa việt
-0.5532271	hùng yêu
-1.456317	hơn ba
-1.456317	hơn dự
-1.456317	hơn hai
-1.456317	hơn mười
-0.7297033	hơn một	-0.2421208
-0.7297033	hơn nữa
-0.5532271	hướng năm
-0.5532271	hưởng của
-0.1276433	hạt nhân
-0.5532271	hải từng
-0.5532271	hậu tình
-0.854257	hết lúa
-0.854257	hết mình
-1.8085	hệ giữa
-1.8085	hệ hai
-0.4771213	hệ hợp	-0.3284682
-0.6421791	hệ hữu	0.8202051
-1.081886	hệ kinh	0.9640822
-1.8085	hệ ngoại
-1.8085	hệ năm
-1.8085	hệ đối
-1.456317	học công
-1.456317	học giáo
-1.456317	học quý
-1.456317	học trường
-0.7417215	học việt	1.002205
-1.456317	học và
-1.030348	họp giao
-1.030348	họp kéo
-1.030348	họp lần
-0.5532271	hỏi của
-0.4149244	hồ chí	0.102636
-0.7808558	hồ cẩm	0.2793745
-0.5532271	hỗn hợp
-0.5532271	hộ nghèo
-1.269995	hội </s>
-1.984591	hội chợ
-1.257977	hội của
-1.984591	hội liên
-1.984591	hội mười
-1.269995	hội nghị
-1.984591	hội nhà
-1.257977	hội nhập
-1.984591	hội phật
-1.984591	hội quốc
-1.984591	hội sinh
-1.257977	hội thảo
-1.984591	hội trường
-1.984591	hội và
-1.984591	hội vùng
-1.984591	hội đàm
-1.011112	hội đồng	-0.102987
-0.5532271	hợi hai
-1.914955	hợp bị
-1.914955	hợp hành
-1.914955	hợp mong
-1.200359	hợp quốc	-0.06367201
-0.1576079	hợp tác	0.02684924
-1.914955	hợp vào
-0.5532271	hụt thương
-0.04575749	hữu nghị	-0.03663169
-0.5532271	khai mạc
-1.553227	khi bình
-1.553227	khi hai
-1.553227	khi kim
-1.553227	khi nối
-1.553227	khi nộp
-1.553227	khi thành
-1.553227	khi trung
-1.553227	khi việt
-1.553227	khi đã
-1.553227	khi đó
-0.5532271	khiêm bày
-0.3157527	khoa học
-0.3037346	khoán thành	-0.08742765
-1.030348	khoán việt
-0.5376015	khoảng mười	-0.1454991
-1.252197	khoảng một
-1.252197	khoảng tám
-1.155287	khu bốn
-1.155287	khu kinh
-0.4286733	khu vực
-0.1276433	khuôn khổ
-0.5532271	khách du
-0.5532271	khí hậu
-0.5532271	khích lệ
-0.1276433	khóa hai	-0.01671067
-1.730726	không hoàn	-0.08793566
-1.730726	không ngừng	0.05011255
-1.730726	không thường	0.08787256
-0.05324551	không trăm	-0.5613573
-0.5532271	khương phó
-0.5532271	khả phiêu
-0.854257	khảo chính
-0.854257	khảo tại
-1.398325	khẩu </s>
-0.6837295	khẩu của	-0.134688
-1.398325	khẩu hàng
-1.398325	khẩu lớn
-1.398325	khẩu từ
-0.05115252	khẳng định	-0.05531006
-0.854257	khổ hội
-0.854257	khổ hợp
-0.5532271	khởi công
-0.5532271	khủng bố
-0.05115252	kim ngạch	0.05244248
-1.831981	kinh nghiệm
-0.0234811	kinh tế	-0.05992552
-0.854257	kiếm cứu
-0.854257	kiếm đối
-1.398325	kiến có
-1.398325	kiến dự
-1.398325	kiến phát
-0.6717113	kiến sẽ
-0.6717113	kiến trong
-0.5532271	kiềm chế
-0.854257	kiều </s>
-0.854257	kiều từ
-1.155287	kiểm soát
-1.155287	kiểm sát
-0.4286733	kiểm tra	-0.01632926
-0.5532271	kéo dài
-0.1818085	kép tê	-1.087849
-0.5532271	kê thành
-1.456317	ký gần
-1.456317	ký hiệp
-1.456317	ký khoảng
-1.456317	ký kết
-1.456317	ký là
-0.7297033	ký trên
-1.456317	ký đạt
-0.3157527	kế hoạch	-0.04115742
-1.331378	kết chương
-0.6047646	kết quả
-1.331378	kết quốc
-1.331378	kết thúc
-1.331378	kết đặc
-0.1818085	kể từ	-1.464117
-1.155287	kỳ hai
-1.155287	kỳ họp
-0.4286733	kỳ năm
-0.3157527	kỷ niệm
-0.854257	la năm
-0.854257	la rút
-0.854257	lan </s>
-0.854257	lan của
-0.5532271	li a
-0.5532271	lim pích
-0.4701724	linh bảy	-0.1638568
-1.619005	linh chín	-0.2897495
-1.619005	linh hai	-0.3101822
-1.179298	linh một	-0.1138653
-1.253074	linh năm
-0.6163004	linh sáu	-0.02422683
-0.7923917	linh tám	0.04255542
-1.252197	liên hoan
-0.5376015	liên hợp	-0.2083969
-1.252197	liên đoàn
-0.5532271	liềm đỏ
-0.5532271	long </s>
-0.854257	luôn coi
-0.854257	luôn gắn
-0.5532271	luận tại
-1.875446	là biểu
-1.875446	là cầu
-1.875446	là dịp
-1.148833	là hai
-1.875446	là khi
-1.160851	là mười	-0.1547548
-1.148833	là một	-0.3020395
-1.875446	là những
-1.148833	là trên	-0.2721983
-1.875446	là tăng
-1.875446	là từ
-1.875446	là việc
-1.875446	là viện
-1.148833	là về	-0.2514279
-1.875446	là điểm
-0.854257	làm các
-0.854257	làm ủy
-0.2787185	lào </s>
-1.252197	lào mười
-0.5532271	láng giềng
-0.5532271	lây lan
-0.854257	lãm chất
-0.854257	lãm giáo
-0.1276433	lãnh đạo
-0.5532271	lê khả
-1.331378	lên một
-1.331378	lên mức
-1.331378	lên năm
-1.331378	lên toàn
-1.331378	lên tới
-1.331378	lên đến
-0.5532271	lò phản
-0.5532271	lúa gạo
-0.9405566	lăm </s>
-1.66717	lăm năm
-0.9405566	lăm phần	0.2873886
-0.9525748	lăm phẩy
-0.9405566	lăm tháng
-0.9405566	lăm và
-1.66717	lăm được
-0.3057799	lĩnh vực	-0.009922475
-0.5532271	lưỡi liềm
-0.5532271	lược vì
-0.854257	lượng cảnh
-0.854257	lượng khách
-0.5532271	lượt người
-0.7297033	lại </s>
-1.456317	lại chặng
-1.456317	lại dành
-1.456317	lại hiệu
-1.456317	lại lợi
-1.456317	lại số
-1.456317	lại viện
-0.5532271	lạm phát
-1.398325	lần một
-0.6717113	lần so	0.6395711
-0.6837295	lần thứ
-1.398325	lần trước
-0.5532271	lẫn nhau
-1.155287	lập lực
-1.155287	lập quan
-1.155287	lập tự
-1.155287	lập đến
-1.331378	lễ chủ
-1.331378	lễ hội
-0.6047646	lễ kỷ	-0.02788135
-1.331378	lễ phật
-1.331378	lễ ông
-0.854257	lệ hộ
-0.854257	lệ nguồn
-1.252197	lịch an
-1.252197	lịch bền
-1.252197	lịch hai
-1.252197	lịch hàn
-1.252197	lịch sử
-0.854257	lớn của
-0.854257	lớn nhất
-0.854257	lời câu
-0.854257	lời mời
-0.854257	lợi cho
-0.854257	lợi ích
-0.5532271	lợn đang
-0.5532271	lụt bão
-1.030348	lực </s>
-1.030348	lực của
-1.030348	lực lượng
-0.5532271	ma túy
-0.1276433	mang lại
-0.5532271	mau </s>
-0.5797485	minh </s>
-1.553227	minh cho
-0.8266133	minh triết
-1.553227	minh từ
-1.553227	minh và
-1.553227	minh vừa
-0.5532271	miền trung
-0.5532271	miễn thị
-0.1276433	mong muốn
-0.854257	muốn các
-0.854257	muốn của
-0.5532271	mác bắt
-0.5532271	mình </s>
-0.5532271	mô bảo
-0.1276433	môi trường
-0.5532271	mùa xuân
-0.5532271	mũi cà
-2.26923	mươi </s>
-1.176685	mươi ba	0.008663662
-2.26923	mươi bảy
-1.554635	mươi chín
-2.26923	mươi giáo
-1.295752	mươi hai
-0.7617608	mươi lăm	-0.001623347
-1.176685	mươi mốt	0.03480984
-1.542617	mươi nghìn
-2.26923	mươi quỹ
-2.26923	mươi so
-1.295752	mươi sáu
-2.26923	mươi tháng
-2.26923	mươi triệu
-1.542617	mươi tám
-0.9378521	mươi tư	-0.0589572
-2.26923	mươi tập
-1.202998	mười </s>
-1.461881	mười ba	-0.1050039
-1.202998	mười bảy	-0.1110722
-1.202998	mười bốn	-0.09395392
-1.083931	mười hai	-0.3392664
-1.202998	mười lăm
-1.461881	mười một
-1.010156	mười năm	0.2093498
-2.176476	mười nối
-2.176476	mười sáu
-1.449863	mười triệu	0.6853286
-2.176476	mười tám
-2.176476	mười tại
-2.176476	mười tới
-2.176476	mười tỷ
-0.5532271	mạc ngày
-1.081886	mại </s>
-1.8085	mại của
-1.8085	mại dự
-1.8085	mại giữa
-1.8085	mại hai
-1.8085	mại khoa
-1.8085	mại song
-0.835021	mại thế	-1.307539
-1.093904	mại và	-0.1727459
-1.8085	mại văn
-1.081886	mại đầu	0.2736003
-1.030348	mạng do
-0.3037346	mạng lào	0.009878665
-1.398325	mạnh </s>
-1.398325	mạnh khẳng
-1.398325	mạnh mẽ
-1.398325	mạnh sẽ
-1.398325	mạnh xuất
-1.398325	mạnh đại
-1.398325	mạnh đầu
-1.252197	mặt của
-1.252197	mặt giữa
-1.252197	mặt nhất
-0.5255833	mặt trận
-0.5532271	mẽ quan
-0.854257	mốc quan
-0.854257	mốc vào
-1.398325	mốt </s>
-1.398325	mốt nghìn
-1.398325	mốt phẩy
-1.398325	mốt tháng
-1.398325	mốt và
-0.6717113	mốt đến
-0.5532271	mỗi bên
-1.554635	một </s>
-2.26923	một chặng
-2.26923	một công
-2.26923	một hai
-2.26923	một mốc
-0.6368221	một nghìn	-0.7244664
-1.554635	một năm	0.1267718
-2.26923	một phiên
-0.9378521	một phẩy	-0.04315688
-1.554635	một số
-1.542617	một tháng
-1.542617	một trong
-0.8129134	một trăm	-0.0446133
-2.26923	một trường
-2.26923	một tại
-2.26923	một tổng
-1.295752	một tỷ	0.4588729
-2.26923	một đợt
-0.6717113	mới </s>
-1.398325	mới chỉ
-1.398325	mới giáo
-1.398325	mới nhất
-1.398325	mới quan
-1.398325	mới đạt
-0.5532271	mời của
-0.5532271	mở rộng
-0.3157527	mục tiêu
-0.854257	mức một
-0.854257	mức tám
-1.030348	mừng thấy
-1.030348	mừng trước
-1.030348	mừng đại
-0.5532271	mỹ với
-0.5532271	nai đã
-0.7075702	nam </s>
-2.260797	nam bùi
-2.260797	nam còn
-2.260797	nam gia
-2.260797	nam giai
-2.260797	nam hoàng
-2.260797	nam khẳng
-1.534184	nam luôn
-1.534184	nam là
-2.260797	nam làm
-2.260797	nam lào
-2.260797	nam nhập
-2.260797	nam nông
-1.534184	nam năm
-2.260797	nam phi
-2.260797	nam sang
-2.260797	nam triển
-2.260797	nam trong
-2.260797	nam trung
-1.546202	nam trở	0.05011255
-2.260797	nam tại
-2.260797	nam từ
-1.287319	nam và
-2.260797	nam vào
-2.260797	nam về
-2.260797	nam với
-2.260797	nam xinh
-2.260797	nam ông
-2.260797	nam đoàn
-1.534184	nam đã
-2.260797	nam đạt
-2.260797	nam đặt
-2.260797	nam đến
-0.2787185	nay </s>
-1.252197	nay giáo
-0.5532271	ngay sau
-0.5532271	nghiên cứu
-0.5532271	nghiệm phòng
-1.456317	nghiệp chung
-1.456317	nghiệp năm
-1.456317	nghiệp trong
-0.7417215	nghiệp việt	1.002205
-0.7297033	nghiệp và	-0.2854246
-0.5532271	nghèo xuống
-2.487725	nghìn bảy
-0.9344984	nghìn chín	-0.8305393
-2.487725	nghìn hai
-0.09564936	nghìn không	-0.9072459
-2.487725	nghìn lượt
-2.487725	nghìn một
-2.487725	nghìn năm
-2.487725	nghìn tỷ
-2.487725	nghìn u
-0.5532271	nghề cá
-1.155287	nghệ cấp
-1.155287	nghệ giáo
-1.155287	nghệ thuật
-1.155287	nghệ thông
-0.9847595	nghị </s>
-1.699355	nghị bộ
-1.699355	nghị chính
-1.699355	nghị giữa
-1.699355	nghị quyết
-1.699355	nghị thượng
-0.9847595	nghị truyền	0.05011255
-0.9727414	nghị và	-0.3045589
-1.699355	nghị định
-0.6167827	ngoài </s>
-1.331378	ngoài thuộc
-1.331378	ngoài với
-1.331378	ngoài đầu
-0.4406915	ngoại giao
-1.155287	ngoại trưởng
-1.030348	nguyên tiếp
-1.030348	nguyên và
-1.030348	nguyên đán
-0.9405566	nguyễn minh	-0.2445659
-1.66717	nguyễn quốc
-1.66717	nguyễn sinh
-1.66717	nguyễn thành
-0.50085	nguyễn tấn	0.3202714
-0.9405566	nguyễn văn
-1.66717	nguyễn ái
-0.5532271	nguồn vốn
-1.030348	ngành chức
-1.030348	ngành thủy
-1.030348	ngành y
-1.9682	ngày </s>
-1.9682	ngày ba
-1.241587	ngày càng
-0.3735807	ngày hai	-0.9677205
-1.9682	ngày hội
-0.5118834	ngày mười	-0.08503693
-1.9682	ngày sinh
-1.9682	ngày thành
-0.5532271	ngân hàng
-0.5532271	ngô quang
-0.5255833	người </s>
-1.252197	người con
-1.252197	người thiệt
-1.252197	người việt
-1.456317	ngạch buôn
-1.456317	ngạch hai
-1.456317	ngạch nhập
-0.7297033	ngạch thương	0.9640822
-0.7417215	ngạch xuất	-0.0627184
-0.5532271	ngọc cho
-0.5532271	ngừa dịch
-0.3157527	ngừng phát	0.4001446
-0.5532271	nhanh quá
-0.5532271	nhau giữa
-0.5532271	nhiên theo
-1.398325	nhiều hoạt
-0.6717113	nhiều lĩnh	-0.01833996
-0.6717113	nhiều mặt
-1.398325	nhiều thành
-1.398325	nhiều tập
-0.5532271	nhiệm ủy
-0.5532271	nhiệt tình
-0.5532271	nhu cầu
-1.030348	nhà báo
-0.3037346	nhà nước
-1.757347	nhân chiến
-1.757347	nhân của
-0.1627273	nhân dân	-0.03958182
-1.757347	nhân triều
-1.757347	nhân tố
-1.757347	nhân vào
-0.5532271	nhìn nhận
-0.854257	như công
-0.854257	như năm
-0.1276433	nhấn mạnh
-0.6717113	nhất của
-1.398325	nhất là
-1.398325	nhất năm
-0.6717113	nhất trí
-1.398325	nhất định
-0.854257	nhận việt
-0.854257	nhận đầu
-0.7417215	nhập khẩu
-1.456317	nhập kinh
-1.456317	nhập quốc
-1.456317	nhập siêu
-1.456317	nhập tổ
-1.456317	nhập vê
-0.3057799	nhật bản	0.02036407
-1.252197	nhằm mang
-1.252197	nhằm nâng
-1.252197	nhằm phát
-0.5255833	nhằm thúc	-0.1191513
-0.5532271	nhớ những
-0.5532271	nhờ đó
-1.632408	những bộ
-1.632408	những giải
-1.632408	những hoạt
-1.632408	những kết
-1.632408	những người
-1.632408	những nhân
-0.9178127	những năm	-0.1715057
-1.632408	những phần
-1.632408	những thành
-1.632408	những đóng
-0.5532271	ninh và
-0.5532271	niên việt
-1.030348	niệm bốn
-1.030348	niệm mười
-1.030348	niệm một
-1.030348	này lên
-1.030348	này sẽ
-1.030348	này đã
-1.030348	nâng cao
-1.030348	nâng kim
-1.030348	nâng tổng
-0.854257	nêu bật
-0.854257	nêu rõ
-0.5532271	nóng lên
-0.6047646	nông nghiệp	-0.2251166
-0.6047646	nông thôn
-0.6047646	nông đức	-0.1906305
-2.561827	năm </s>
-2.561827	năm cam
-2.561827	năm cộng
-2.561827	năm dự
-0.2925968	năm hai	-1.418043
-2.561827	năm kể
-2.561827	năm lên
-2.561827	năm lần
-1.230449	năm mươi	-0.05931949
-1.0086	năm một	-0.9274493
-1.835213	năm ngày
-2.561827	năm năm
-2.561827	năm phẩy
-1.588349	năm qua	-0.04423641
-2.561827	năm thiết
-2.561827	năm tháng
-2.561827	năm thủ
-2.561827	năm trăm
-2.561827	năm trước
-1.835213	năm tài
-2.561827	năm tại
-1.835213	năm tới
-1.588349	năm tỷ	0.4588729
-2.561827	năm và
-1.847232	năm đến	-0.1300834
-2.561827	năm ước
-0.1276433	năng và
-0.9921608	nước </s>
-2.084706	nước biển
-2.084706	nước chúng
-2.084706	nước chỉ
-1.358092	nước cộng	-0.2138662
-2.084706	nước hồ
-2.084706	nước ký
-0.7533277	nước ngoài	0.01772838
-1.358092	nước nguyễn	-0.2617775
-1.358092	nước này
-2.084706	nước sẽ
-2.084706	nước thành
-2.084706	nước trao
-2.084706	nước trong
-2.084706	nước tại
-1.358092	nước và
-2.084706	nước đặc
-1.358092	nước đều	0.2793745
-0.854257	nạn an
-0.854257	nạn nhân
-0.5532271	nằm trong
-0.5532271	nếu như
-1.030348	nối lại
-1.030348	nối thông
-1.030348	nối tốt
-0.5532271	nỗ lực
-0.5532271	nỗi đau
-0.6167827	nội </s>
-1.331378	nội nguyễn
-1.331378	nội vụ
-1.331378	nội đã
-0.5532271	nộp đơn
-0.854257	nữa </s>
-0.854257	nữa quan
-0.5532271	pao của
-0.854257	phi chính
-0.854257	phi từ
-0.854257	phim chuyện
-0.854257	phim châu
-0.854257	phiên giao
-0.854257	phiên họp
-0.5532271	phiêu </s>
-0.5532271	phiếu tính
-0.5532271	phá về
-1.155287	pháp nhằm
-1.155287	pháp trừng
-1.155287	pháp đẩy
-1.155287	pháp để
-1.241587	phát biểu	-0.1609234
-1.9682	phát huy
-0.1139434	phát triển	-0.09010354
-1.9682	phát điện
-1.9682	phát đã
-1.9682	phát ổn
-0.854257	phân giới
-0.854257	phân định
-0.5532271	phép ủy
-0.5532271	phét xờ
-0.1276433	phê duyệt	-0.01632926
-1.456317	phòng </s>
-0.7417215	phòng chống
-1.456317	phòng ngừa
-0.7297033	phòng thương	0.9640822
-1.456317	phòng vắc
-0.6047646	phó chủ	0.2873886
-0.6167827	phó thủ	0.9094505
-1.331378	phó tổng
-0.5532271	phóng viên
-0.5532271	phù hợp
-1.331378	phương cần
-1.331378	phương của
-1.331378	phương hướng
-1.331378	phương trong
-1.331378	phương từ
-1.331378	phương vào
-0.5532271	phước và
-1.030348	phạm gia
-1.030348	phạm thế
-1.030348	phạm về
-0.5532271	phạt chống
-0.5532271	phản ứng
-1.456317	phần thưởng
-1.456317	phần thủy
-0.1249387	phần trăm	-0.1259806
-0.5532271	phẩm điện
-1.06908	phẩy ba	-0.1569093
-1.783676	phẩy bảy
-1.06908	phẩy bốn	-0.1473739
-1.06908	phẩy hai
-1.057062	phẩy một	-0.2921154
-0.8101974	phẩy năm	-0.1530237
-1.783676	phẩy tám
-1.030348	phật giáo
-1.030348	phật lịch
-1.030348	phật đản
-1.59462	phố </s>
-1.59462	phố cơ
-0.868006	phố hà	0.4314689
-0.2632414	phố hồ	-0.634214
-1.59462	phố đã
-0.5532271	phối hợp
-0.5532271	phồn vinh
-0.5532271	phục vụ
-0.6167827	phủ nhật	0.05965394
-1.331378	phủ tập
-0.6047646	phủ đã
-0.5532271	phức tạp
-0.854257	po </s>
-0.854257	po đã
-0.08587662	pu chia	0.05346758
-0.5532271	pác bó
-0.5532271	pích châu
-0.5532271	pếch </s>
-0.6167827	qua </s>
-1.331378	qua các
-1.331378	qua quan
-1.331378	qua từ
-0.06694679	quan hệ	0.1606587
-1.160851	quan trọng
-1.030348	quang anh
-1.030348	quang hải
-1.030348	quang ngọc
-0.5532271	quy hoạch
-1.398325	quyết các
-1.398325	quyết tâm
-1.398325	quyết áp
-0.4248465	quyết định	-0.09395392
-0.5532271	quyền và
-0.1276433	quá trình	-0.2251166
-1.155287	quân huấn
-1.155287	quân khu
-1.155287	quân sự
-1.155287	quân y
-0.854257	quý báu
-0.854257	quý trên
-1.398325	quả </s>
-1.398325	quả nghiên
-0.6717113	quả thiết	-0.1659296
-1.398325	quả trong
-1.398325	quả tăng
-1.398325	quả tốt
-0.1276433	quảng tây
-0.6197888	quốc </s>
-1.951167	quốc chủ
-1.951167	quốc gia
-1.951167	quốc hai
-1.951167	quốc hội
-1.951167	quốc khóa
-1.951167	quốc phòng
-1.951167	quốc triệu
-1.951167	quốc trong
-0.6197888	quốc tế
-1.951167	quốc việt
-1.951167	quốc về
-1.951167	quốc vừa
-1.951167	quốc đến
-1.951167	quốc ở
-0.5532271	quỹ đầu
-1.030348	ra lễ
-1.030348	ra ngay
-1.030348	ra nước
-0.5532271	ran </s>
-0.5532271	riêng lĩnh
-0.5532271	rum giám
-0.5532271	rõ đức
-0.5532271	rút </s>
-0.5532271	rất phức
-0.3037346	rằng </s>
-1.030348	rằng nước
-0.5532271	rộng và
-0.5532271	sang thị
-1.155287	sau gần
-0.4286733	sau khi
-1.155287	sau một
-0.5532271	sen đã
-1.331378	sinh của
-1.331378	sinh hùng
-1.331378	sinh viên
-1.331378	sinh vì
-1.331378	sinh xã
-1.331378	sinh động
-0.5532271	siêu năm
-0.05115252	so với	-0.0878776
-0.1276433	song phương
-0.5532271	soát dịch
-0.5532271	sung một
-0.5532271	sáng hai
-0.854257	sát nhân
-0.854257	sát điều
-0.8586218	sáu </s>
-1.951167	sáu cho
-1.951167	sáu của
-1.236571	sáu hai	0.06128323
-1.951167	sáu là
-1.951167	sáu mươi
-1.951167	sáu người
-1.951167	sáu năm
-1.951167	sáu phần
-1.951167	sáu tháng
-1.951167	sáu thủ
-1.951167	sáu triệu
-1.951167	sáu trên
-1.224553	sáu đã	-0.2212497
-1.224553	sáu đạt
-0.854257	sông cửu
-0.854257	sông hinh
-0.854257	sơn la
-0.854257	sơn sông
-0.5532271	sưu tập
-1.398325	sản phẩm
-0.6717113	sản trung	-0.2157793
-1.398325	sản tạ
-1.398325	sản việt
-1.398325	sản xuất
-1.398325	sản đặt
-1.553227	sẽ không
-1.553227	sẽ khởi
-1.553227	sẽ phát
-0.8266133	sẽ thăm
-0.8266133	sẽ tiếp	-0.2383758
-1.553227	sẽ trao
-1.553227	sẽ tổ
-1.553227	sẽ đóng
-1.50747	số </s>
-1.50747	số các
-1.50747	số người
-1.50747	số tiền
-1.50747	số trường
-1.50747	số tỉnh
-0.7808558	số vốn
-1.50747	số điều
-2.000385	sờ dự
-0.01579427	sờ đê	-0.08685672
-1.030348	sở giao
-1.030348	sở hội
-1.030348	sở văn
-0.5532271	sứ việt
-0.5532271	sử </s>
-0.5532271	sửa đổi
-1.456317	sự biến
-1.456317	sự giúp
-1.456317	sự góp
-1.456317	sự nghiệp
-1.456317	sự phát
-1.456317	sự phối
-1.456317	sự quân
-1.456317	sự đón
-0.854257	ta li
-0.854257	ta sẽ
-0.5532271	tai xanh
-0.5532271	tan </s>
-0.854257	tham dự
-0.854257	tham khảo
-0.5532271	thanh niên
-0.5532271	thao việt
-1.456317	theo ban
-1.456317	theo báo
-1.456317	theo bộ
-1.456317	theo chương
-1.456317	theo các
-1.456317	theo cáo
-1.456317	theo cục
-1.456317	theo lời
-0.5532271	thi đấu
-0.5532271	thiên huế
-1.252197	thiết lập
-0.5376015	thiết thực	-0.07885776
-1.252197	thiết với
-0.5532271	thiểu số
-0.5532271	thiện minh
-0.5532271	thiệt mạng
-0.5532271	thiệu văn
-0.5532271	thu năm
-0.854257	thuận lợi
-0.854257	thuận trên
-0.5532271	thuật giới
-0.854257	thuộc bộ
-0.854257	thuộc khu
-0.5532271	thuỷ sản
-1.984591	thành công
-1.984591	thành cảm
-1.257977	thành lập
-0.3899711	thành phố	0.0534676
-1.984591	thành rum
-1.269995	thành thành	-0.1921374
-1.257977	thành tựu
-1.011112	thành viên
-1.257977	thành việc
-0.3037346	thái bình	-0.1609234
-1.030348	thái lan
-1.37011	tháng ba	-0.1569093
-2.084706	tháng bảy
-1.37011	tháng bốn	-0.1483819
-2.084706	tháng chín
-0.5314789	tháng mười	-0.08562845
-1.37011	tháng một	-0.1705762
-1.358092	tháng năm
-2.084706	tháng qua
-1.111227	tháng sáu
-1.37011	tháng tám	-0.1523868
-1.37011	tháng đầu	-0.1620542
-0.5532271	thâm hụt
-0.5532271	thêm một
-0.854257	thôn bùi
-0.854257	thôn cao
-1.398325	thông hiện
-0.6837295	thông tin
-1.398325	thông toàn
-1.398325	thông tấn
-1.398325	thông việt
-0.5532271	thú y
-1.155287	thúc phiên
-0.4406915	thúc đẩy	-0.05881748
-1.553227	thăm cam
-1.553227	thăm chính
-1.553227	thăm của
-1.553227	thăm hữu
-1.553227	thăm là
-1.553227	thăm nam
-1.553227	thăm nhật
-0.8266133	thăm việt	0.9242107
-1.553227	thăm và
-1.155287	thư ban
-1.155287	thư lê
-1.155287	thư nông
-1.155287	thư đảng
-1.831981	thương dự
-0.0234811	thương mại	-0.00589031
-1.252197	thường hóa
-0.2787185	thường trực	-0.04423641
-0.5532271	thưởng cao
-0.5532271	thượng đỉnh
-1.030348	thảo gặp
-1.030348	thảo luận
-1.030348	thảo nghị
-0.5532271	thấy kinh
-0.5532271	thần bốn
-0.5532271	thập đỏ
-0.5532271	thắng mùa
-1.456317	thế duyệt
-0.3637718	thế giới	-0.009922475
-1.030348	thể dục
-1.030348	thể lên
-1.030348	thể thao
-1.331378	thị nhiệt
-1.331378	thị thực
-0.3578997	thị trường
-0.5532271	thỏa thuận
-1.252197	thống bút
-1.252197	thống kê
-1.252197	thống và
-1.252197	thống đoàn
-1.252197	thống đặc
-0.2787185	thời gian
-1.252197	thời kỳ
-0.5532271	thụ hết
-0.03218468	thủ tướng	0.1421375
-1.699355	thủ tục
-0.854257	thủy sản
-0.854257	thủy điện
-1.398325	thứ ba
-1.398325	thứ hai
-1.398325	thứ nhất
-1.398325	thứ năm
-1.398325	thứ sáu
-0.6717113	thứ trưởng
-1.030348	thức của
-1.030348	thức nước
-1.030348	thức việt
-0.5532271	thừa thiên
-1.398325	thực </s>
-0.6717113	thực cho
-0.6837295	thực hiện
-1.398325	thực đối
-0.5532271	ti van
-1.030348	tin mới
-1.030348	tin thành
-1.030348	tin trong
-0.5532271	tinh thần
-0.5532271	tiêm phòng
-0.5376015	tiên tiến
-1.252197	tiên đã
-1.252197	tiên đầu
-1.252197	tiêu dùng
-1.252197	tiêu giảm
-1.252197	tiêu thụ
-1.252197	tiêu đạt
-1.252197	tiêu đến
-1.030348	tiến trong
-1.030348	tiến trên
-1.030348	tiến tại
-0.5532271	tiếng anh
-1.50747	tiếp cận
-1.50747	tiếp nước
-1.50747	tiếp trọng
-0.792874	tiếp tục
-1.50747	tiếp với
-0.7808558	tiếp xúc
-0.5532271	tiềm năng
-0.5532271	tiền hơn
-0.5532271	to lớn
-1.252197	toàn bay
-1.252197	toàn cầu
-0.5255833	toàn diện
-1.252197	toàn tuyến
-0.3037346	tra trung	-0.1947138
-1.030348	tra tội
-0.854257	tranh </s>
-0.854257	tranh ngoại
-1.155287	trao giấy
-0.4406915	trao đổi
-0.854257	triết bày
-0.854257	triết chân
-0.5532271	triều tiên
-1.169036	triển </s>
-1.89565	triển châu
-1.89565	triển các
-1.89565	triển du
-1.89565	triển giữa
-0.9221712	triển kinh	-0.2750036
-1.169036	triển lãm
-1.169036	triển nông	-0.1906305
-0.9221712	triển quan	0.6807216
-1.89565	triển trong
-1.89565	triển trên
-1.89565	triển và
-1.89565	triển xứng
-1.553227	triệu nhấn
-0.04575749	triệu u	0.161368
-1.382699	trong ba
-2.097295	trong chuyến
-2.097295	trong chín
-2.097295	trong dịp
-2.097295	trong giai
-2.097295	trong hai
-2.097295	trong hơn
-1.370681	trong khi
-2.097295	trong khu
-1.370681	trong khuôn	0.2793745
-2.097295	trong lĩnh
-1.123816	trong những	-0.1084476
-1.123816	trong năm	0.1452537
-2.097295	trong nước
-2.097295	trong quá
-2.097295	trong sự
-2.097295	trong tháng
-1.382699	trong thời	0.08787256
-1.370681	trong việc
-1.382699	trong đó
-1.783676	trung </s>
-1.783676	trung chủ
-1.057062	trung hoa
-0.6911308	trung quốc
-1.783676	trung tâm
-0.6173555	trung ương	0.02259438
-0.3157527	truyền thống
-1.030733	trên hai	-0.2409993
-1.757347	trên là
-1.030733	trên lĩnh	-0.01833996
-1.757347	trên mười
-1.757347	trên mặt
-1.030733	trên một
-1.030733	trên nhiều	-0.2106708
-1.757347	trên năm
-1.757347	trên sau
-1.757347	trên thế
-1.757347	trên tất
-1.757347	trên địa
-1.456317	trình hạt
-1.456317	trình hỗn
-0.7297033	trình hội	-0.2900064
-1.456317	trình hợp
-1.456317	trình tiên
-0.7297033	trình độ	-0.01632926
-0.854257	trí sẽ
-0.854257	trí tăng
-1.826613	trăm </s>
-2.553227	trăm ba
-1.386907	trăm bảy	-0.1272433
-2.553227	trăm bốn
-1.09691	trăm chín	-0.7945417
-1.579749	trăm hai	-1.480085
-0.2076083	trăm linh	0.2749823
-1.460682	trăm mười	-0.0581145
-1.838632	trăm năm	-0.2103486
-1.386907	trăm so	0.7744476
-1.826613	trăm tám	-0.2593382
-0.5532271	trăng lưỡi
-1.155287	trước </s>
-1.155287	trước những
-1.155287	trước vào
-1.155287	trước đó
-1.553227	trường chứng
-0.8266133	trường của
-1.553227	trường hợp
-1.553227	trường nhật
-1.553227	trường trong
-1.553227	trường xuất
-1.553227	trường đã
-1.553227	trường đại
-1.553227	trường đảng
-0.4828385	trưởng bộ
-1.456317	trưởng cho
-1.456317	trưởng các
-1.456317	trưởng cục
-1.456317	trưởng ngoại
-0.854257	trạng của
-0.854257	trạng nóng
-0.5532271	trả lời
-0.5532271	trần văn
-0.854257	trận tổ
-0.854257	trận đấu
-1.252197	trị cấp
-1.252197	trị giá
-1.252197	trị kinh
-1.252197	trị sản
-1.252197	trị thị
-0.5532271	trịnh quân
-1.252197	trọng của
-1.252197	trọng thị
-1.252197	trọng trong
-1.252197	trọng tạo
-1.252197	trọng việc
-0.3157527	trở thành	-0.2127046
-0.6717113	trợ cho
-1.398325	trợ của
-0.6837295	trợ không	-0.2285281
-1.398325	trợ ô
-0.5532271	trụ sở
-0.5532271	trừng phạt
-0.6167827	trực hội	-0.1921374
-1.331378	trực nguyễn
-0.6047646	trực tiếp
-0.5532271	tuy nhiên
-0.5532271	tuyến từ
-0.5532271	tuấn đã
-0.5532271	ty cổ
-1.030348	tài chính
-1.030348	tài khóa
-1.030348	tài nguyên
-1.89565	tác bảo
-1.89565	tác chiến
-1.89565	tác giúp
-0.9221712	tác giữa	0.2295835
-1.89565	tác hữu
-1.89565	tác kinh
-1.89565	tác nghề
-1.89565	tác nhiều
-1.89565	tác nhật
-1.169036	tác phát	0.3221507
-1.89565	tác thông
-1.169036	tác toàn	-0.1609234
-1.89565	tác trong
-1.89565	tác trên
-1.169036	tác tốt
-1.89565	tác đặc
-0.5642715	tám </s>
-1.89565	tám bảy
-1.169036	tám bộ
-1.89565	tám dự
-1.169036	tám hai	-0.01671067
-0.9221712	tám mươi	-0.0995176
-1.89565	tám phần
-1.89565	tám phẩy
-1.89565	tám triệu
-1.89565	tám tổng
-1.89565	tám đến
-1.89565	tám ở
-0.854257	tâm giao
-0.854257	tâm hoàn
-1.030348	tây nguyên
-1.030348	tây ngày
-1.030348	tây đã
-0.1818085	tê ô	-0.02543777
-0.1276433	tìm kiếm
-1.030348	tình hữu
-1.030348	tình trạng
-1.030348	tình và
-0.5532271	tích cực
-1.331378	tính </s>
-1.331378	tính riêng
-1.331378	tính tổng
-0.6167827	tính đến
-0.5532271	tú của
-0.5532271	túy </s>
-0.30103	tăng cường	0.04216547
-0.9057946	tăng hai	-0.2409993
-1.632408	tăng hơn
-0.9178127	tăng mười
-2.015625	tư cho
-1.289011	tư của
-1.289011	tư dự	-0.2470198
-2.015625	tư giá
-2.015625	tư học
-2.015625	tư khoa
-2.015625	tư kể
-2.015625	tư mới
-2.015625	tư nhằm
-1.301029	tư nước	-0.1523566
-2.015625	tư phát
-2.015625	tư phù
-2.015625	tư ra
-1.289011	tư tháng
-2.015625	tư triệu
-2.015625	tư trên
-1.289011	tư trực	-0.1906305
-2.015625	tư tại
-2.015625	tư tỉnh
-2.015625	tư tỷ
-2.015625	tư vào
-2.015625	tư với
-2.015625	tư đăng
-1.66717	tướng </s>
-1.66717	tướng cam
-0.9405566	tướng chính	-0.07163338
-0.50085	tướng nguyễn	-0.01509888
-1.66717	tướng nêu
-1.66717	tướng phạm
-1.66717	tướng thường
-1.66717	tướng đánh
-0.5532271	tưởng nhớ
-0.5532271	tạ quang
-1.057062	tại buổi	-0.01632926
-1.783676	tại cuộc
-1.06908	tại hà	0.5094628
-1.057062	tại hội
-1.783676	tại kỳ
-1.783676	tại liên
-1.783676	tại một
-1.783676	tại sở
-1.783676	tại trung
-1.783676	tại trụ
-1.783676	tại việt
-1.783676	tại y
-1.783676	tại đây
-1.252197	tạo </s>
-1.252197	tạo bước
-1.252197	tạo theo
-1.252197	tạo thuận
-1.252197	tạo tiếng
-0.5532271	tạp ở
-0.1650579	tấn dũng
-1.331378	tấn xã
-0.5532271	tất cả
-1.252197	tập sản
-1.252197	tập trung
-0.5376015	tập đoàn
-1.257977	tế </s>
-1.984591	tế cam
-1.984591	tế cho
-1.984591	tế châu
-1.984591	tế chữ
-1.984591	tế có
-1.984591	tế của
-1.984591	tế cửa
-1.984591	tế giáo
-1.984591	tế giữa
-1.984591	tế hàng
-1.984591	tế quốc
-0.8920456	tế thương	1.135171
-1.984591	tế tổ
-1.984591	tế vĩ
-1.011112	tế xã	-0.7086592
-1.984591	tế đặc
-0.5532271	tết nguyên
-0.854257	tỉ </s>
-0.854257	tỉ u
-1.50747	tỉnh bình
-1.50747	tỉnh miền
-1.50747	tỉnh sơn
-1.50747	tỉnh thuộc
-1.50747	tỉnh thành
-1.50747	tỉnh van
-1.50747	tỉnh yên
-1.50747	tỉnh đã
-1.50747	tỉnh đồng
-1.50747	tịch hồ
-0.533991	tịch nước	-0.1099673
-0.7808558	tịch phòng	-0.2251166
-0.7808558	tịch ủy	0.4256913
-1.030348	tỏ mong
-0.3037346	tỏ vui	0.2793745
-0.5532271	tố mới
-1.50747	tốt </s>
-1.50747	tốt bạn
-1.50747	tốt hiệp
-1.50747	tốt láng
-0.792874	tốt đẹp
-1.50747	tốt đối
-1.50747	tốt đồng
-0.09691001	tổ chức	-0.0718263
-1.014723	tổ quốc	-0.06367201
-0.8807785	tổng bí	-1.087849
-1.854257	tổng giá
-1.854257	tổng giám
-1.127643	tổng kim	0.6395711
-1.139661	tổng số	-0.1042161
-1.854257	tổng thống
-0.39794	tổng vốn	-1.120526
-1.155287	tộc thiểu
-1.155287	tộc trong
-1.155287	tộc tỉnh
-1.155287	tộc đã
-0.5532271	tội phạm
-1.252197	tới </s>
-1.252197	tới một
-1.252197	tới nay
-1.252197	tới sẽ
-1.252197	tới tại
-1.155287	tục cần
-1.155287	tục thực
-1.155287	tục được
-1.155287	tục ưu
-1.89565	từ bốn
-1.89565	từ cuối
-1.89565	từ hai
-0.7293293	từ khi
-1.169036	từ một
-1.181054	từ ngày	0.05602367
-0.9221712	từ năm	0.1452537
-1.89565	từ pác
-1.89565	từ quảng
-1.89565	từ thái
-1.89565	từ tháng
-1.89565	từ đầu
-0.5532271	từng đoạt
-0.854257	tử công
-0.854257	tử vong
-0.5532271	tự do
-0.854257	tựu </s>
-0.854257	tựu to
-1.148833	tỷ </s>
-1.875446	tỷ lệ
-0.1180993	tỷ u	-0.06908095
-1.148833	tỷ đồng	-0.2514279
-2.015625	u hiện
-0.03103423	u ét	0
-2.015625	u đạt
-0.5532271	uỷ viên
-0.854257	van lần
-0.854257	van đờ
-0.5532271	vay tiêu
-0.5532271	vinh ở
-1.553227	viên bầu
-1.553227	viên chính
-1.553227	viên của
-0.8386315	viên không	-0.2285281
-1.553227	viên thi
-1.553227	viên thông
-1.553227	viên tổ
-1.553227	viên việt
-0.1276433	viễn thông
-1.59462	việc cho
-1.59462	việc phát
-1.59462	việc phân
-1.59462	việc phòng
-1.59462	việc sửa
-1.59462	việc tiêm
-1.59462	việc tăng
-1.59462	việc viện
-0.8800241	việc việt	1.002205
-1.456317	viện kiểm
-0.3637718	viện trợ	0.06444459
-1.542617	việt kiều
-2.26923	việt lào
-0.02580726	việt nam	-0.0002025068
-0.5532271	vong do
-0.1276433	vui mừng
-2.352568	và bài
-2.352568	và bê
-1.625954	và bảo	-0.2138662
-1.637972	và các
-2.352568	và có
-1.637972	và công	-0.1416014
-2.352568	và doanh
-1.625954	và dự
-2.352568	và hai
-2.352568	và hiệp
-2.352568	và hành
-1.637972	và hợp	0.2799523
-2.352568	và hữu
-2.352568	và không
-2.352568	và khẳng
-2.352568	và kiểm
-2.352568	và môi
-2.352568	và ngày
-1.637972	và nhân	0.2684724
-2.352568	và nhất
-2.352568	và nước
-1.186247	và phát	-0.01613522
-2.352568	và phương
-2.352568	và phồn
-2.352568	và quan
-1.625954	và quốc
-1.625954	và sự
-2.352568	và tinh
-1.625954	và tiếp
-2.352568	và trăng
-2.352568	và tìm
-2.352568	và tết
-2.352568	và tỉnh
-2.352568	và tổng
-2.352568	và uỷ
-2.352568	và xinh
-2.352568	và đang
-2.352568	và đi
-1.379089	và đầu	-0.9654855
-2.352568	và đẩy
-2.352568	và đức
-2.352568	và đứng
-2.352568	và ủy
-1.729318	vào các
-1.729318	vào công
-1.729318	vào e
-1.729318	vào hoạt
-1.002705	vào ngày
-0.5629979	vào năm	0.1298353
-1.002705	vào tháng	-0.2957435
-1.729318	vào thị
-1.729318	vào việt
-0.1818085	vê kép	-1.087849
-0.854257	vì hòa
-0.854257	vì độc
-0.5532271	vùng đồng
-1.50747	văn chi
-1.50747	văn dũng
-0.533991	văn hóa
-1.50747	văn nam
-1.50747	văn tuấn
-1.50747	văn tại
-0.5532271	vĩ mô
-0.5532271	vĩnh sơn
-0.5532271	vấn đề
-0.5532271	vận động
-0.5532271	vắc xin
-1.59462	về dự
-1.59462	về khoa
-0.868006	về kinh	0.9640822
-1.59462	về ma
-1.59462	về những
-1.59462	về quan
-1.59462	về sự
-0.868006	về việc
-1.59462	về đầu
-1.030348	vệ môi
-1.030348	vệ tổ
-1.030348	vệ đất
-0.1276433	vịnh bắc	0.2793745
-1.66717	vốn là
-1.66717	vốn nước
-1.66717	vốn thực
-0.50085	vốn đăng	0.6653031
-0.50085	vốn đầu	0.4084768
-1.289011	với cùng	-0.01632926
-2.015625	với dân
-2.015625	với hai
-2.015625	với hiệp
-2.015625	với lãnh
-2.015625	với mục
-0.8493046	với năm	0.1298353
-2.015625	với phét
-2.015625	với quảng
-2.015625	với tiềm
-2.015625	với trung
-0.559308	với tổng	0.09903216
-2.015625	với việc
-1.289011	với việt
-2.015625	với đoàn
-2.015625	với ủy
-1.155287	vụ cho
-1.155287	vụ hè
-1.155287	vụ trần
-1.155287	vụ viễn
-1.030348	vừa ký
-1.030348	vừa quyết
-1.030348	vừa tổ
-0.5532271	vững </s>
-1.50747	vực chính
-1.50747	vực dịch
-1.50747	vực giữa
-0.792874	vực kinh	1.042076
-1.50747	vực tây
-1.50747	vực và
-1.50747	vực đặc
-0.5532271	xanh ở
-1.030348	xin cúm
-1.030348	xin gia
-1.030348	xin nỗi
-0.1276433	xinh ga	0.2793745
-0.5532271	xuân năm
-1.331378	xuất công
-0.6167827	xuất khẩu
-0.6047646	xuất nhập	-0.2278226
-0.5532271	xuống còn
-0.3157527	xây dựng	0.1154837
-0.06694679	xã hội	-0.1327778
-1.398325	xã việt
-0.854257	xúc lãnh
-0.854257	xúc với
-0.5532271	xờ ti
-0.5532271	xứng với
-1.398325	y bộ
-1.398325	y ran
-1.398325	y ta
-1.398325	y tìm
-0.6837295	y tế
-0.5532271	yên bái
-0.1276433	yêu cầu
-0.5532271	yếu vào
-1.252197	á </s>
-1.252197	á a
-1.252197	á giữa
-0.5255833	á thái	-0.01632926
-0.5532271	ái quốc
-1.66717	án phát
-1.66717	án quy
-1.66717	án sẽ
-1.66717	án viện
-1.66717	án và
-1.66717	án đào
-0.50085	án đầu	0.4084768
-1.66717	án đến
-1.66717	án đổi
-0.854257	áp dụng
-0.854257	áp đặt
-0.01579427	ét sờ	0
-0.5532271	ích thiết
-0.6717113	ô </s>
-1.398325	ô lim
-1.398325	ô năm
-1.398325	ô tháng
-1.398325	ô xin
-1.398325	ô đê
-0.5532271	ôn lại
-1.331378	ông bày
-1.331378	ông khẳng
-1.331378	ông nguyễn
-1.331378	ông phạm
-1.331378	ông trịnh
-1.331378	ông đoàn
-0.5532271	đa số
-0.854257	đang có
-0.854257	đang diễn
-0.5532271	đau và
-0.854257	đi vào
-0.854257	đi ô
-0.5532271	đinh hợi
-1.030348	điều của
-1.030348	điều này
-1.030348	điều tra
-0.5532271	điểm đến
-1.030348	điện chu
-1.030348	điện tử
-1.030348	điện vĩnh
-1.50747	đoàn bưu
-1.50747	đoàn cựu
-1.50747	đoàn duy
-1.50747	đoàn kinh
-1.50747	đoàn kết
-1.50747	đoàn và
-1.50747	đoàn đào
-0.7808558	đoàn đại	-0.2617775
-0.3157527	đoạn hai	0.1151023
-0.5532271	đoạt giải
-0.5532271	đàm với
-0.5532271	đàn hợp
-1.252197	đào </s>
-0.5376015	đào tạo
-1.252197	đào và
-0.5532271	đán đinh
-0.4286733	đánh dấu	0.2793745
-0.4286733	đánh giá	-0.1609234
-1.030348	đây chủ
-0.3037346	đây là
-2.044589	đã anh
-2.044589	đã bắt
-2.044589	đã cho
-0.7132105	đã có
-2.044589	đã công
-2.044589	đã hội
-2.044589	đã khích
-2.044589	đã không
-2.044589	đã khẳng
-1.317975	đã phê	0.2793745
-2.044589	đã quyết
-2.044589	đã tham
-2.044589	đã trao
-2.044589	đã tăng
-1.317975	đã tổ	0.3842986
-2.044589	đã và
-2.044589	đã yêu
-2.044589	đã ôn
-2.044589	đã đánh
-2.044589	đã được
-1.329993	đã đạt	-0.1954205
-2.044589	đã đến
-0.31627	đê </s>
-2.015625	đê a
-2.015625	đê bê
-2.015625	đê là
-1.042146	đê năm	0.1452537
-1.289011	đê trong
-2.015625	đê tăng
-1.289011	đê vào	-0.1758902
-1.289011	đê vốn
-2.015625	đê để
-1.331378	đó có
-1.331378	đó kim
-1.331378	đó lượng
-1.331378	đó một
-1.331378	đó năm
-1.331378	đó việt
-0.5532271	đón tiếp
-0.854257	đóng cửa
-0.854257	đóng góp
-0.06694679	đăng ký	0.007679418
-0.5532271	đơn xin
-0.854257	đường lịch
-0.854257	đường phát
-1.398325	được mở
-1.398325	được nhiều
-1.398325	được quốc
-1.398325	được thỏa
-1.398325	được trong
-1.398325	được tổ
-1.398325	được đại
-0.9405566	đại biểu	-0.1609234
-1.66717	đại diện
-0.9525748	đại học	-0.1498287
-0.9525748	đại hội
-1.66717	đại lễ
-1.66717	đại sứ
-1.66717	đại thắng
-1.66717	đại đa
-1.252197	đạo các
-1.252197	đạo cấp
-1.252197	đạo diễn
-1.252197	đạo phòng
-1.252197	đạo quốc
-1.757347	đạt bảy
-1.757347	đạt bốn
-1.757347	đạt gần
-1.757347	đạt hơn
-1.030733	đạt khoảng	-0.1659296
-1.757347	đạt kim
-1.042751	đạt một	-0.1641269
-1.757347	đạt trên
-1.757347	đạt trình
-1.757347	đạt tám
-1.042751	đạt được
-0.5532271	đảm an
-0.5532271	đản năm
-1.456317	đảng bộ
-1.456317	đảng cao
-0.7417215	đảng cộng	-0.1358723
-1.456317	đảng nhà
-0.7297033	đảng nhân	0.1904785
-0.854257	đất mũi
-0.854257	đất nước
-0.854257	đấu hết
-0.854257	đấu tranh
-2.044589	đầu chuyến
-2.044589	đầu của
-1.329993	đầu năm
-2.044589	đầu thế
-0.1296339	đầu tư	0.00807777
-2.044589	đầu từ
-2.044589	đầu đã
-0.6167827	đẩy mạnh
-1.331378	đẩy nhanh
-0.6047646	đẩy quan	0.5304266
-0.03778856	đặc biệt	0.07839819
-1.030348	đặt các
-0.3037346	đặt mục	-0.02788135
-1.030348	đẹp giữa
-1.030348	đẹp tăng
-1.030348	đẹp và
-1.188341	đến cuối
-1.914955	đến hai
-1.914955	đến khoảng
-1.914955	đến mười
-1.914955	đến mới
-0.9414763	đến nay	0.1601737
-1.200359	đến ngày
-0.9414763	đến năm	0.1452537
-1.188341	đến tháng	-0.1634038
-1.914955	đến thăm
-1.914955	đến từ
-1.914955	đến việt
-1.914955	đến đất
-1.155287	đề xã
-0.4406915	đề án
-0.1276433	đều khẳng	0.6395711
-1.331378	để hai
-1.331378	để kỷ
-1.331378	để nâng
-1.331378	để phục
-1.331378	để thực
-1.331378	để đẩy
-0.5532271	đỉnh diễn
-1.155287	địa bàn
-0.4406915	địa phương
-1.105367	định </s>
-1.831981	định ban
-1.831981	định cộng
-1.831981	định của
-1.831981	định hợp
-1.831981	định kinh
-1.831981	định kiềm
-1.831981	định lại
-1.831981	định miễn
-1.831981	định phân
-1.105367	định quyết
-1.831981	định thương
-1.105367	định viện	-0.06845272
-1.831981	định vào
-1.831981	định vịnh
-1.831981	định đảng
-0.5532271	đọc diễn
-0.854257	đỏ quốc
-0.854257	đỏ và
-0.854257	đốc sở
-0.854257	đốc tập
-0.2787185	đối tác
-1.252197	đối với
-0.868006	đồng </s>
-1.59462	đồng bào
-0.8800241	đồng bảo	-0.1358723
-1.59462	đồng bằng
-1.59462	đồng chí
-1.59462	đồng liên
-1.59462	đồng nai
-1.59462	đồng người
-1.331378	đổi bổ
-1.331378	đổi các
-1.331378	đổi hợp
-1.331378	đổi khí
-1.331378	đổi mới
-1.331378	đổi đoàn
-1.030348	độ lên
-0.3037346	độ tiên	-0.1659296
-0.854257	độc da
-0.854257	độc lập
-1.456317	động do
-1.456317	động giúp
-1.456317	động nhiều
-1.456317	động nằm
-1.456317	động tình
-1.456317	động từ
-1.456317	động viên
-1.456317	động văn
-0.5532271	đột phá
-0.5532271	đờ mác
-1.030348	đỡ lẫn
-1.030348	đỡ nạn
-1.030348	đỡ tích
-0.5532271	đợt thứ
-0.6047646	đức mạnh
-1.331378	đức phát
-1.331378	đức trong
-1.331378	đức vào
-1.331378	đức đánh
-0.5532271	đứng thứ
-0.854257	ơn chủ
-0.854257	ơn sự
-0.854257	ưu tiên
-0.854257	ưu tú
-1.252197	ương dự
-1.252197	ương mặt
-0.5376015	ương đảng	-0.09330354
-0.854257	ước tính
-0.854257	ước đạt
-0.5532271	ảnh hưởng
-0.5532271	ấn độ
-0.5532271	ể thúc
-0.5532271	ổn định
-1.398325	ở châu
-1.398325	ở lợn
-1.398325	ở một
-1.398325	ở mức
-1.398325	ở nước
-1.398325	ở thăm
-1.398325	ở đồng
-0.08715018	ủy ban	-0.03283828
-0.868006	ủy viên	-0.2466374
-0.854257	ứng cử
-0.854257	ứng hạt

\3-grams:
-0.4638953	bảo an liên
-0.831872	mươi ba tháng
-0.4638953	mười ba tháng
-0.4638953	phẩy ba tỷ
-0.4638953	tháng ba năm
-0.9410166	ủy ban kiểm
-0.8537263	ủy ban nhân
-0.287804	phát biểu tại
-0.287804	đại biểu cấp
-0.287804	các biện pháp
-0.746792	đặc biệt là
-0.287804	tại buổi lễ
-0.287804	<s> bài báo
-0.287804	thái bình dương
-0.0123074	tổng bí thư
-0.831872	nhật bản </s>
-0.287804	và bảo vệ
-0.376605	đồng bảo an
-0.2808266	linh bảy </s>
-0.588834	mười bảy tháng
-0.4698074	trăm bảy mươi
-0.287804	vịnh bắc bộ
-0.588834	mười bốn tháng
-0.4638953	phẩy bốn tỷ
-0.4638953	tháng bốn </s>
-0.7649253	<s> bộ trưởng
-0.4638953	cấp cao ủy
-0.685744	pu chia ngày
-0.287804	<s> chuyến thăm
-0.5504974	hồ chí minh
-0.287804	linh chín </s>
-0.04139268	nghìn chín trăm
-0.05115252	trăm chín mươi
-0.287804	của chính phủ
-0.287804	tướng chính phủ
-0.287804	ban chỉ đạo
-0.287804	<s> chủ tịch
-0.287804	phó chủ tịch
-0.4894286	tổ chức thương
-0.287804	dịch chứng khoán
-0.287804	dân cách mạng
-0.4638953	và công nghiệp
-0.287804	với cùng kỳ
-0.287804	do cúm gia
-0.287804	dịch cúm gia
-0.7649253	tăng cường hơn
-0.287804	biểu cấp cao
-0.287804	hồ cẩm đào
-0.287804	nước cộng hòa
-0.376605	đảng cộng sản
-0.376605	khẩu của việt
-0.287804	phê duyệt đề
-1.028167	nhân dân cách
-0.9408765	nhân dân thành
-0.9408765	nhân dân trung
-0.287804	đánh dấu một
-0.4638953	giao dịch chứng
-0.831872	giáo dục đại
-0.287804	<s> dự kiến
-0.287804	các dự án
-0.287804	hai dự án
-0.287804	tư dự kiến
-0.4638953	xây dựng và
-0.287804	xinh ga po
-0.4698074	cúm gia cầm
-0.287804	đánh giá cao
-0.7445818	thế giới vê
-0.588834	tác giữa hai
-0.1883987	<s> hai bên
-0.287804	bảy hai nghìn
-0.05115252	giữa hai nước
-0.287804	khóa hai nghìn
-0.287804	linh hai triệu
-0.2553454	mười hai năm
-0.04139268	ngày hai mươi
-0.008433168	năm hai nghìn
-0.376605	sáu hai nghìn
-0.287804	trên hai mươi
-0.0123074	trăm hai mươi
-0.287804	tám hai nghìn
-0.287804	tăng hai mươi
-0.4638953	đoạn hai nghìn
-0.287804	có hiệu quả
-0.376605	không hoàn lại
-0.376605	kế hoạch và
-0.287804	phố hà nội
-0.376605	tại hà nội
-0.4638953	cộng hòa nhân
-0.287804	cường hơn nữa
-0.4771213	quan hệ hợp
-1.02611	quan hệ hữu
-1.242047	quan hệ kinh
-0.376605	đại học việt
-0.06694679	phố hồ chí
-0.287804	trình hội nhập
-0.376605	trực hội đồng
-0.7649253	xã hội </s>
-0.7649253	xã hội của
-0.06694679	hệ hợp tác
-0.376605	liên hợp quốc
-0.376605	và hợp tác
-0.4698074	hệ hữu nghị
-0.4638953	chứng khoán thành
-0.287804	đạt khoảng mười
-0.287804	trong khuôn khổ
-0.006248949	nghìn không trăm
-0.376605	trợ không hoàn
-0.376605	viên không thường
-0.287804	đều khẳng định
-0.287804	tổng kim ngạch
-0.287804	hệ kinh tế
-0.0123074	triển kinh tế
-0.287804	về kinh tế
-0.376605	vực kinh tế
-0.831872	dự kiến sẽ
-0.831872	dự kiến trong
-0.287804	ban kiểm tra
-0.0123074	vê kép tê
-0.7649253	đăng ký trên
-0.376605	bộ kế hoạch
-0.287804	<s> kể từ
-0.287804	cùng kỳ năm
-0.287804	lễ kỷ niệm
-0.4701724	trăm linh bảy
-1.779166	trăm linh chín
-1.779166	trăm linh hai
-1.563229	trăm linh một
-1.497791	trăm linh năm
-0.6163004	trăm linh sáu
-0.7923917	trăm linh tám
-0.287804	an liên hợp
-0.831872	biệt là trên
-0.287804	mạng lào </s>
-0.9410166	mươi lăm phẩy
-0.9410166	mươi lăm và
-0.287804	nhiều lĩnh vực
-0.287804	trên lĩnh vực
-0.2553454	chí minh </s>
-0.287804	nguyễn minh triết
-0.685744	bảy mươi nghìn
-0.4638953	bốn mươi tư
-0.889864	chín mươi chín
-0.889864	chín mươi lăm
-1.241907	hai mươi ba
-1.241907	hai mươi hai
-1.241907	hai mươi lăm
-1.241907	hai mươi mốt
-1.329197	hai mươi sáu
-1.329197	hai mươi tư
-0.7649253	năm mươi sáu
-0.588834	tám mươi ba
-0.4638953	khoảng mười hai
-0.4638953	là mười bốn
-0.889864	ngày mười ba
-0.889864	ngày mười bốn
-0.8994838	tháng mười hai
-0.986774	tháng mười một
-0.8994838	tháng mười năm
-0.7445818	trăm mười </s>
-1.242047	thương mại </s>
-0.6655199	thương mại thế
-1.154756	thương mại và
-1.242047	thương mại đầu
-0.287804	cách mạng lào
-0.831872	mươi mốt đến
-0.287804	hơn một trăm
-0.5984538	linh một </s>
-0.287804	là một trong
-0.04139268	năm một nghìn
-0.287804	phẩy một tỷ
-0.4638953	tháng một năm
-0.376605	đạt một trăm
-0.287804	đặt mục tiêu
-0.6901961	việt nam </s>
-1.67697	việt nam luôn
-1.67697	việt nam là
-1.67697	việt nam năm
-1.58968	việt nam trở
-1.100443	việt nam và
-1.67697	việt nam đã
-0.5015438	đến nay </s>
-0.4638953	công nghiệp việt
-0.287804	nông nghiệp và
-0.006248949	hai nghìn không
-0.07918125	một nghìn chín
-0.9410166	hữu nghị </s>
-0.8537263	hữu nghị truyền
-0.9410166	hữu nghị và
-0.677635	nước ngoài </s>
-0.287804	nước nguyễn minh
-0.4698074	tướng nguyễn tấn
-0.7445818	<s> ngày hai
-0.2553454	<s> ngày mười
-0.4638953	từ ngày hai
-0.889864	kim ngạch thương
-0.8025738	kim ngạch xuất
-0.376605	không ngừng phát
-0.287804	trên nhiều lĩnh
-0.376605	ban nhân dân
-0.287804	hòa nhân dân
-0.376605	và nhân dân
-0.287804	đảng nhân dân
-0.287804	xuất nhập khẩu
-0.376605	phủ nhật bản
-0.5015438	trong những năm
-0.287804	bộ nông nghiệp
-0.287804	triển nông thôn
-0.287804	<s> năm hai
-0.4638953	ba năm hai
-0.4638953	cuối năm hai
-0.5984538	hai năm hai
-0.685744	mười năm hai
-0.4638953	một năm hai
-0.4638953	những năm qua
-0.5015438	phẩy năm tỷ
-0.5015438	trong năm hai
-0.376605	trăm năm mươi
-0.5015438	từ năm hai
-0.4698074	vào năm hai
-0.4698074	với năm hai
-0.5015438	đê năm hai
-0.5015438	đến năm hai
-0.3357921	hai nước </s>
-0.376605	tư nước ngoài
-0.588834	tịch nước nguyễn
-0.5984538	hà nội </s>
-0.287804	<s> phát biểu
-0.376605	ngừng phát triển
-0.287804	tác phát triển
-0.1092174	và phát triển
-0.287804	đã phê duyệt
-0.287804	tịch phòng thương
-0.5984538	<s> phó thủ
-0.287804	lăm phần trăm
-0.7649253	một phẩy hai
-1.028167	thành phố hà
-0.2632414	thành phố hồ
-0.677635	chính phủ nhật
-0.7649253	chính phủ đã
-0.4698074	cam pu chia
-0.5015438	năm qua </s>
-0.0123074	<s> quan hệ
-0.5015438	triển quan hệ
-0.287804	đẩy quan hệ
-0.685744	hiệu quả thiết
-0.4638953	hợp quốc </s>
-0.4638953	tổ quốc </s>
-0.287804	cho rằng </s>
-0.287804	lần so với
-0.4698074	trăm so với
-0.8814906	linh sáu </s>
-1.075575	linh sáu hai
-1.162865	linh sáu đã
-1.162865	linh sáu đạt
-0.4638953	cộng sản trung
-0.4638953	tổng số vốn
-0.01579427	ét sờ đê
-0.287804	quả thiết thực
-0.376605	dân thành phố
-0.287804	hoàn thành việc
-0.287804	khoán thành phố
-0.376605	thành thành viên
-0.376605	trở thành thành
-0.287804	á thái bình
-0.287804	bảy tháng mười
-0.287804	vào tháng ba
-0.287804	đến tháng mười
-0.287804	nhằm thúc đẩy
-0.0123074	chức thương mại
-0.287804	ngạch thương mại
-0.287804	phòng thương mại
-0.5504974	tế thương mại
-0.376605	không thường trực
-0.0123074	mại thế giới
-0.376605	trong thời gian
-0.06694679	<s> thủ tướng
-0.287804	của thủ tướng
-0.376605	phó thủ tướng
-0.4638953	thiết thực cho
-0.287804	độ tiên tiến
-0.287804	sẽ tiếp tục
-0.287804	tác toàn diện
-0.287804	kiểm tra trung
-1.287804	phát triển </s>
-0.7112774	phát triển kinh
-1.287804	phát triển nông
-0.7112774	phát triển quan
-0.376605	hai triệu u
-0.287804	mười triệu u
-0.9410166	<s> trong khi
-0.4638953	dân trung hoa
-0.287804	sản trung quốc
-0.287804	tra trung ương
-0.376605	nghị truyền thống
-0.287804	là trên lĩnh
-0.287804	quá trình hội
-0.986774	chín trăm bảy
-0.7053993	chín trăm chín
-1.738333	không trăm hai
-0.06069784	không trăm linh
-1.609686	không trăm mười
-0.889864	một trăm mười
-0.5489887	phần trăm so
-0.5015438	bộ trưởng bộ
-0.376605	nam trở thành
-0.831872	viện trợ cho
-0.7445818	viện trợ không
-0.5015438	thường trực hội
-0.287804	tư trực tiếp
-1.103604	hợp tác giữa
-1.190894	hợp tác phát
-1.190894	hợp tác toàn
-0.7708374	linh tám </s>
-0.986774	linh tám hai
-0.4638953	tháng tám bộ
-0.287804	trăm tám mươi
-0.0123074	kép tê ô
-0.287804	<s> tính đến
-0.588834	<s> tăng mười
-0.7649253	mươi tư tháng
-1.348502	đầu tư của
-1.348502	đầu tư dự
-1.261212	đầu tư nước
-1.348502	đầu tư trực
-1.100717	thủ tướng chính
-0.8847808	thủ tướng nguyễn
-0.4698074	nguyễn tấn dũng
-0.9606718	kinh tế thương
-0.6655199	kinh tế xã
-0.3644899	chủ tịch nước
-0.9410166	chủ tịch phòng
-0.9410166	chủ tịch ủy
-0.4638953	bày tỏ vui
-0.4638953	của tổ chức
-0.287804	đã tổ chức
-0.588834	<s> tổng bí
-0.287804	của tổng bí
-0.6084893	với tổng vốn
-0.0123074	kể từ khi
-0.376605	ba tỷ u
-0.287804	bốn tỷ u
-0.376605	hai tỷ u
-0.5015438	một tỷ u
-0.5015438	năm tỷ u
-0.04575749	triệu u ét
-0.02632894	tỷ u ét
-0.287804	ủy viên không
-0.287804	định viện trợ
-0.287804	<s> việt nam
-0.287804	cho việt nam
-0.04575749	của việt nam
-0.287804	giữa việt nam
-0.376605	học việt nam
-0.376605	nghiệp việt nam
-0.287804	thăm việt nam
-0.376605	việc việt nam
-0.287804	tỏ vui mừng
-0.287804	dựng và bảo
-0.376605	hoạch và đầu
-0.4638953	mại và công
-0.287804	nghiệp và phát
-0.287804	nghị và hợp
-0.287804	đê vào năm
-0.376605	giới vê kép
-0.4638953	<s> về việc
-0.287804	là về kinh
-0.3133374	tổng vốn đăng
-0.3133374	tổng vốn đầu
-0.6159354	<s> với tổng
-0.889864	so với cùng
-0.6739274	so với năm
-0.7445818	lĩnh vực kinh
-0.4638953	ngạch xuất khẩu
-0.0123074	tế xã hội
-0.287804	bộ y tế
-0.685744	châu á thái
-0.7708374	dự án đầu
-0.01579427	u ét sờ
-0.588834	tê ô </s>
-0.376605	giai đoạn hai
-0.287804	<s> đây là
-0.287804	hiện đã có
-0.287804	sáu đã có
-0.2852357	sờ đê </s>
-0.8416111	sờ đê năm
-1.418138	sờ đê trong
-1.418138	sờ đê vào
-1.418138	sờ đê vốn
-0.4698074	vốn đăng ký
-0.287804	dục đại học
-0.287804	đoàn đại biểu
-0.376605	đã đạt được
-0.4638953	ương đảng nhân
-0.287804	mại đầu tư
-0.4638953	tháng đầu năm
-0.0123074	và đầu tư
-0.4698074	vốn đầu tư
-0.4698074	án đầu tư
-0.4638953	thúc đẩy quan
-0.0123074	<s> đặc biệt
-0.4638953	năm đến nay
-0.287804	duyệt đề án
-0.287804	nước đều khẳng
-0.376605	các địa phương
-0.889864	khẳng định </s>
-0.889864	khẳng định quyết
-0.588834	quyết định viện
-0.5015438	hội đồng bảo
-0.287804	tỷ đồng </s>
-0.287804	trình độ tiên
-0.287804	nông đức mạnh
-0.5984538	trung ương đảng
-0.287804	cao ủy ban
-0.287804	tịch ủy ban

\end\
