
\data\
ngram 1=1598
ngram 2=8199
ngram 3=887

\1-grams:
-1.23778	</s>
-99	<s>	-0.2831997
-3.223431	a	-0.1317279
-3.223431	ai	-0.1755708
-2.980393	an	-0.2231052
-2.269189	anh	-0.487445
-2.44528	ba	-0.3302514
-2.804302	ban	-0.2156688
-3.085128	bao	-0.6362551
-3.6494	bay	-0.1266102
-3.6494	bi	-0.1275881
-3.524461	bia	-0.1019728
-3.825491	binh	-0.1281412
-3.825491	biên	-0.1274578
-3.427551	biến	-0.1012123
-2.804302	biết	-0.1831881
-3.524461	biển	-0.1276532
-3.223431	biểu	-0.3637145
-3.427551	biện	-0.4612513
-2.825491	biệt	-0.3497513
-4.126521	bom	-0.1288884
-3.825491	bum	-0.1268386
-3.825491	buôn	-0.3142785
-4.126521	buông	-0.1289534
-3.6494	buồn	-0.1259244
-4.126521	buồng	-0.1289209
-3.427551	buổi	-0.1918529
-3.6494	buộc	-0.1246151
-3.524461	bà	-0.127132
-3.34837	bài	-0.2419366
-3.34837	bàn	-0.1271646
-3.6494	bào	-0.2424574
-3.172278	bày	-0.523996
-3.6494	bác	-0.4148383
-4.126521	bái	-0.1242544
-3.172278	bán	-0.09063636
-3.6494	bánh	-0.1025595
-2.871248	báo	-0.1131649
-4.126521	bát	-0.1288235
-3.825491	báu	-0.1261858
-3.6494	bây	-0.4142861
-4.126521	bãi	-0.1289209
-3.427551	bão	-0.09944431
-3.825491	bè	-0.3138561
-3.825491	bé	-0.1029387
-4.126521	béo	-0.1289534
-3.6494	bê	-0.1255975
-2.922401	bên	-0.1790351
-3.126521	bình	-0.1266676
-3.34837	bí	-0.8698056
-3.825491	bó	-0.1258917
-4.126521	bón	-0.1286612
-3.172278	bóng	-0.3066179
-4.126521	bóp	-0.1289534
-3.825491	bùi	-0.128791
-4.126521	búc	-0.1286287
-3.6494	bút	-0.1266429
-3.825491	băng	-0.1286287
-4.126521	bơi	-0.1287911
-3.825491	bưu	-0.1274904
-3.427551	bước	-0.2678334
-4.126521	bướm	-0.1288235
-4.126521	bạ	-0.103111
-3.825491	bạc	-0.1028353
-4.126521	bại	-0.127132
-2.493052	bạn	-0.2059805
-4.126521	bạo	-0.1282713
-2.764793	bản	-0.1520543
-3.524461	bảng	-0.09606156
-3.085128	bảo	-0.3305559
-2.427551	bảy	-0.3683426
-4.126521	bấm	-0.1289209
-3.427551	bất	-0.2758652
-3.427551	bầu	-0.2736778
-4.126521	bậc	-0.1287261
-4.126521	bận	-0.1281087
-3.825491	bật	-0.1268712
-4.126521	bậy	-0.1289209
-3.524461	bắc	-0.3119992
-3.223431	bắt	-0.1835083
-3.012578	bằng	-0.1475098
-3.524461	bến	-0.2082241
-3.825491	bền	-0.3145057
-4.126521	bể	-0.1289534
-3.427551	bệnh	-0.1233348
-2.728581	bị	-0.1385224
-4.126521	bịt	-0.1289209
-4.126521	bọn	-0.1289209
-3.6494	bỏ	-0.1263164
-3.223431	bố	-0.2371775
-3.825491	bối	-0.1285962
-2.582453	bốn	-0.4008206
-4.126521	bồ	-0.1287261
-4.126521	bồi	-0.1289209
-4.126521	bổ	-0.1289534
-2.513737	bộ	-0.3702257
-4.126521	bột	-0.1289534
-3.825491	bờm	-0.1285312
-3.524461	bởi	-0.1246151
-4.126521	bợp	-0.1289534
-4.126521	bức	-0.1289209
-3.6494	ca	-0.1270342
-3.04734	cam	-0.5779528
-4.126521	can	-0.1289209
-2.764793	cao	-0.1202969
-3.825491	chai	-0.1030765
-4.126521	chanh	-0.1289534
-4.126521	chay	-0.103111
-3.524461	chi	-0.3236704
-3.223431	chia	-0.1984925
-4.126521	chinh	-0.1288884
-4.126521	chiêng	-0.1289534
-3.281423	chiếc	-0.1264144
-3.825491	chiếm	-0.1286612
-3.172278	chiến	-0.1934787
-3.34837	chiếu	-0.1186739
-3.427551	chiều	-0.1204318
-2.212707	cho	-0.295624
-4.126521	chu	-0.1284013
-4.126521	chua	-0.1279786
-3.427551	chung	-0.1234005
-3.281423	chuyên	-0.2275394
-3.34837	chuyến	-0.3849989
-3.825491	chuyển	-0.1285962
-3.085128	chuyện	-0.1137234
-3.825491	chuẩn	-0.3137585
-4.126521	chuốc	-0.1287586
-3.825491	chàm	-0.1274252
-3.825491	chàng	-0.1270668
-4.126521	chán	-0.1289534
-3.825491	cháu	-0.1218527
-3.825491	cháy	-0.1278484
-3.6494	chân	-0.2159292
-3.34837	châu	-0.3851613
-4.126521	chây	-0.1288884
-4.126521	ché	-0.1288884
-4.126521	chén	-0.1289534
-4.126521	chìa	-0.128856
-3.04734	chí	-1.091422
-2.483068	chín	-0.7179648
-2.595042	chính	-0.3809706
-4.126521	chóng	-0.1261205
-3.825491	chú	-0.1278159
-3.524461	chúc	-0.2075033
-2.74631	chúng	-1.196123
-3.524461	chút	-0.1018692
-4.126521	chăm	-0.1287586
-3.6494	chăn	-0.1029387
-4.126521	chăng	-0.125532
-3.825491	chơi	-0.1217207
-3.085128	chưa	-0.1579442
-3.126521	chương	-1.127751
-3.6494	chạy	-0.1270994
-4.126521	chải	-0.1288884
-4.126521	chảy	-0.1282062
-3.825491	chấn	-0.1020764
-4.126521	chấp	-0.1284013
-3.524461	chất	-0.21142
-4.126521	chẩn	-0.1288884
-3.6494	chậm	-0.2166893
-4.126521	chật	-0.103111
-3.825491	chắc	-0.3145057
-3.825491	chắn	-0.09944428
-4.126521	chắp	-0.1263164
-3.281423	chẳng	-0.1226767
-3.6494	chặn	-0.1163413
-3.825491	chặng	-0.3142785
-4.126521	chặt	-0.1266429
-3.281423	chế	-0.2223979
-3.825491	chết	-0.3138886
-2.711548	chỉ	-0.1568547
-4.126521	chỉnh	-0.1286612
-2.679363	chị	-0.4450085
-4.126521	chịu	-0.1285312
-3.281423	chọn	-0.1270342
-3.825491	chối	-0.2886958
-3.281423	chống	-0.1271646
-3.223431	chồng	-0.1326453
-3.524461	chỗ	-0.1241559
-3.6494	chờ	-0.1253357
-4.126521	chợ	-0.1284987
-4.126521	chợp	-0.1279786
-3.825491	chụp	-0.1281412
-2.804302	chủ	-0.5525649
-4.126521	chứ	-0.1223473
-4.126521	chứa	-0.1289534
-2.804302	chức	-0.2006946
-3.281423	chứng	-0.3358781
-4.126521	chừng	-0.1274578
-4.126521	chửi	-0.123762
-3.6494	chữ	-0.1281087
-3.825491	chữa	-0.1286287
-3.223431	coi	-0.5368543
-2.896072	con	-0.1014198
-4.126521	cung	-0.1283363
-3.085128	cuối	-0.2990586
-4.126521	cuốn	-0.1287586
-2.871248	cuộc	-0.240226
-3.6494	cà	-0.2433674
-3.281423	càng	-0.1230058
-3.427551	cá	-0.1911348
-2.187002	các	-0.2165844
-3.085128	cách	-0.1808637
-3.085128	cái	-0.1493597
-4.126521	cán	-0.1276532
-3.6494	cánh	-0.102525
-3.223431	cáo	-0.1188068
-3.825491	câu	-0.1268712
-4.126521	cãi	-0.1286287
-4.126521	còi	-0.1280762
-2.95043	còn	-0.1635266
-2.036616	có	-0.308459
-2.95043	cô	-0.2156684
-2.535456	công	-0.3795898
-3.085128	cùng	-0.1800387
-3.281423	cúm	-0.5909944
-3.825491	căn	-0.127881
-3.825491	cũ	-0.310331
-2.825491	cũng	-0.2458333
-3.085128	cơ	-0.2943204
-3.825491	cơn	-0.128791
-4.126521	cư	-0.1289534
-4.126521	cưng	-0.1289209
-4.126521	cước	-0.1249756
-4.126521	cưới	-0.127132
-4.126521	cướp	-0.103111
-4.126521	cười	-0.103111
-3.223431	cường	-0.256801
-4.126521	cưỡng	-0.1289209
-4.126521	cạn	-0.1282062
-3.34837	cạnh	-0.3832319
-2.847767	cả	-0.1757244
-3.825491	cải	-0.1285312
-3.04734	cảm	-0.2619649
-3.172278	cảnh	-0.3292648
-4.126521	cấm	-0.1282388
-2.825491	cấp	-0.3137555
-4.126521	cất	-0.1289209
-4.126521	cấu	-0.1289534
-3.223431	cầm	-0.158007
-2.980393	cần	-0.1690008
-3.012578	cầu	-0.1899409
-3.825491	cẩm	-0.3143109
-3.825491	cận	-0.1241559
-3.6494	cập	-0.09773879
-3.012578	cậu	-0.1949899
-4.126521	cắm	-0.1289209
-3.825491	cắt	-0.1288235
-4.126521	cằm	-0.1242544
-4.126521	cẳng	-0.1288884
-3.825491	cặp	-0.128791
-3.427551	cố	-0.2658174
-4.126521	cốc	-0.128856
-4.126521	cống	-0.1278159
-3.427551	cổ	-0.1932207
-3.825491	cổng	-0.09860977
-3.825491	cỗ	-0.1270016
-2.980393	cộng	-0.4243893
-4.126521	cột	-0.1280762
-4.126521	cờ	-0.1289534
-3.6494	cỡ	-0.09669128
-3.6494	cụ	-0.1270342
-3.524461	cục	-0.1263491
-4.126521	cụm	-0.1288884
-2.012578	của	-0.2675489
-4.126521	củng	-0.1288235
-3.34837	cứ	-0.1794963
-3.223431	cứu	-0.1127514
-3.825491	cử	-0.1277508
-3.34837	cửa	-0.2165858
-3.825491	cửu	-0.1288235
-3.427551	cực	-0.2707221
-4.126521	cựu	-0.1286936
-3.6494	da	-0.2431076
-4.126521	dai	-0.1289534
-3.6494	danh	-0.2428477
-4.126521	dao	-0.1289534
-3.825491	di	-0.3134007
-2.980393	diễn	-0.2420592
-3.524461	diện	-0.2079294
-2.896072	do	-0.1350169
-3.012578	doanh	-0.2869323
-3.427551	du	-0.4613488
-3.524461	dung	-0.2114525
-3.825491	duy	-0.1285962
-4.126521	duyên	-0.103111
-3.6494	duyệt	-0.2397814
-3.524461	dài	-0.18382
-4.126521	dàn	-0.1288884
-3.427551	dành	-0.1884146
-4.126521	dào	-0.1288884
-4.126521	dám	-0.1288884
-4.126521	dán	-0.103111
-4.126521	dáng	-0.1281087
-2.635159	dân	-0.3360459
-4.126521	dâng	-0.1284338
-4.126521	dây	-0.1285312
-3.6494	dính	-0.2428477
-3.524461	dù	-0.127881
-3.172278	dùng	-0.1990677
-4.126521	dĩ	-0.1249756
-3.223431	dũng	-0.1610549
-3.825491	dư	-0.3144083
-3.427551	dương	-0.1190061
-3.825491	dưới	-0.1254012
-3.6494	dường	-0.4138959
-4.126521	dại	-0.1289534
-3.825491	dạng	-0.1028009
-4.126521	dạo	-0.127132
-3.6494	dạy	-0.102663
-3.825491	dấu	-0.3103638
-4.126521	dầu	-0.1283688
-3.6494	dẫn	-0.2416759
-4.126521	dẳng	-0.1283688
-3.825491	dị	-0.3142785
-3.04734	dịch	-0.2450256
-3.427551	dịp	-0.263369
-3.6494	dọa	-0.1235648
-4.126521	dồi	-0.1289534
-4.126521	dồn	-0.1273927
-4.126521	dột	-0.1282388
-3.085128	dục	-0.1475046
-3.04734	dụng	-0.1397243
-2.635159	dự	-0.751378
-3.6494	dựa	-0.4137658
-3.223431	dựng	-0.2019206
-3.6494	e	-0.2385686
-2.784098	em	-0.1666251
-4.126521	eo	-0.1289534
-3.427551	ga	-0.2759629
-4.126521	ghi	-0.1287261
-4.126521	ghét	-0.1266429
-4.126521	ghê	-0.1289534
-3.6494	ghế	-0.1245823
-2.764793	gia	-0.2637967
-3.34837	giai	-0.8698056
-2.980393	gian	-0.1937234
-2.980393	giao	-0.1883486
-4.126521	gien	-0.103111
-4.126521	già	-0.103111
-4.126521	giành	-0.1289209
-4.126521	giày	-0.1272624
-2.871248	giá	-0.1317702
-3.825491	giác	-0.1286287
-3.281423	giám	-0.4132225
-2.980393	giáo	-0.3025916
-4.126521	giãn	-0.1288884
-3.825491	gió	-0.1282712
-3.223431	giúp	-0.258087
-4.126521	giường	-0.128856
-3.34837	giả	-0.1264144
-2.847767	giải	-0.2501229
-3.524461	giảm	-0.1260551
-4.126521	giản	-0.128856
-4.126521	giảng	-0.1288884
-3.825491	giấu	-0.125761
-3.524461	giấy	-0.211485
-3.825491	giật	-0.3133682
-4.126521	giặt	-0.1289534
-4.126521	giết	-0.1279461
-3.825491	giềng	-0.3138561
-4.126521	giỏi	-0.1289534
-2.764793	giới	-0.3708394
-2.825491	giờ	-0.1527159
-3.34837	giữ	-0.1735077
-2.711548	giữa	-0.4857472
-4.126521	gom	-0.128856
-4.126521	gà	-0.103111
-3.524461	gái	-0.126806
-3.524461	gây	-0.2105744
-3.825491	gêm	-0.1269038
-2.695157	gì	-0.273197
-3.825491	gò	-0.1287586
-4.126521	gòn	-0.1283688
-4.126521	góc	-0.1287911
-3.281423	góp	-0.1709792
-3.825491	gạo	-0.1259898
-3.524461	gấp	-0.2097598
-2.95043	gần	-0.2476114
-3.825491	gắn	-0.1288884
-3.6494	gắng	-0.127881
-3.34837	gặp	-0.3186509
-3.427551	gọi	-0.1822561
-4.126521	gọng	-0.1288884
-4.126521	gốc	-0.1289534
-4.126521	gỗ	-0.1289534
-4.126521	gớm	-0.103111
-3.6494	gỡ	-0.1214896
-3.524461	gửi	-0.1020764
-4.126521	ha	-0.1288884
-1.796107	hai	-0.8219253
-3.012578	hay	-0.1224791
-4.126521	hi	-0.1289209
-4.126521	hinh	-0.1278159
-4.126521	hiền	-0.1289209
-4.126521	hiểm	-0.1271972
-4.126521	hiển	-0.1287911
-3.34837	hiểu	-0.09857496
-2.711548	hiện	-0.1517726
-3.04734	hiệp	-0.3185925
-2.980393	hiệu	-0.299261
-3.427551	hoa	-0.1018692
-3.6494	hoan	-0.1273927
-3.825491	hoà	-0.3129449
-3.172278	hoàn	-0.346962
-3.825491	hoàng	-0.1281737
-3.281423	hoạch	-0.3296528
-3.085128	hoạt	-0.8033977
-3.172278	hoặc	-0.1208949
-3.825491	hun	-0.3145057
-3.34837	huy	-0.1272949
-4.126521	huynh	-0.1286612
-3.825491	huyết	-0.1029387
-3.6494	huyện	-0.1281412
-3.825491	huấn	-0.1283038
-4.126521	huế	-0.1273927
-4.126521	huống	-0.1285637
-4.126521	hy	-0.1284338
-3.085128	hà	-0.687672
-3.825491	hài	-0.3144408
-3.427551	hàn	-0.2741685
-2.847767	hàng	-0.2076091
-2.871248	hành	-0.376564
-3.825491	hào	-0.125303
-3.6494	hát	-0.1275229
-3.825491	hãng	-0.1282387
-3.281423	hãy	-0.1233676
-3.825491	hè	-0.1275555
-3.085128	hình	-0.1482674
-3.172278	hòa	-0.2647976
-4.126521	hòm	-0.1284987
-3.172278	hóa	-0.1148352
-4.126521	hô	-0.1289534
-4.126521	hôi	-0.1278159
-3.825491	hôm	-0.313791
-3.524461	hôn	-0.3220434
-3.825491	hùng	-0.1243528
-4.126521	hút	-0.1279786
-3.524461	hơi	-0.1278485
-2.635159	hơn	-0.1451787
-4.126521	hương	-0.125761
-3.825491	hướng	-0.1230058
-3.34837	hưởng	-0.1211262
-4.126521	hạ	-0.1286936
-4.126521	hạch	-0.1287911
-3.427551	hại	-0.1226438
-3.825491	hạn	-0.1245167
-3.825491	hạng	-0.1012123
-4.126521	hạnh	-0.1289534
-3.427551	hạt	-0.4600486
-3.825491	hải	-0.1269038
-4.126521	hấp	-0.1247462
-3.825491	hầu	-0.1276206
-4.126521	hận	-0.1223473
-3.6494	hậu	-0.1278485
-4.126521	hằng	-0.1273601
-3.825491	hẳn	-0.1282712
-4.126521	hẹn	-0.1281412
-4.126521	hẹp	-0.1279461
-3.126521	hết	-0.2244392
-4.126521	hề	-0.1289209
-2.582453	hệ	-0.5884362
-2.95043	họ	-0.151076
-4.126521	họa	-0.1285637
-2.711548	học	-0.1739233
-3.524461	họp	-0.1275229
-3.223431	hỏi	-0.1185742
-3.825491	hỏng	-0.1222154
-4.126521	hối	-0.1289534
-2.95043	hồ	-0.6663569
-3.34837	hồi	-0.1143319
-4.126521	hồn	-0.1288884
-3.6494	hồng	-0.1010047
-3.6494	hỗ	-0.414611
-4.126521	hỗn	-0.1273927
-3.34837	hộ	-0.2172758
-2.493052	hội	-0.214175
-4.126521	hộp	-0.1288884
-4.126521	hỡi	-0.1249756
-4.126521	hợi	-0.1219846
-2.436325	hợp	-0.5728865
-4.126521	hụt	-0.1280111
-3.825491	hủy	-0.125761
-3.825491	hứng	-0.1230387
-2.980393	hữu	-1.175442
-3.825491	in	-0.1287586
-3.6494	khai	-0.2416759
-2.621371	khi	-0.129781
-4.126521	khinh	-0.1289534
-4.126521	khiêm	-0.1286936
-3.6494	khiến	-0.1167087
-3.172278	khoa	-0.9991554
-3.427551	khoán	-0.3673033
-3.172278	khoảng	-0.2872261
-4.126521	khoẻ	-0.103111
-2.980393	khu	-0.5455737
-4.126521	khuyên	-0.1263491
-3.825491	khuyến	-0.3144733
-3.6494	khuôn	-0.4147409
-4.126521	khuất	-0.1287261
-3.012578	khác	-0.1105222
-3.172278	khách	-0.1521047
-3.6494	khán	-0.4147409
-3.6494	khánh	-0.09536082
-4.126521	khâu	-0.1285312
-4.126521	khép	-0.1280762
-3.524461	khí	-0.1280111
-3.6494	khích	-0.1267407
-3.6494	khó	-0.2432051
-3.524461	khóa	-0.1999962
-4.126521	khói	-0.1289209
-4.126521	khô	-0.103111
-3.825491	khôn	-0.1030765
-1.819025	không	-0.6270911
-4.126521	khúc	-0.1285962
-3.6494	khăn	-0.1274904
-4.126521	khương	-0.1287911
-3.6494	khả	-0.2431076
-3.825491	khảo	-0.1266428
-3.825491	khấu	-0.1281737
-4.126521	khẩn	-0.1283363
-3.085128	khẩu	-0.1887403
-3.126521	khẳng	-1.040483
-3.427551	khỏe	-0.1003466
-4.126521	khốc	-0.1289534
-4.126521	khối	-0.1287261
-4.126521	khốn	-0.1287911
-3.34837	khổ	-0.09836606
-4.126521	khởi	-0.1277183
-3.6494	khủng	-0.414676
-4.126521	khứ	-0.1287911
-4.126521	ki	-0.1288884
-3.427551	kia	-0.2501403
-2.980393	kim	-0.5738987
-2.546737	kinh	-0.8383841
-3.524461	kiếm	-0.1198024
-3.126521	kiến	-0.2176689
-3.825491	kiềm	-0.3143434
-3.825491	kiều	-0.1012123
-3.34837	kiểm	-0.2429127
-3.825491	kiểu	-0.1270994
-4.126521	kiệm	-0.128856
-3.6494	kiện	-0.1258591
-4.126521	kiệt	-0.1286936
-3.825491	kèm	-0.1280436
-4.126521	kén	-0.1287586
-4.126521	kéo	-0.128856
-3.427551	kép	-0.4614462
-4.126521	kê	-0.1273601
-4.126521	kí	-0.1289534
-4.126521	kích	-0.1288884
-3.6494	kính	-0.1273927
-2.95043	ký	-0.1582634
-3.825491	kẹt	-0.1263491
-4.126521	kẻ	-0.1289209
-3.223431	kế	-0.3657185
-3.04734	kết	-0.2041131
-4.126521	kề	-0.128856
-3.223431	kể	-0.3012032
-3.6494	kịch	-0.1013507
-3.427551	kỳ	-0.1810206
-3.427551	kỷ	-0.4356617
-3.524461	kỹ	-0.2109974
-3.6494	la	-0.1217867
-3.34837	lai	-0.1490777
-3.427551	lan	-0.1609685
-3.6494	lao	-0.4137658
-4.126521	len	-0.1284662
-3.524461	li	-0.2112901
-4.126521	lim	-0.1289209
-2.212707	linh	-1.323464
-4.126521	liêm	-0.1286612
-2.847767	liên	-0.4314635
-4.126521	liêng	-0.1247462
-4.126521	liềm	-0.1288235
-3.825491	liều	-0.1282387
-4.126521	liệt	-0.1247462
-3.524461	liệu	-0.2073066
-3.281423	lo	-0.2241352
-4.126521	loan	-0.103111
-4.126521	long	-0.103111
-4.126521	loè	-0.1289534
-3.427551	loại	-0.1282388
-4.126521	loạn	-0.1288884
-4.126521	loẹt	-0.1279461
-4.126521	luyến	-0.1289209
-4.126521	luyện	-0.1282062
-3.126521	luôn	-0.1545429
-3.427551	luận	-0.1250411
-3.427551	luật	-0.1224461
-3.6494	ly	-0.1026974
-2.101215	là	-0.1383442
-2.558319	làm	-0.1672016
-4.126521	lành	-0.103111
-3.281423	lào	-0.3087018
-4.126521	lác	-0.1288884
-3.825491	láng	-0.3145057
-3.825491	lâm	-0.1280436
-3.6494	lâu	-0.102525
-4.126521	lây	-0.1288235
-3.825491	lãm	-0.1284012
-3.825491	lãng	-0.3143434
-3.427551	lãnh	-0.4612513
-4.126521	lão	-0.128856
-3.34837	lê	-0.1811271
-3.04734	lên	-0.1405476
-4.126521	lì	-0.1289534
-3.825491	lính	-0.1020764
-4.126521	líp	-0.1289209
-4.126521	lò	-0.1288884
-4.126521	lòi	-0.1278159
-3.524461	lòng	-0.1228413
-3.6494	lô	-0.1287911
-4.126521	lùi	-0.1287261
-4.126521	lúa	-0.1289209
-3.126521	lúc	-0.1862563
-2.980393	lý	-0.1077024
-2.847767	lăm	-0.2344339
-4.126521	lăng	-0.1288884
-3.04734	lĩnh	-1.205955
-4.126521	lư	-0.1288884
-4.126521	lưu	-0.1289534
-4.126521	lương	-0.1283688
-4.126521	lưới	-0.1261531
-4.126521	lưỡi	-0.1289534
-3.6494	lược	-0.1267081
-3.223431	lượng	-0.1264144
-3.34837	lượt	-0.1796923
-3.6494	lạc	-0.126806
-2.679363	lại	-0.1266016
-3.825491	lạm	-0.3131078
-3.281423	lấy	-0.1226767
-3.825491	lầm	-0.1029732
-2.847767	lần	-0.2353115
-3.524461	lẫn	-0.123762
-4.126521	lận	-0.1285312
-3.427551	lập	-0.09826161
-3.524461	lắm	-0.1849611
-3.6494	lắng	-0.2413499
-3.6494	lắp	-0.2430102
-4.126521	lẻ	-0.103111
-4.126521	lẽ	-0.1287911
-3.281423	lễ	-0.1709465
-3.6494	lệ	-0.1282062
-3.172278	lịch	-0.1276517
-4.126521	lọ	-0.103111
-3.825491	lọc	-0.1241231
-3.6494	lối	-0.1285637
-4.126521	lồi	-0.103111
-3.172278	lỗi	-0.0904236
-3.126521	lớn	-0.1531947
-3.825491	lớp	-0.1252375
-3.825491	lờ	-0.127881
-3.825491	lời	-0.128856
-3.427551	lợi	-0.2417555
-4.126521	lợm	-0.103111
-4.126521	lợn	-0.1283363
-4.126521	lụt	-0.1288235
-3.281423	lực	-0.09458867
-3.6494	ma	-0.1028009
-3.825491	mai	-0.1024215
-3.223431	mang	-0.1632284
-4.126521	manh	-0.1279461
-4.126521	mau	-0.103111
-4.126521	may	-0.1289534
-2.871248	minh	-0.1728319
-3.825491	miền	-0.1280762
-4.126521	miễn	-0.1284338
-3.825491	miệng	-0.127946
-4.126521	miệt	-0.1284987
-3.281423	mong	-0.3352905
-3.524461	mua	-0.1284013
-3.825491	muôn	-0.127588
-2.621371	muốn	-0.1909523
-3.6494	muộn	-0.1276206
-2.95043	mà	-0.1494484
-3.825491	màn	-0.1284987
-3.825491	màu	-0.1287261
-3.825491	mày	-0.124484
-4.126521	má	-0.1283038
-4.126521	mác	-0.1287261
-3.825491	máu	-0.1284662
-3.281423	máy	-0.2202696
-4.126521	mây	-0.1283688
-3.825491	mã	-0.1219186
-4.126521	mãi	-0.103111
-3.6494	mét	-0.1012123
-4.126521	mê	-0.1279461
-4.126521	mì	-0.103111
-2.621371	mình	-0.28895
-3.6494	món	-0.09857497
-3.427551	mô	-0.1928303
-3.524461	môi	-0.2972582
-3.825491	môn	-0.102318
-4.126521	mông	-0.1281087
-4.126521	mù	-0.103111
-3.6494	mùa	-0.1270342
-3.825491	mũi	-0.1279786
-3.6494	mơ	-0.1238605
-3.6494	mưa	-0.1230387
-3.825491	mưu	-0.1289209
-2.14425	mươi	-0.5685404
-2.294012	mười	-0.4861132
-3.825491	mạc	-0.125859
-3.6494	mạch	-0.1270342
-2.764793	mại	-0.249454
-3.085128	mạng	-0.1824761
-2.871248	mạnh	-0.1574463
-4.126521	mạo	-0.103111
-4.126521	mảnh	-0.1289209
-4.126521	mất	-0.1267733
-4.126521	mấu	-0.1288884
-3.524461	mấy	-0.6084287
-3.825491	mật	-0.1280111
-4.126521	mắc	-0.1288884
-4.126521	mắn	-0.103111
-3.223431	mắt	-0.09850534
-4.126521	mặc	-0.128856
-2.95043	mặt	-0.2350379
-3.825491	mẹ	-0.1030421
-3.825491	mẽ	-0.1010739
-4.126521	mệt	-0.1283038
-3.223431	mọi	-0.3013489
-4.126521	mỏng	-0.1289534
-3.825491	mốc	-0.1258917
-4.126521	mối	-0.1288884
-3.126521	mốt	-0.1514799
-4.126521	mồ	-0.1289534
-4.126521	mồm	-0.1289209
-3.524461	mỗi	-0.1261205
-2.015931	một	-0.3096873
-2.764793	mới	-0.1261052
-3.825491	mờ	-0.1284662
-3.825491	mời	-0.1243856
-3.524461	mở	-0.3236054
-4.126521	mụ	-0.128856
-2.980393	mục	-0.9716756
-4.126521	mụn	-0.1267407
-3.427551	mức	-0.09515038
-3.427551	mừng	-0.1916898
-3.34837	mỹ	-0.1223802
-4.126521	nai	-0.125761
-2.139749	nam	-0.2621347
-2.847767	nay	-0.1674466
-3.825491	nga	-0.1271972
-4.126521	ngang	-0.1289534
-3.6494	ngay	-0.1011085
-3.427551	nghe	-0.1242872
-3.825491	nghiêm	-0.1282062
-3.34837	nghiên	-0.8698056
-4.126521	nghiêng	-0.1288235
-4.126521	nghiền	-0.128856
-3.524461	nghiệm	-0.1230387
-2.804302	nghiệp	-0.2325448
-3.825491	nghèo	-0.1284662
-2.015931	nghìn	-1.035376
-3.427551	nghĩ	-0.1242216
-4.126521	nghĩa	-0.125532
-3.427551	nghề	-0.09749461
-3.172278	nghệ	-0.1989043
-2.825491	nghị	-0.2904881
-4.126521	ngoan	-0.1279786
-2.804302	ngoài	-0.1583672
-3.34837	ngoại	-0.2470182
-3.6494	nguy	-0.1284987
-3.34837	nguyên	-0.1219186
-4.126521	nguyền	-0.1279461
-2.922401	nguyễn	-0.3405042
-3.524461	nguồn	-0.2086167
-4.126521	nguội	-0.1285312
-3.172278	ngành	-0.12294
-2.427551	ngày	-0.4405038
-3.524461	ngân	-0.313726
-4.126521	ngã	-0.1284013
-4.126521	ngón	-0.1287586
-4.126521	ngô	-0.1288884
-3.825491	ngôi	-0.1214236
-3.524461	ngăn	-0.3235404
-4.126521	ngũ	-0.1289534
-2.418951	người	-0.09518206
-4.126521	ngưỡng	-0.1284987
-3.172278	ngạch	-0.2364845
-4.126521	ngả	-0.1283688
-4.126521	ngấn	-0.1288235
-4.126521	ngẩn	-0.1285962
-4.126521	ngẫm	-0.1288235
-4.126521	ngập	-0.1282388
-4.126521	ngắn	-0.1288884
-3.825491	ngọc	-0.1262511
-3.825491	ngọn	-0.1289209
-4.126521	ngọt	-0.1288884
-4.126521	ngốc	-0.1288884
-3.6494	ngồi	-0.1003119
-4.126521	ngổn	-0.1289534
-4.126521	ngộ	-0.1285637
-4.126521	ngớ	-0.1289534
-4.126521	ngục	-0.103111
-4.126521	ngủ	-0.1283038
-4.126521	ngừa	-0.1285962
-3.524461	ngừng	-0.3224996
-4.126521	ngựa	-0.103111
-4.126521	nha	-0.103111
-3.427551	nhanh	-0.1277183
-3.085128	nhau	-0.119958
-4.126521	nhi	-0.1286612
-3.34837	nhiên	-0.0981919
-3.34837	nhiêu	-0.2222751
-2.570219	nhiều	-0.2630975
-4.126521	nhiễm	-0.1282388
-3.6494	nhiệm	-0.1280437
-3.825491	nhiệt	-0.1274904
-3.6494	nhu	-0.2430102
-2.679363	nhà	-0.253169
-2.535456	nhân	-0.3998966
-4.126521	nhãn	-0.1285312
-3.6494	nhé	-0.3890608
-4.126521	nhì	-0.128856
-3.34837	nhìn	-0.1808015
-3.825491	nhí	-0.2886958
-4.126521	nhóm	-0.1287911
-4.126521	nhũng	-0.1289209
-2.621371	như	-0.1306324
-3.427551	nhưng	-0.1207957
-4.126521	nhạc	-0.1282713
-4.126521	nhạy	-0.1285962
-3.825491	nhảm	-0.3145057
-3.6494	nhấn	-0.4143511
-2.847767	nhất	-0.2123439
-4.126521	nhậm	-0.1289534
-3.04734	nhận	-0.1635543
-3.085128	nhập	-0.213718
-3.126521	nhật	-1.127653
-3.6494	nhắc	-0.1260878
-4.126521	nhắn	-0.1249756
-3.085128	nhằm	-0.2844061
-3.825491	nhẹ	-0.102663
-4.126521	nhịp	-0.1289209
-3.825491	nhỏ	-0.1259898
-3.825491	nhộn	-0.1030765
-4.126521	nhớ	-0.1269364
-3.6494	nhờ	-0.1209941
-2.32718	những	-0.2041713
-3.6494	ninh	-0.2384701
-4.126521	niêm	-0.1289534
-3.524461	niên	-0.1147681
-3.825491	niềm	-0.1280762
-3.524461	niệm	-0.1197361
-3.6494	nuôi	-0.1258917
-4.126521	nàng	-0.1289534
-2.784098	nào	-0.4024094
-2.370646	này	-0.2514488
-4.126521	nát	-0.103111
-3.427551	nâng	-0.2751808
-3.524461	não	-0.1268386
-4.126521	nê	-0.1288884
-3.223431	nên	-0.1265776
-3.825491	nêu	-0.128856
-3.172278	nó	-0.1659196
-2.784098	nói	-0.1493044
-3.825491	nóng	-0.1271972
-3.085128	nông	-0.4333794
-4.126521	nút	-0.1283688
-1.922401	năm	-0.6521929
-3.04734	năng	-0.2034896
-3.524461	nơi	-0.1221165
-2.287672	nước	-0.3110562
-4.126521	nướng	-0.128856
-3.6494	nạn	-0.2418063
-4.126521	nản	-0.103111
-4.126521	nấu	-0.1289534
-4.126521	nắng	-0.1289209
-3.825491	nằm	-0.3117053
-4.126521	nẵng	-0.103111
-4.126521	nặng	-0.1266429
-4.126521	nẻ	-0.128856
-4.126521	nến	-0.1261205
-3.281423	nếu	-0.1223802
-3.825491	nền	-0.1284987
-3.34837	nối	-0.1798882
-4.126521	nổ	-0.128856
-4.126521	nổi	-0.1287261
-4.126521	nỗ	-0.1287586
-3.825491	nỗi	-0.128791
-2.980393	nội	-0.2054701
-4.126521	nộp	-0.1286936
-4.126521	nở	-0.1278159
-3.126521	nữ	-0.1563209
-3.04734	nữa	-0.2309532
-4.126521	pao	-0.1247462
-3.524461	phi	-0.1254666
-2.871248	phim	-0.1451343
-3.825491	phiên	-0.1284012
-4.126521	phiêu	-0.103111
-3.825491	phiếu	-0.1024905
-4.126521	phiền	-0.1289534
-3.6494	phong	-0.1270994
-3.825491	phá	-0.3129449
-4.126521	phách	-0.1249756
-4.126521	phái	-0.1286287
-3.6494	phán	-0.1234662
-3.04734	pháp	-0.1767097
-2.473309	phát	-0.8202783
-3.6494	phân	-0.1266755
-4.126521	phây	-0.128856
-3.524461	phép	-0.09940955
-4.126521	phét	-0.128856
-3.524461	phê	-0.1789103
-3.281423	phí	-0.1264144
-3.6494	phía	-0.1282713
-2.74631	phòng	-0.1579836
-3.34837	phó	-0.318194
-3.825491	phóng	-0.1275229
-3.6494	phù	-0.4133425
-4.126521	phú	-0.1282388
-4.126521	phúc	-0.1266429
-4.126521	phút	-0.103111
-3.223431	phương	-0.1143319
-4.126521	phước	-0.1242544
-3.524461	phường	-0.2076672
-3.281423	phạm	-0.123532
-3.524461	phạt	-0.1224132
-2.595042	phải	-0.1527262
-3.6494	phản	-0.1284013
-3.825491	phấn	-0.1288884
-2.804302	phần	-0.4252932
-3.172278	phẩm	-0.09965269
-2.728581	phẩy	-0.4433084
-3.6494	phẫu	-0.4147409
-4.126521	phận	-0.1269364
-3.6494	phật	-0.1282062
-2.825491	phố	-0.4791977
-3.6494	phối	-0.4133425
-4.126521	phồn	-0.1289534
-3.825491	phổ	-0.1282712
-4.126521	phổi	-0.103111
-3.223431	phụ	-0.3047311
-3.6494	phục	-0.1258917
-3.085128	phủ	-0.3179745
-3.825491	phức	-0.3145057
-3.825491	pin	-0.1284012
-3.6494	po	-0.09833125
-3.223431	pu	-0.9539828
-4.126521	pác	-0.1289209
-3.825491	pích	-0.1287586
-3.825491	pếch	-0.102456
-2.74631	qua	-0.2243327
-2.355669	quan	-0.6777079
-3.6494	quang	-0.1265123
-4.126521	quanh	-0.1261531
-4.126521	quay	-0.1287911
-3.223431	quy	-0.1663379
-3.012578	quyết	-0.2285226
-3.172278	quyền	-0.09024623
-4.126521	quyển	-0.1287911
-4.126521	quà	-0.1275881
-2.980393	quá	-0.2466427
-4.126521	quái	-0.128856
-3.6494	quán	-0.1252048
-3.427551	quân	-0.1273601
-4.126521	quét	-0.1275229
-4.126521	quê	-0.1289209
-3.6494	quên	-0.1273601
-3.281423	quý	-0.2850667
-2.980393	quả	-0.1647518
-3.427551	quản	-0.4611864
-3.223431	quảng	-0.3661254
-4.126521	quất	-0.1284987
-4.126521	quần	-0.128856
-3.825491	quầy	-0.1282712
-3.524461	quận	-0.1275555
-4.126521	quỉ	-0.1289534
-2.463763	quốc	-0.3134888
-3.6494	quỹ	-0.1253357
-2.570219	ra	-0.2006525
-4.126521	ran	-0.103111
-4.126521	rau	-0.1281087
-4.126521	ren	-0.1277508
-3.281423	riêng	-0.1139961
-4.126521	rum	-0.1287586
-3.825491	rác	-0.1270016
-4.126521	rách	-0.1288884
-4.126521	ráp	-0.1287911
-4.126521	rãi	-0.103111
-4.126521	rò	-0.1289534
-4.126521	rô	-0.103111
-3.825491	rõ	-0.1284987
-3.6494	rút	-0.1015236
-3.6494	răng	-0.1286936
-3.524461	rượu	-0.181494
-3.6494	rạp	-0.1182749
-2.74631	rất	-0.1908221
-4.126521	rắn	-0.1288235
-3.126521	rằng	-0.1490751
-4.126521	rẽ	-0.1289209
-4.126521	rỉ	-0.1289209
-2.804302	rồi	-0.5881222
-3.34837	rộng	-0.1715485
-3.825491	rờ	-0.1177091
-4.126521	rời	-0.1259571
-3.825491	rửa	-0.1284987
-4.126521	sa	-0.1289534
-4.126521	sai	-0.1283038
-3.6494	sang	-0.1229729
-3.085128	sao	-0.1549625
-3.223431	sau	-0.2036922
-3.6494	say	-0.1030421
-3.825491	sen	-0.1256629
-4.126521	seo	-0.1283363
-2.896072	sinh	-0.1297795
-4.126521	siêu	-0.123762
-3.085128	so	-1.168003
-4.126521	son	-0.1289209
-3.427551	song	-0.1895309
-3.825491	soát	-0.1278484
-4.126521	sung	-0.124779
-3.825491	suy	-0.128856
-4.126521	suất	-0.1282388
-4.126521	suốt	-0.1273601
-4.126521	sài	-0.1289534
-4.126521	sàng	-0.1286287
-3.281423	sách	-0.1931131
-3.34837	sáng	-0.1463705
-4.126521	sánh	-0.1266429
-3.281423	sát	-0.09697086
-2.454423	sáu	-0.3293197
-3.524461	sân	-0.21155
-3.825491	sâu	-0.1280436
-4.126521	séc	-0.127132
-4.126521	sóng	-0.1288235
-4.126521	sô	-0.1284987
-3.427551	sông	-0.123762
-3.6494	sĩ	-0.1278159
-3.825491	sơ	-0.1268712
-3.427551	sơn	-0.1249428
-3.524461	sư	-0.1005198
-4.126521	sưu	-0.1285637
-3.825491	sương	-0.1223143
-4.126521	sạch	-0.1289534
-3.825491	sạn	-0.1248117
-2.980393	sản	-0.2798591
-3.427551	sắc	-0.1228413
-4.126521	sắm	-0.103111
-4.126521	sắp	-0.1289209
-4.126521	sắt	-0.1263491
-4.126521	sẵn	-0.1289534
-2.473309	sẽ	-0.1916738
-2.664123	số	-0.1707297
-3.012578	sống	-0.1433504
-3.6494	sớm	-0.1007623
-2.493052	sờ	-1.759915
-3.172278	sở	-0.1583622
-4.126521	sợ	-0.1281737
-3.825491	sứ	-0.125859
-3.172278	sức	-0.1240247
-4.126521	sừng	-0.1287911
-3.172278	sử	-0.4106308
-3.6494	sửa	-0.1210932
-3.6494	sữa	-0.1254666
-2.784098	sự	-0.1637728
-3.524461	sỹ	-0.1267081
-2.664123	ta	-0.3050937
-3.6494	tai	-0.1282388
-4.126521	tam	-0.1285312
-3.6494	tan	-0.1018346
-4.126521	tang	-0.1289209
-3.281423	tay	-0.2017827
-4.126521	tha	-0.1288884
-4.126521	thai	-0.1289534
-3.223431	tham	-0.2078311
-4.126521	thang	-0.1287586
-3.085128	thanh	-0.188613
-3.524461	thao	-0.2069784
-3.6494	thay	-0.2424249
-2.679363	theo	-0.1499338
-3.524461	thi	-0.1850647
-4.126521	thiên	-0.1289534
-4.126521	thiêng	-0.1289534
-4.126521	thiếc	-0.1286936
-3.085128	thiết	-0.3026229
-3.524461	thiếu	-0.1286612
-3.427551	thiểu	-0.1626462
-3.6494	thiện	-0.1250083
-3.825491	thiệp	-0.1262185
-3.427551	thiệt	-0.2693006
-3.34837	thiệu	-0.179627
-3.825491	thoát	-0.125303
-3.6494	thoại	-0.1246479
-4.126521	thoạt	-0.1271646
-3.04734	thu	-0.171482
-3.825491	thua	-0.1028698
-3.524461	thuyết	-0.1262838
-4.126521	thuê	-0.1287586
-3.34837	thuận	-0.1770713
-3.34837	thuật	-0.09854015
-3.34837	thuộc	-0.1208287
-3.825491	thuỷ	-0.3141161
-4.126521	thà	-0.1287911
-2.427551	thành	-0.4345219
-3.281423	thái	-0.261072
-4.126521	thám	-0.128856
-4.126521	thán	-0.1289534
-2.410518	tháng	-0.4869848
-3.825491	thánh	-0.1285312
-4.126521	thâm	-0.1289534
-3.34837	thân	-0.1003119
-4.126521	thãi	-0.103111
-3.223431	thêm	-0.1575746
-2.95043	thì	-0.1490118
-3.281423	thích	-0.1433952
-4.126521	thô	-0.1289534
-3.281423	thôi	-0.3073102
-3.524461	thôn	-0.1274904
-2.847767	thông	-0.3609471
-4.126521	thùng	-0.1289534
-4.126521	thú	-0.1286612
-3.126521	thúc	-0.3675587
-3.126521	thăm	-0.1389751
-3.825491	thơ	-0.1026285
-3.223431	thư	-0.1643438
-4.126521	thưa	-0.1281412
-2.6494	thương	-0.7546669
-3.126521	thường	-0.228806
-3.281423	thưởng	-0.09254642
-3.825491	thượng	-0.1286287
-4.126521	thạnh	-0.103111
-4.126521	thả	-0.1283038
-3.6494	thải	-0.1282713
-4.126521	thảm	-0.1289534
-3.524461	thảo	-0.1277508
-3.6494	thấp	-0.1239918
-3.427551	thất	-0.192993
-2.980393	thấy	-0.1360835
-3.427551	thần	-0.1889731
-4.126521	thận	-0.1282388
-4.126521	thập	-0.1288235
-3.04734	thật	-0.2401255
-3.825491	thắng	-0.1030076
-4.126521	thắt	-0.1289534
-4.126521	thằng	-0.1289534
-2.74631	thế	-0.5570725
-4.126521	thề	-0.1266429
-2.473309	thể	-0.1501106
-2.896072	thị	-0.5575714
-3.6494	thịt	-0.1285312
-4.126521	thọ	-0.1287261
-3.6494	thỏa	-0.4147409
-3.126521	thống	-0.09490471
-4.126521	thổn	-0.1285637
-4.126521	thờ	-0.1289534
-2.6494	thời	-0.4646715
-3.524461	thụ	-0.1239918
-2.6494	thủ	-0.542119
-3.524461	thủy	-0.1270016
-2.825491	thứ	-0.2646147
-3.012578	thức	-0.1129198
-3.825491	thừa	-0.1289209
-3.6494	thử	-0.1218197
-2.847767	thực	-0.2847329
-3.825491	ti	-0.1274578
-4.126521	tim	-0.1276857
-2.922401	tin	-0.1074128
-3.524461	tinh	-0.3224345
-4.126521	tiêm	-0.1282062
-2.825491	tiên	-0.1493367
-2.896072	tiêu	-0.2620486
-3.524461	tiếc	-0.123269
-3.281423	tiến	-0.2222911
-3.223431	tiếng	-0.1798548
-2.922401	tiếp	-0.3240127
-3.6494	tiết	-0.09805255
-4.126521	tiềm	-0.1285962
-3.126521	tiền	-0.1221558
-3.6494	tiểu	-0.242555
-4.126521	tiễn	-0.1284338
-3.825491	to	-0.1279135
-4.126521	toe	-0.1289534
-3.04734	toàn	-0.1479195
-4.126521	toái	-0.1279461
-3.34837	toán	-0.1785803
-4.126521	toét	-0.1289534
-3.6494	tra	-0.2425876
-4.126521	trai	-0.1285962
-3.427551	trang	-0.1254993
-3.172278	tranh	-0.1266628
-3.427551	trao	-0.4612198
-3.825491	treo	-0.1288884
-3.6494	triết	-0.1281412
-3.524461	triều	-0.6084287
-2.582453	triển	-0.2335016
-2.695157	triệu	-0.5758719
-2.182038	trong	-0.3019368
-2.695157	trung	-0.5201524
-4.126521	truy	-0.1288884
-3.126521	truyền	-0.3060798
-4.126521	truyện	-0.1289534
-3.825491	trà	-0.1250083
-3.825491	trách	-0.1286612
-4.126521	trái	-0.128856
-4.126521	trán	-0.103111
-4.126521	tránh	-0.1263491
-4.126521	trây	-0.128856
-2.558319	trên	-0.2005442
-4.126521	trì	-0.103111
-2.871248	trình	-0.1828425
-3.427551	trí	-0.09979155
-4.126521	trò	-0.1273601
-4.126521	trôi	-0.1242544
-3.825491	trông	-0.1285962
-4.126521	trú	-0.1277508
-4.126521	trúc	-0.1278485
-1.94183	trăm	-0.8697359
-4.126521	trăng	-0.1289534
-4.126521	trưa	-0.1219846
-3.825491	trưng	-0.3142785
-2.847767	trước	-0.1774377
-2.728581	trường	-0.1483672
-2.980393	trưởng	-0.1813349
-3.524461	trạng	-0.1245168
-3.524461	trả	-0.1275881
-4.126521	trải	-0.128856
-4.126521	trấu	-0.1283038
-3.6494	trần	-0.126447
-3.524461	trận	-0.1277834
-4.126521	trắng	-0.1284013
-3.223431	trẻ	-0.199637
-3.126521	trị	-0.1528625
-4.126521	trịnh	-0.1288235
-4.126521	trọ	-0.1272624
-2.764793	trọng	-0.1314689
-4.126521	trội	-0.1285637
-4.126521	trộm	-0.125761
-3.6494	trời	-0.1029732
-3.012578	trở	-0.441142
-3.126521	trợ	-0.216455
-4.126521	trụ	-0.1286936
-4.126521	trứng	-0.1289534
-3.825491	trừ	-0.1283688
-4.126521	trừng	-0.128856
-4.126521	trữ	-0.1274904
-3.172278	trực	-0.3474519
-3.427551	tuy	-0.4582533
-3.825491	tuyên	-0.3143109
-3.6494	tuyến	-0.09669128
-4.126521	tuyết	-0.1287261
-4.126521	tuyển	-0.1278159
-4.126521	tuyệt	-0.103111
-3.6494	tuấn	-0.1254993
-3.223431	tuần	-0.157275
-3.281423	tuổi	-0.09833125
-3.825491	ty	-0.1255974
-2.980393	tài	-0.3293931
-4.126521	tàng	-0.1289534
-2.463763	tác	-0.2390338
-2.427551	tám	-0.4089336
-2.980393	tâm	-0.1061575
-3.825491	tân	-0.1284987
-3.524461	tây	-0.1232361
-3.34837	tê	-0.3850314
-3.6494	tên	-0.09857497
-3.223431	tìm	-0.3229553
-3.04734	tình	-0.2412111
-3.34837	tích	-0.3850963
-3.825491	tín	-0.3141161
-2.871248	tính	-0.1503634
-4.126521	típ	-0.1273275
-3.825491	tóc	-0.123532
-4.126521	tô	-0.1277508
-2.093097	tôi	-0.276265
-4.126521	tôm	-0.1272624
-3.427551	tôn	-0.1916246
-4.126521	tùy	-0.1287911
-4.126521	tú	-0.1247462
-4.126521	túc	-0.1278159
-4.126521	túi	-0.1261205
-4.126521	túy	-0.103111
-2.784098	tăng	-0.4373654
-3.6494	tĩnh	-0.2175516
-2.44528	tư	-0.1173755
-4.126521	tươi	-0.1285637
-3.281423	tương	-0.4126151
-2.896072	tướng	-0.3325305
-3.825491	tường	-0.1268386
-3.34837	tưởng	-0.09732008
-3.427551	tượng	-0.09518546
-4.126521	tạ	-0.1288884
-2.546737	tại	-0.1671038
-4.126521	tạm	-0.1280111
-4.126521	tạng	-0.1287911
-3.012578	tạo	-0.1749714
-3.825491	tạp	-0.1012815
-3.825491	tả	-0.3133031
-3.825491	tản	-0.3139211
-4.126521	tảng	-0.1285962
-3.126521	tấn	-0.4841798
-3.524461	tất	-0.6084612
-3.825491	tầm	-0.1289209
-3.825491	tầng	-0.1018346
-4.126521	tận	-0.1289534
-3.012578	tập	-0.3224549
-4.126521	tật	-0.1289534
-4.126521	tắc	-0.1286936
-3.825491	tắm	-0.1234662
-4.126521	tặc	-0.125532
-2.493052	tế	-0.3399924
-4.126521	tết	-0.1287911
-3.825491	tỉ	-0.1015236
-3.825491	tỉa	-0.1287261
-3.126521	tỉnh	-0.1216877
-3.04734	tịch	-0.3023409
-3.34837	tỏ	-0.3201487
-3.6494	tố	-0.1002772
-3.085128	tối	-0.1804679
-4.126521	tốn	-0.1282062
-2.784098	tốt	-0.2967624
-4.126521	tồn	-0.1277508
-2.804302	tổ	-1.327058
-4.126521	tổn	-0.1280111
-2.6494	tổng	-0.5880629
-3.34837	tộc	-0.1496031
-3.825491	tội	-0.125532
-2.764793	tới	-0.1795928
-3.427551	tờ	-0.1918855
-3.825491	tụ	-0.1257283
-3.126521	tục	-0.09588648
-4.126521	tụi	-0.1254666
-4.126521	tụt	-0.128856
-3.825491	tủ	-0.3144408
-4.126521	tức	-0.125532
-2.386158	từ	-0.3297232
-3.427551	từng	-0.1277834
-3.524461	tử	-0.1272298
-3.085128	tự	-0.1527184
-3.825491	tựu	-0.1030421
-2.582453	tỷ	-0.8152958
-2.463763	u	-1.186524
-4.126521	uyn	-0.1288884
-3.281423	uống	-0.2173053
-3.825491	uỷ	-0.1275229
-3.825491	va	-0.1288235
-3.524461	vai	-0.211225
-3.825491	van	-0.1283038
-4.126521	vay	-0.1284338
-3.427551	vi	-0.1906444
-4.126521	vinh	-0.1272624
-2.74631	viên	-0.1616828
-3.427551	viết	-0.09501002
-3.524461	viễn	-0.2108348
-2.524461	việc	-0.1586636
-3.126521	viện	-0.3942784
-2.158038	việt	-1.364634
-4.126521	vong	-0.1284338
-4.126521	vua	-0.103111
-3.04734	vui	-0.1812658
-4.126521	vun	-0.1289209
-4.126521	vuông	-0.1289209
-1.965153	và	-0.1620978
-3.6494	vàng	-0.09651645
-2.570219	vào	-0.1620148
-4.126521	vâng	-0.103111
-3.825491	vé	-0.1272624
-3.427551	vê	-0.4614787
-2.804302	vì	-0.1601817
-3.281423	vô	-0.126806
-3.825491	võ	-0.1284987
-3.34837	vùng	-0.1802799
-2.825491	văn	-0.1937532
-4.126521	vĩ	-0.1288235
-4.126521	vĩnh	-0.1288235
-4.126521	vũ	-0.1287911
-3.825491	vương	-0.1246151
-3.281423	vượt	-0.2278327
-3.126521	vấn	-0.801219
-3.825491	vấp	-0.1273927
-3.281423	vẫn	-0.1266102
-3.6494	vận	-0.4137658
-3.524461	vật	-0.2098902
-3.126521	vậy	-0.1972972
-4.126521	vắc	-0.1284662
-3.825491	vắng	-0.09808738
-4.126521	vẹn	-0.1274253
-3.524461	vẻ	-0.1856168
-4.126521	vẽ	-0.1261205
-4.126521	vết	-0.1280111
-2.427551	về	-0.190594
-3.427551	vệ	-0.1270994
-3.524461	vị	-0.127881
-3.825491	vịnh	-0.3144408
-3.825491	vọng	-0.1286287
-3.825491	vỏ	-0.1284987
-4.126521	vỏn	-0.1289534
-2.804302	vốn	-0.5321609
-2.269189	với	-0.2293643
-3.6494	vở	-0.2413825
-4.126521	vỡ	-0.103111
-3.427551	vợ	-0.1921138
-3.524461	vợt	-0.1204648
-3.085128	vụ	-0.1203324
-4.126521	vụng	-0.1273601
-2.847767	vừa	-0.1387032
-3.825491	vững	-0.09944428
-2.847767	vực	-0.2150204
-3.524461	xa	-0.1285637
-4.126521	xanh	-0.1272624
-4.126521	xay	-0.1289534
-3.34837	xe	-0.1531939
-2.922401	xem	-0.1117059
-3.6494	xi	-0.2432051
-2.922401	xin	-0.2673628
-3.6494	xinh	-0.4147733
-4.126521	xong	-0.103111
-4.126521	xung	-0.1289534
-4.126521	xuyên	-0.1279786
-4.126521	xuân	-0.123762
-2.896072	xuất	-0.3080517
-3.524461	xuống	-0.1854098
-4.126521	xá	-0.1289209
-3.825491	xác	-0.1243528
-3.825491	xâm	-0.1286612
-3.281423	xây	-0.5914818
-3.012578	xã	-0.7608467
-3.6494	xét	-0.1284662
-4.126521	xí	-0.1283038
-3.825491	xúc	-0.1264797
-4.126521	xăng	-0.1289209
-3.6494	xưa	-0.1021109
-3.825491	xương	-0.1013507
-4.126521	xưởng	-0.1263164
-4.126521	xảy	-0.1278159
-4.126521	xấp	-0.1289534
-3.6494	xếp	-0.127132
-4.126521	xỉ	-0.1274253
-3.524461	xờ	-0.1288235
-4.126521	xứ	-0.1286287
-4.126521	xứng	-0.1266429
-3.524461	xử	-0.3231179
-3.126521	y	-0.2584076
-3.825491	yên	-0.128856
-3.04734	yêu	-0.2769042
-4.126521	yến	-0.1285962
-4.126521	yết	-0.103111
-3.6494	yếu	-0.1240575
-3.281423	á	-0.1462441
-3.825491	ái	-0.1270016
-3.6494	ám	-0.101731
-2.825491	án	-0.2120782
-4.126521	áng	-0.1284987
-3.6494	ánh	-0.1279786
-3.6494	áp	-0.10218
-3.825491	âm	-0.3145057
-4.126521	âu	-0.1242544
-4.126521	ép	-0.1274578
-2.503272	ét	-1.632071
-4.126521	êu	-0.1289534
-3.6494	ích	-0.1242216
-3.34837	ít	-0.1276532
-3.126521	ô	-0.1208783
-4.126521	ôn	-0.1280762
-2.711548	ông	-0.09738447
-4.126521	úy	-0.1289209
-3.281423	ý	-0.3112989
-3.281423	ăn	-0.1709792
-3.524461	đa	-0.1272298
-4.126521	đan	-0.1286287
-2.825491	đang	-0.1282575
-3.6494	đau	-0.1230716
-3.6494	đe	-0.4148383
-4.126521	đen	-0.1286287
-2.621371	đi	-0.2043605
-3.825491	đinh	-0.128856
-2.804302	điều	-0.288482
-3.223431	điểm	-0.1174759
-4.126521	điển	-0.1277508
-3.04734	điện	-0.2217919
-2.95043	đoàn	-0.2296309
-3.6494	đoán	-0.1222154
-3.223431	đoạn	-0.2935742
-3.825491	đoạt	-0.3139536
-4.126521	đua	-0.1287911
-4.126521	đà	-0.1289534
-4.126521	đài	-0.1289534
-3.524461	đàm	-0.3215542
-3.524461	đàn	-0.1012469
-3.223431	đào	-0.2734739
-3.427551	đá	-0.1864045
-3.825491	đám	-0.1289209
-4.126521	đán	-0.1289209
-3.427551	đáng	-0.1265776
-3.281423	đánh	-0.4118212
-3.223431	đâu	-0.5145727
-2.679363	đây	-0.38647
-2.130886	đã	-0.17488
-4.126521	đãi	-0.1289534
-3.825491	đèn	-0.1222813
-2.454423	đê	-0.4640054
-3.6494	đêm	-0.09874897
-3.6494	đình	-0.1256956
-3.825491	đòi	-0.3143109
-2.570219	đó	-0.2161131
-4.126521	đón	-0.1284662
-3.281423	đóng	-0.1711755
-3.34837	đô	-0.1550301
-3.524461	đôi	-0.1019037
-3.524461	đông	-0.2061899
-4.126521	đùa	-0.1287586
-4.126521	đúm	-0.1266429
-3.524461	đúng	-0.1024905
-3.281423	đăng	-0.5912544
-3.6494	đĩa	-0.4146435
-3.172278	đơn	-0.1547975
-3.172278	đưa	-0.2713759
-4.126521	đương	-0.1285312
-4.126521	đước	-0.1287586
-3.172278	đường	-0.1168089
-2.218036	được	-0.1339453
-2.804302	đại	-0.3374619
-3.04734	đạo	-0.1390048
-2.74631	đạt	-0.3050931
-3.825491	đảm	-0.1284662
-4.126521	đản	-0.123762
-3.172278	đảng	-0.2161639
-3.825491	đảo	-0.1288235
-3.281423	đất	-0.2201738
-3.281423	đấu	-0.1642872
-3.6494	đấy	-0.3890608
-4.126521	đầm	-0.1289534
-2.378333	đầu	-0.536665
-3.825491	đầy	-0.1030421
-3.012578	đẩy	-0.3549073
-4.126521	đắm	-0.1283038
-3.825491	đắp	-0.1284987
-4.126521	đắt	-0.1288235
-3.825491	đằng	-0.1285637
-4.126521	đẳng	-0.1283363
-2.896072	đặc	-1.254623
-4.126521	đặn	-0.103111
-2.95043	đặt	-0.1981498
-3.085128	đẹp	-0.1489959
-3.825491	đẻ	-0.1022835
-2.32718	đến	-0.2376143
-2.922401	đề	-0.1953173
-3.281423	đều	-0.1637554
-2.436325	để	-0.1666887
-4.126521	đệ	-0.1289534
-4.126521	đỉnh	-0.1285312
-3.34837	địa	-0.3849573
-4.126521	địch	-0.1286287
-2.679363	định	-0.1608561
-3.34837	đọc	-0.1248117
-3.427551	đỏ	-0.09205203
-3.524461	đốc	-0.1258591
-3.012578	đối	-0.4632056
-4.126521	đống	-0.128856
-3.6494	đồ	-0.102525
-3.825491	đồn	-0.1286287
-2.570219	đồng	-0.2052436
-3.524461	đổ	-0.1276857
-3.126521	đổi	-0.148816
-4.126521	đỗ	-0.103111
-3.126521	độ	-0.1887103
-3.427551	độc	-0.1280437
-3.524461	đội	-0.1211924
-2.570219	động	-0.1063495
-3.6494	đột	-0.2433025
-3.825491	đờ	-0.1279135
-3.281423	đời	-0.1412636
-3.6494	đỡ	-0.1285637
-4.126521	đợi	-0.1263491
-4.126521	đợt	-0.1283363
-3.825491	đủ	-0.1270994
-4.126521	đứa	-0.1284338
-3.085128	đức	-0.1747112
-3.427551	đứng	-0.190579
-3.172278	đừng	-0.2881509
-4.126521	ơ	-0.1266429
-3.825491	ơi	-0.1278159
-3.281423	ơn	-0.1218527
-4.126521	ưa	-0.1277834
-3.427551	ưu	-0.2765485
-3.427551	ương	-0.275572
-3.427551	ước	-0.1918203
-4.126521	ạ	-0.103111
-2.980393	ảnh	-0.2158126
-4.126521	ảo	-0.1287586
-4.126521	ấm	-0.1288884
-3.6494	ấn	-0.1282062
-4.126521	ấp	-0.1289534
-3.012578	ấy	-0.1048371
-4.126521	ể	-0.1286612
-4.126521	ỏi	-0.1223473
-3.825491	ốt	-0.3144408
-4.126521	ồn	-0.1284338
-3.524461	ổn	-0.2089436
-2.402245	ở	-0.173584
-4.126521	ủ	-0.124779
-4.126521	ủng	-0.1287911
-3.04734	ủy	-1.091259
-4.126521	ức	-0.103111
-3.172278	ứng	-0.197084

\2-grams:
-1.426343	<s> anh	-0.6231944
-3.478881	<s> ban
-3.478881	<s> buồng
-3.478881	<s> buộc
-2.87561	<s> bài	-0.1533908
-3.478881	<s> bàn
-3.478881	<s> bây
-3.478881	<s> bãi
-3.478881	<s> bưu
-1.684621	<s> bạn	-0.01656571
-3.478881	<s> bảo
-3.478881	<s> bằng
-3.478881	<s> bị
-3.478881	<s> bịt
-3.478881	<s> bốn
-1.888741	<s> bộ	0.02221335
-3.478881	<s> ca
-3.478881	<s> chiếc
-3.478881	<s> chiếm
-3.478881	<s> chiều
-2.172076	<s> cho	-0.1728604
-2.622497	<s> chuyến	0.2004877
-3.478881	<s> chàm
-3.478881	<s> chàng
-2.622497	<s> chính	0.0277959
-2.622497	<s> chúc
-1.774798	<s> chúng	0.4443071
-3.478881	<s> chắc
-3.478881	<s> chắp
-3.478881	<s> chẳng
-2.409305	<s> chỉ
-2.87561	<s> chị
-2.622497	<s> chủ	0.02863669
-3.478881	<s> chữ
-3.478881	<s> con
-3.478881	<s> cuốn
-2.622497	<s> cuộc
-3.478881	<s> càng
-1.934498	<s> các	-0.02571072
-3.478881	<s> cách
-3.478881	<s> cái
-2.87561	<s> còn
-1.71265	<s> có	-0.02874999
-2.373814	<s> cô	-0.02247146
-2.87561	<s> công	-0.1732176
-2.409305	<s> cùng	-0.05915798
-2.622497	<s> cũng	-0.01145844
-3.478881	<s> cưng
-2.622497	<s> cảm	-0.1552736
-2.87561	<s> cảnh
-3.478881	<s> cần
-2.173511	<s> cậu	-0.1684962
-3.478881	<s> cặp
-3.478881	<s> cộng
-3.478881	<s> cờ
-3.478881	<s> cục
-2.87561	<s> của
-3.478881	<s> cứ
-3.478881	<s> cửa
-2.87561	<s> do
-3.478881	<s> doanh
-3.478881	<s> dạo
-2.87561	<s> dự	-0.1056127
-3.478881	<s> e
-2.409305	<s> em
-3.478881	<s> ghế
-2.87561	<s> giai	0.6348187
-3.478881	<s> giao
-3.478881	<s> giá
-3.478881	<s> giấy
-2.87561	<s> giờ
-2.87561	<s> giữ
-3.478881	<s> giữa
-2.87561	<s> gấp
-3.478881	<s> gần
-3.478881	<s> gửi
-1.934498	<s> hai	-0.1757495
-3.478881	<s> hay
-2.87561	<s> hiện
-3.478881	<s> hiệp
-3.478881	<s> hiệu
-3.478881	<s> hoàn
-3.478881	<s> hoạt
-3.478881	<s> hàng
-2.373814	<s> hãy
-2.87561	<s> hình
-3.478881	<s> hôn
-3.478881	<s> hải
-2.373814	<s> họ	-0.02247146
-2.87561	<s> hội
-3.478881	<s> hợp
-2.87561	<s> khi
-3.478881	<s> khu
-3.478881	<s> khách
-3.478881	<s> khép
-1.934498	<s> không	-0.04015301
-3.478881	<s> khứ
-3.478881	<s> kim
-3.478881	<s> kiểu
-3.478881	<s> kèm
-3.478881	<s> kết
-2.622497	<s> kể	-0.06509165
-3.478881	<s> kỹ
-3.478881	<s> linh
-3.478881	<s> lo
-3.478881	<s> luôn
-1.934498	<s> là
-2.373814	<s> làm	-0.06723695
-3.478881	<s> lên
-3.478881	<s> lượt
-3.478881	<s> lại
-2.87561	<s> lần
-3.478881	<s> lối
-3.478881	<s> mang
-3.478881	<s> mày
-3.478881	<s> máy
-1.774798	<s> mình	-0.00658251
-2.87561	<s> món
-3.478881	<s> mô
-3.478881	<s> mùa
-2.87561	<s> mấy	0.3738317
-3.478881	<s> mắt
-3.478881	<s> mặc
-3.478881	<s> mẹ
-1.985651	<s> một
-3.478881	<s> mới
-3.478881	<s> mời
-2.622497	<s> mục	0.5515154
-3.478881	<s> nam
-3.478881	<s> ngay
-2.409305	<s> ngoài	-0.08002949
-3.478881	<s> ngoại
-3.478881	<s> nguyên
-3.478881	<s> nguyễn
-1.847348	<s> ngày	0.04917438
-2.622497	<s> ngân	-0.01254965
-3.478881	<s> ngăn
-2.622497	<s> người
-3.478881	<s> nhanh
-3.478881	<s> nhiều
-3.478881	<s> nhân
-2.87561	<s> nhưng
-3.478881	<s> nhậm
-2.409305	<s> nhằm	0.03728792
-3.478881	<s> nhờ
-1.934498	<s> những	-0.005020518
-2.87561	<s> nó
-2.87561	<s> nói
-2.373814	<s> năm	0.005482912
-3.478881	<s> nẻ
-2.373814	<s> nếu
-3.478881	<s> phi
-3.478881	<s> phim
-2.87561	<s> phát	-0.2251836
-2.87561	<s> phòng
-2.373814	<s> phó	0.007995784
-2.87561	<s> phải
-3.478881	<s> phục
-3.478881	<s> qua
-2.172076	<s> quan	0.1143024
-3.478881	<s> quyết
-3.478881	<s> quán
-3.478881	<s> quý
-3.478881	<s> quản
-3.478881	<s> quần
-2.87561	<s> quầy
-3.478881	<s> quỉ
-3.478881	<s> ra
-2.622497	<s> rất	-0.1228918
-3.478881	<s> rằng
-3.478881	<s> rồi
-2.87561	<s> sau
-3.478881	<s> song
-2.87561	<s> sáng	-0.1533908
-3.478881	<s> số
-3.478881	<s> sớm
-3.478881	<s> sức
-3.478881	<s> sử
-3.478881	<s> thang
-3.478881	<s> thanh
-1.684621	<s> theo	-0.007030904
-3.478881	<s> thiếu
-3.478881	<s> thoạt
-2.87561	<s> tháng
-3.478881	<s> thâm
-3.478881	<s> thì
-2.87561	<s> thông
-3.478881	<s> thăm
-3.478881	<s> thường
-2.87561	<s> thất
-2.87561	<s> thật	-0.09693757
-3.478881	<s> thằng
-3.478881	<s> thể
-2.622497	<s> thời
-1.985651	<s> thủ	-0.5910646
-2.87561	<s> thứ
-3.478881	<s> thức
-3.478881	<s> tiếp
-3.478881	<s> tiểu
-3.478881	<s> triển
-1.658292	<s> trong	-0.03743803
-3.478881	<s> trên
-3.478881	<s> trình
-3.478881	<s> trưa
-2.622497	<s> trước	-0.1177328
-3.478881	<s> trả
-3.478881	<s> trần
-3.478881	<s> trị
-3.478881	<s> trời
-2.409305	<s> tuy	-0.1490144
-3.478881	<s> tuyên
-2.87561	<s> tuần
-3.478881	<s> tác
-3.478881	<s> tây
-3.478881	<s> tình
-2.622497	<s> tính	-0.09496131
-3.478881	<s> tóc
-1.181171	<s> tôi	-0.05700234
-2.373814	<s> tăng	-0.04144407
-3.478881	<s> tưởng
-2.173511	<s> tại
-3.478881	<s> tạm
-3.478881	<s> tập
-2.87561	<s> tối
-3.478881	<s> tốt
-3.478881	<s> tổ
-2.173511	<s> tổng	-0.03993455
-1.985651	<s> từ	-0.02131778
-2.622497	<s> việc
-3.478881	<s> viện
-2.87561	<s> việt	0.9550852
-3.478881	<s> vui
-1.527013	<s> và	-0.02409333
-2.622497	<s> vào
-3.478881	<s> vâng
-2.622497	<s> vì
-3.478881	<s> vùng
-3.478881	<s> vấn
-2.409305	<s> về	-0.1726159
-1.934498	<s> với	-0.1245305
-2.622497	<s> vở	0.04085362
-3.478881	<s> vừa
-3.478881	<s> xem
-1.888741	<s> xin	-0.001349002
-3.478881	<s> xã
-1.985651	<s> ông
-3.478881	<s> đang
-2.373814	<s> đi
-2.373814	<s> điều	-0.0146828
-3.478881	<s> đoạn
-2.87561	<s> đánh
-1.80956	<s> đây	-0.5614421
-1.934498	<s> đã	-0.03781851
-3.478881	<s> đó
-3.478881	<s> đùa
-3.478881	<s> đúng
-3.478881	<s> đơn
-2.87561	<s> được
-2.622497	<s> đại
-2.87561	<s> đạt
-2.409305	<s> đặc	0.7048231
-2.373814	<s> đến
-2.87561	<s> đề	-0.1445341
-2.373814	<s> để	-0.1216726
-3.478881	<s> đọc
-3.478881	<s> đồ
-3.478881	<s> đồn
-2.622497	<s> đồng
-3.478881	<s> độ
-3.478881	<s> đội
-3.478881	<s> động
-3.478881	<s> đời
-2.173511	<s> đừng	-0.04392433
-3.478881	<s> ước
-3.478881	<s> ể
-3.478881	<s> ốt
-2.622497	<s> ở	-0.0971913
-3.478881	<s> ủy
-3.478881	<s> ứng
-1.49323	a </s>
-1.49323	a cho
-1.49323	a nguyễn
-0.8899588	a pếch
-1.49323	a và
-1.49323	a đang
-1.49323	a đê
-1.49323	ai </s>
-1.49323	ai biết
-0.8899588	ai có
-1.49323	ai cả
-1.49323	ai là
-0.8899588	ai muốn
-1.736268	an </s>
-1.132997	an bum
-1.132997	an hoà	0.07932408
-1.736268	an hà
-1.132997	an liên	-0.190857
-1.132997	an ninh	-0.05243775
-1.736268	an sinh
-1.736268	an thành
-1.132997	an toàn
-1.142103	anh </s>
-2.447473	anh cho
-2.447473	anh chàng
-2.447473	anh chưa
-0.4771213	anh chị	-0.05163336
-2.447473	anh chồng
-2.447473	anh cô
-1.844201	anh cũng
-2.447473	anh của
-2.447473	anh dũng
-2.447473	anh dại
-2.447473	anh không
-2.447473	anh minh
-2.447473	anh mới
-2.447473	anh nên
-2.447473	anh nói
-2.447473	anh nữa
-2.447473	anh quân
-2.447473	anh sao
-0.7781513	anh ta	-0.01318211
-2.447473	anh thật
-2.447473	anh thế
-2.447473	anh trở
-2.447473	anh tuấn
-2.447473	anh yêu
-2.447473	anh đi
-2.447473	anh đã
-2.447473	anh đúng
-1.377897	anh ấy
-2.271381	ba </s>
-2.271381	ba cùng
-2.271381	ba dân
-2.271381	ba hai
-2.271381	ba lan
-2.271381	ba lô
-2.271381	ba lần
-0.7781513	ba mươi	-0.0001891665
-2.271381	ba nghìn
-1.66811	ba ngày
-1.66811	ba người
-1.414997	ba năm	0.1176821
-2.271381	ba phần
-1.201806	ba phẩy	-0.0685709
-2.271381	ba quận
-0.9660116	ba tháng
-2.271381	ba thị
-2.271381	ba thủ
-1.66811	ba trăm
-2.271381	ba tại
-1.201806	ba tỷ	0.2304884
-2.271381	ba về
-2.271381	ba đê
-1.66811	ba đến
-1.912359	ban ban
-1.912359	ban chấp
-1.309088	ban chỉ	-0.2176796
-1.912359	ban giám
-1.309088	ban hành
-1.309088	ban kiểm	-0.1533908
-1.912359	ban nguyễn
-1.912359	ban nha
-1.055975	ban nhân	-0.100458
-1.912359	ban quốc
-1.912359	ban thể
-1.912359	ban trung
-1.309088	ban tổ	0.4849128
-1.912359	ban về
-1.912359	ban ô
-0.561957	bao giờ
-1.631533	bao lâu
-0.3261631	bao nhiêu	0.03724831
-1.067261	bay kinh
-1.067261	bay áp
-1.067261	bay đi
-1.067261	bi hoặc
-1.067261	bi hồ
-1.067261	bi vừa
-1.1922	bia </s>
-1.1922	bia chai
-1.1922	bia gì
-1.1922	bia hơi
-0.8911703	binh lính
-0.8911703	binh thế
-0.8911703	biên giới
-0.8911703	biên phòng
-1.28911	biến </s>
-1.28911	biến mạch
-1.28911	biến mạnh
-1.28911	biến rất
-1.28911	biến đổi
-0.8072927	biết </s>
-1.912359	biết chuyện
-1.912359	biết chín
-1.912359	biết chỉ
-1.912359	biết các
-1.912359	biết dịch
-1.912359	biết khi
-1.912359	biết ngành
-1.912359	biết nhau
-1.309088	biết rằng
-1.912359	biết sân
-1.912359	biết tên
-1.912359	biết về
-1.912359	biết điều
-1.309088	biết đến
-1.1922	biển dâng
-1.1922	biển nhẹ
-1.1922	biển đảo
-1.1922	biển động
-0.4236543	biểu cấp	-0.4199526
-1.49323	biểu hiện
-1.49323	biểu tượng
-0.8899588	biểu tại
-0.1840434	biện pháp	-0.04050443
-1.89117	biệt chỉ
-1.89117	biệt của
-1.89117	biệt giới
-1.89117	biệt ly
-0.39794	biệt là	-0.04371839
-1.89117	biệt quan
-1.287899	biệt trong
-1.89117	biệt việt
-1.89117	biệt và
-1.89117	biệt với
-1.89117	biệt để
-1.89117	biệt đối
-0.5901402	bom bi
-0.8911703	bum bán
-0.8911703	bum này
-0.2878988	buôn bán
-0.5901402	buông thả
-1.067261	buồn cho
-1.067261	buồn vương
-1.067261	buồn vậy
-0.5901402	buồng tắm
-1.28911	buổi gặp
-1.28911	buổi hội
-0.6858388	buổi lễ
-1.28911	buổi tối
-1.067261	buộc các
-1.067261	buộc khác
-1.067261	buộc phải
-1.1922	bà béo
-1.1922	bà con
-1.1922	bà muốn
-1.1922	bà ý
-0.7650201	bài báo
-0.7650201	bài hát
-1.368291	bài học
-1.368291	bài đủ
-1.368291	bàn bạc
-1.368291	bàn máy
-1.368291	bàn nữa
-1.368291	bàn rồi
-1.368291	bàn tỉnh
-1.368291	bàn đàm
-1.067261	bào chữa
-0.4639901	bào dân	-0.1556604
-0.9411113	bày </s>
-0.2390129	bày tỏ	0.07235973
-1.544383	bày với
-0.2108769	bác sĩ
-0.5901402	bái và
-1.544383	bán </s>
-1.544383	bán chạy
-1.544383	bán hàng
-1.544383	bán không
-1.544383	bán phụ
-1.544383	bán ra
-1.544383	bán song
-1.544383	bán được
-1.544383	bán đảo
-1.067261	bánh </s>
-1.067261	bánh mà
-1.067261	bánh mì
-1.845413	báo </s>
-1.845413	báo con
-0.9890282	báo cáo
-1.845413	báo có
-1.845413	báo của
-1.845413	báo không
-1.845413	báo nhu
-1.845413	báo nhân
-1.845413	báo nhấn
-1.845413	báo nêu
-1.845413	báo năm
-1.845413	báo sài
-1.845413	báo thanh
-1.845413	báo thiếu
-1.845413	báo thừa
-1.845413	báo động
-0.5901402	bát bầu
-0.8911703	báu trên
-0.8911703	báu để
-0.2108769	bây giờ
-0.5901402	bãi rác
-1.28911	bão </s>
-1.28911	bão mạnh
-1.28911	bão số
-1.28911	bão trung
-1.28911	bão đi
-0.2878988	bè tốt	-0.2144079
-0.8911703	bé </s>
-0.8911703	bé thất
-0.5901402	béo ngấn
-1.067261	bê bối
-1.067261	bê la
-1.067261	bê đã
-1.190989	bên </s>
-1.79426	bên còn
-1.79426	bên cùng
-1.79426	bên cũng
-1.190989	bên cạnh
-1.79426	bên hài
-1.79426	bên má
-1.79426	bên ngoài
-1.79426	bên nhau
-1.79426	bên nhất
-1.79426	bên về
-0.9378756	bên đã
-1.59014	bình </s>
-0.9868688	bình dương
-1.59014	bình phước
-1.59014	bình thành
-1.59014	bình thường
-1.59014	bình thạnh
-1.59014	bình và
-1.59014	bình vẫn
-1.59014	bình ổn
-0.06292165	bí thư	-0.00530256
-0.8911703	bó cao
-0.8911703	bó với
-0.5901402	bón thúc
-1.544383	bóng </s>
-1.544383	bóng tuyết
-0.9411113	bóng vàng
-0.4393159	bóng đá	0.02074914
-0.5901402	bóp còi
-0.8911703	bùi quang
-0.8911703	bùi thiện
-0.5901402	búc mạng
-1.067261	bút bi
-1.067261	bút sờ
-1.067261	bút ông
-0.8911703	băng tan
-0.8911703	băng điểm
-0.5901402	bơi rộng
-0.8911703	bưu chính
-0.8911703	bưu điện
-0.6858388	bước phát	0.3040226
-1.28911	bước ra
-0.6858388	bước đột	-0.05243775
-0.5901402	bướm nhưng
-0.5901402	bạ </s>
-0.8911703	bạc </s>
-0.8911703	bạc tìm
-0.5901402	bại này
-1.118542	bạn </s>
-2.223609	bạn biết
-2.223609	bạn buồn
-1.620337	bạn bè	0.07932408
-1.118542	bạn có	0.01917238
-2.223609	bạn cần
-2.223609	bạn hay
-2.223609	bạn hiểu
-1.620337	bạn học
-2.223609	bạn khi
-1.620337	bạn không
-2.223609	bạn khỏe
-2.223609	bạn làm
-2.223609	bạn nghĩ
-1.620337	bạn nói
-2.223609	bạn phải
-2.223609	bạn sao
-2.223609	bạn thân
-1.620337	bạn thật	-0.09693757
-2.223609	bạn trông
-2.223609	bạn trẻ
-2.223609	bạn đang
-1.154033	bạn đã
-2.223609	bạn được
-2.223609	bạn đến
-2.223609	bạn đổ
-2.223609	bạn ở
-0.5901402	bạo nào
-1.095484	bản </s>
-1.951868	bản ba
-1.951868	bản bên
-1.951868	bản hoàn
-1.951868	bản khi
-1.951868	bản kim
-1.951868	bản mà
-1.951868	bản mô
-1.951868	bản nhẹ
-1.951868	bản năm
-1.951868	bản pháp
-1.348597	bản thân
-1.951868	bản thư
-1.348597	bản trong
-1.951868	bản trở
-1.348597	bản và
-1.951868	bản với
-1.951868	bản vừa
-1.1922	bảng </s>
-1.1922	bảng từ
-1.1922	bảng và
-1.1922	bảng xếp
-0.7751483	bảo an	-0.1087438
-1.631533	bảo nói
-1.631533	bảo thủ
-1.631533	bảo tàng
-0.561957	bảo vệ
-1.631533	bảo đảm
-0.552842	bảy </s>
-2.28911	bảy dự
-1.219534	bảy hai	0.05523056
-2.28911	bảy khai
-2.28911	bảy kim
-2.28911	bảy là
-0.79588	bảy mươi	-0.0340988
-2.28911	bảy ngày
-2.28911	bảy người
-1.685839	bảy năm
-2.28911	bảy phẩy
-2.28911	bảy phật
-2.28911	bảy sẽ
-2.28911	bảy số
-1.685839	bảy tháng	-0.0990268
-2.28911	bảy trên
-2.28911	bảy trăm
-2.28911	bảy tư
-2.28911	bảy tại
-2.28911	bảy tỷ
-2.28911	bảy và
-2.28911	bảy ông
-2.28911	bảy đã
-2.28911	bảy đạt
-2.28911	bảy đảng
-0.5901402	bấm ngọn
-0.4327257	bất cứ	-0.06009938
-1.28911	bất động
-1.28911	bất ổn
-0.4327257	bầu chọn
-1.28911	bầu làm
-1.28911	bầu nước
-0.5901402	bậc phụ
-0.5901402	bận gì
-0.8911703	bật những
-0.8911703	bật tín
-0.5901402	bậy tầm
-0.5889288	bắc bộ
-0.5889288	bắc kinh
-1.49323	bắt </s>
-1.49323	bắt buộc
-0.8899588	bắt giữ
-1.49323	bắt mày
-1.49323	bắt tay
-0.8899588	bắt đầu
-1.704084	bằng cử
-1.704084	bằng gỗ
-1.704084	bằng máy
-1.704084	bằng mắt
-1.704084	bằng mọi
-1.704084	bằng phẫu
-1.704084	bằng sông
-1.704084	bằng tai
-1.704084	bằng trận
-1.100812	bằng việc
-1.704084	bằng văn
-1.704084	bằng đến
-0.5889288	bến sông
-1.1922	bến tôi
-1.1922	bến đỗ
-0.2878988	bền vững
-0.5901402	bể bơi
-1.28911	bệnh chàm
-1.28911	bệnh lây
-1.28911	bệnh mà
-1.28911	bệnh truyền
-1.28911	bệnh và
-1.98808	bị bắt
-1.98808	bị chữa
-1.98808	bị cơn
-1.98808	bị cướp
-1.98808	bị cấm
-1.98808	bị dính
-1.98808	bị dùng
-1.384809	bị dị	0.07932408
-1.98808	bị giết
-1.98808	bị hỏng
-1.384809	bị kẹt
-1.98808	bị một
-1.98808	bị này
-1.98808	bị phát
-1.98808	bị rách
-1.98808	bị thương
-1.98808	bị tấn
-1.98808	bị tắc
-1.98808	bị từ
-1.98808	bị tử
-1.98808	bị u
-1.98808	bị về
-1.98808	bị ám
-0.5901402	bịt mũi
-0.5901402	bọn hoàng
-1.067261	bỏ cuộc
-1.067261	bỏ giày
-1.067261	bỏ những
-0.6368456	bố </s>
-1.49323	bố họ
-1.49323	bố mẹ
-0.8899588	bố quyết
-1.49323	bố tham
-0.8911703	bối cảnh
-0.8911703	bối ám
-1.064632	bốn </s>
-2.134208	bốn cục
-2.134208	bốn dự
-0.544068	bốn mươi	-0.07642902
-2.134208	bốn mười
-2.134208	bốn nghìn
-2.134208	bốn người
-1.530937	bốn phẩy
-1.530937	bốn tháng
-1.530937	bốn triệu
-1.277824	bốn trăm
-2.134208	bốn tỉ
-2.134208	bốn tỉnh
-1.530937	bốn tốt	-0.2144079
-1.277824	bốn tỷ	0.2881695
-0.5901402	bồ đào
-0.5901402	bồi đắp
-0.5901402	bổ sung
-1.599653	bộ </s>
-2.202924	bộ chính
-2.202924	bộ chỉ
-2.202924	bộ công
-2.202924	bộ cấp
-2.202924	bộ giải
-1.133348	bộ kế	-0.3219584
-2.202924	bộ lớn
-1.599653	bộ ngành
-1.346539	bộ nông	-0.2137983
-2.202924	bộ nội
-0.6127838	bộ phim	-0.01232794
-2.202924	bộ sưu
-2.202924	bộ thuỷ
-1.599653	bộ thương	0.3967767
-1.097857	bộ trưởng	-0.04632587
-2.202924	bộ tài
-2.202924	bộ và
-1.599653	bộ y	-0.07934891
-0.5901402	bột ngọt
-0.8911703	bờm lớn
-0.8911703	bờm sư
-1.1922	bởi những
-1.1922	bởi sản
-1.1922	bởi thành
-1.1922	bởi đất
-0.5901402	bợp chợp
-0.5901402	bức treo
-1.067261	ca khúc
-1.067261	ca sỹ
-1.067261	ca từ
-1.669322	cam </s>
-1.669322	cam kết
-0.1760913	cam pu	0
-1.669322	cam quá
-1.669322	cam đi
-0.5901402	can thiệp
-1.348597	cao </s>
-1.951868	cao bằng
-1.951868	cao chính
-1.951868	cao cải
-1.348597	cao cấp
-1.951868	cao giám
-1.951868	cao gấp
-1.951868	cao hai
-1.951868	cao hiệu
-1.951868	cao nhận
-1.951868	cao năm
-1.951868	cao năng
-1.951868	cao nỗ
-1.951868	cao quý
-1.951868	cao việc
-1.951868	cao việt
-1.951868	cao xa
-1.951868	cao điều
-1.951868	cao đức
-1.348597	cao ủy	0.5429047
-0.8911703	chai </s>
-0.8911703	chai lọ
-0.5901402	chanh chua
-0.5901402	chay </s>
-1.1922	chi dẫn
-0.3358157	chi phí
-1.49323	chia cho
-1.49323	chia có
-0.8899588	chia hun	0.07932408
-0.8899588	chia ngày
-1.49323	chia tháng
-1.49323	chia đã
-0.5901402	chinh phục
-0.5901402	chiêng ché
-1.435238	chiếc bờm
-1.435238	chiếc khăn
-1.435238	chiếc kính
-1.435238	chiếc quan
-1.435238	chiếc răng
-1.435238	chiếc vượt
-1.435238	chiếc đèn
-0.8911703	chiếm khoảng
-0.8911703	chiếm xảy
-1.544383	chiến binh
-1.544383	chiến có
-1.544383	chiến dịch
-1.544383	chiến là
-0.9411113	chiến lược
-1.544383	chiến pích
-0.9411113	chiến tranh
-1.368291	chiếu của
-1.368291	chiếu nhằm
-1.368291	chiếu thông
-1.368291	chiếu tại
-1.368291	chiếu đến
-1.368291	chiếu ở
-1.28911	chiều mai
-1.28911	chiều mười
-1.28911	chiều mới
-1.28911	chiều năm
-1.28911	chiều trẻ
-1.900683	cho </s>
-2.503954	cho ai
-1.900683	cho anh
-0.9138138	cho biết	-0.01608005
-2.503954	cho bóng
-1.64757	cho bạn	-0.1075741
-2.503954	cho chức
-2.503954	cho con
-1.398887	cho các
-2.503954	cho cô
-1.900683	cho công
-2.503954	cho cả
-2.503954	cho doanh
-2.503954	cho dù
-2.503954	cho khuất
-2.503954	cho lào
-2.503954	cho mình
-2.503954	cho mọi
-2.503954	cho một
-2.503954	cho nghiêm
-1.900683	cho ngành
-1.900683	cho người
-2.503954	cho nhân
-2.503954	cho nên
-1.900683	cho năm
-2.503954	cho phái
-1.64757	cho phép
-2.503954	cho phía
-2.503954	cho phòng
-2.503954	cho quỹ
-2.503954	cho rò
-1.64757	cho rằng	-0.09471385
-2.503954	cho thuê
-2.503954	cho thấy
-2.503954	cho thủ
-0.8346326	cho tôi	-0.0272145
-2.503954	cho tồn
-2.503954	cho tới
-2.503954	cho vai
-2.503954	cho vay
-2.503954	cho việc
-1.900683	cho việt	0.9550852
-2.503954	cho vui
-1.900683	cho đến
-0.5901402	chu trình
-0.5901402	chua hơn
-1.28911	chung công
-1.28911	chung là
-1.28911	chung rộng
-1.28911	chung sống
-1.28911	chung xây
-0.5788537	chuyên gia
-1.435238	chuyên môn
-1.435238	chuyên mục
-1.435238	chuyên nghiệp
-1.435238	chuyên sâu
-1.368291	chuyến bay
-0.2632246	chuyến thăm
-0.8911703	chuyển nó
-0.8911703	chuyển sang
-1.631533	chuyện </s>
-1.631533	chuyện chăm
-1.631533	chuyện của
-1.631533	chuyện nhảm
-1.631533	chuyện tiền
-1.631533	chuyện trò
-1.631533	chuyện tôi
-1.631533	chuyện và
-1.028262	chuyện với
-1.631533	chuyện đó
-0.2878988	chuẩn bị
-0.5901402	chuốc lấy
-0.8911703	chàm sữa
-0.8911703	chàm thể
-0.8911703	chàng liều
-0.8911703	chàng này
-0.5901402	chán nản
-0.8911703	cháu còn
-0.8911703	cháu không
-0.8911703	cháy khói
-0.8911703	cháy phải
-0.4639901	chân </s>
-1.067261	chân thành
-0.2632246	châu á	-0.0103322
-1.368291	châu âu
-0.5901402	chây ly
-0.5901402	ché chăn
-0.5901402	chén bát
-0.5901402	chìa khóa
-0.07918125	chí minh	-0.06749714
-1.06605	chí tốt	-0.2144079
-1.164017	chín </s>
-2.233593	chín an
-2.233593	chín của
-0.5642715	chín mươi	-0.02102768
-2.233593	chín nghìn
-1.630322	chín năm
-1.164017	chín tháng
-2.233593	chín triệu
-0.4393327	chín trăm	-0.5747975
-2.233593	chín tỷ
-2.233593	chín đến
-2.121619	chính bao
-2.121619	chính có
-2.121619	chính của
-1.518348	chính hai	0.01962025
-2.121619	chính mạng
-2.121619	chính mờ
-2.121619	chính mỹ
-2.121619	chính pháp
-0.4900862	chính phủ	0.0349399
-2.121619	chính quyền
-1.016552	chính thức
-1.265235	chính trị
-2.121619	chính viễn
-2.121619	chính vì
-2.121619	chính xuất
-2.121619	chính xác
-2.121619	chính âm
-0.5901402	chóng trong
-0.8911703	chú trọng
-0.8911703	chú ấy
-1.1922	chúc một
-0.5889288	chúc mừng
-1.1922	chúc va
-1.970351	chúng không
-0.3802112	chúng ta	0.01639464
-0.30103	chúng tôi	-0.03209859
-1.970351	chúng ông
-1.1922	chút </s>
-1.1922	chút nào
-1.1922	chút thêm
-1.1922	chút ít
-0.5901402	chăm lo
-1.067261	chăn </s>
-1.067261	chăn màn
-1.067261	chăn nuôi
-0.5901402	chăng là
-0.8911703	chơi giải
-0.8911703	chơi không
-0.7751483	chưa </s>
-1.631533	chưa chính
-1.631533	chưa kể
-1.631533	chưa làm
-1.631533	chưa phối
-1.631533	chưa thể
-1.631533	chưa thực
-1.631533	chưa tin
-1.631533	chưa tới
-1.59014	chương cũng
-0.04575749	chương trình	-0.03648872
-1.067261	chạy nhất
-1.067261	chạy thoát
-1.067261	chạy trên
-0.5901402	chải răng
-0.5901402	chảy qua
-0.8911703	chấn </s>
-0.8911703	chấn thương
-0.5901402	chấp hành
-1.1922	chất lượng
-1.1922	chất thải
-0.5889288	chất độc
-0.5901402	chẩn đoán
-1.067261	chậm </s>
-0.4639901	chậm lại	-0.1812625
-0.5901402	chật </s>
-0.2878988	chắc chắn
-0.8911703	chắn </s>
-0.8911703	chắn là
-0.5901402	chắp cho
-1.435238	chẳng còn
-1.435238	chẳng có
-1.435238	chẳng hiểu
-1.435238	chẳng hề
-1.435238	chẳng phải
-1.435238	chẳng đáng
-1.435238	chẳng đơn
-1.067261	chặn không
-1.067261	chặn nhiều
-1.067261	chặn và
-0.2878988	chặng đường
-0.5901402	chặt với
-1.435238	chế biến
-1.435238	chế làm
-0.8319668	chế lạm	0.07932408
-1.435238	chế như
-0.8319668	chế độ
-0.2878988	chết rồi	0.1838828
-2.005114	chỉ </s>
-2.005114	chỉ cho
-2.005114	chỉ coi
-1.401842	chỉ cần
-1.148729	chỉ huy
-2.005114	chỉ là
-2.005114	chỉ mất
-2.005114	chỉ nam
-1.401842	chỉ như	-0.2094407
-2.005114	chỉ những
-2.005114	chỉ riêng
-2.005114	chỉ thu
-2.005114	chỉ thấy
-2.005114	chỉ thể
-2.005114	chỉ tiêu
-2.005114	chỉ tính
-2.005114	chỉ vì
-2.005114	chỉ được
-1.401842	chỉ đạo
-1.401842	chỉ đạt
-0.5901402	chỉnh độ
-1.180914	chị </s>
-2.037298	chị cho
-2.037298	chị chẳng
-0.4057654	chị có	-0.04301845
-2.037298	chị hãy
-2.037298	chị không
-0.9677224	chị muốn	-0.05502839
-2.037298	chị rời
-2.037298	chị thích
-1.434027	chị được	-0.2063853
-2.037298	chị đấy
-2.037298	chị đừng
-0.5901402	chịu ảnh
-1.435238	chọn giải
-1.435238	chọn lọc
-1.435238	chọn món
-1.435238	chọn thêm
-1.435238	chọn trước
-1.435238	chọn đòi
-1.435238	chọn đóng
-0.2878988	chối </s>
-1.435238	chống buôn
-1.435238	chống chương
-1.435238	chống cúm
-1.435238	chống dịch
-1.435238	chống khủng
-1.435238	chống lụt
-1.435238	chống đại
-1.49323	chồng </s>
-1.49323	chồng anh
-1.49323	chồng mới
-1.49323	chồng quý
-1.49323	chồng thì
-1.49323	chồng thế
-0.8899588	chồng và
-1.1922	chỗ làm
-1.1922	chỗ nào
-1.1922	chỗ đó
-1.1922	chỗ ở
-1.067261	chờ phản
-1.067261	chờ thưa
-1.067261	chờ tôi
-0.5901402	chợ còn
-0.5901402	chợp hơn
-0.8911703	chụp thật
-0.8911703	chụp ảnh
-1.055975	chủ dân	-0.2669183
-1.912359	chủ nhiệm
-1.912359	chủ nhà
-1.912359	chủ quyền
-1.912359	chủ trì
-0.2808266	chủ tịch	0.007301331
-1.309088	chủ yếu
-1.912359	chủ đề
-0.5901402	chứ không
-0.5901402	chứa sắt
-1.912359	chức </s>
-1.912359	chức cho
-1.912359	chức cuộc
-1.912359	chức hội
-1.912359	chức liên
-1.912359	chức lễ
-1.912359	chức nhiều
-1.055975	chức năng
-1.912359	chức phi
-1.309088	chức sẽ
-1.912359	chức thành
-0.8072927	chức thương	0.2370019
-1.912359	chức trong
-1.912359	chức vụ
-0.3301714	chứng khoán	0.102669
-1.435238	chứng nhận
-1.435238	chứng ở
-0.5901402	chừng sáu
-0.5901402	chửi năm
-1.067261	chữ cái
-1.067261	chữ ký
-1.067261	chữ thập
-0.8911703	chữa cháy
-0.8911703	chữa hoặc
-1.49323	coi là
-0.1878604	coi trọng
-1.49323	coi đó
-1.820589	con cuộc
-1.820589	con em
-1.820589	con gái
-1.820589	con không
-1.820589	con một
-1.820589	con người
-1.820589	con nước
-1.820589	con phải
-1.820589	con quái
-1.820589	con riêng
-1.820589	con số
-1.820589	con trai
-1.820589	con việt
-1.820589	con đã
-1.820589	con đầu
-1.820589	con đẻ
-1.820589	con ưu
-0.5901402	cung cấp
-1.631533	cuối </s>
-1.631533	cuối bảng
-0.561957	cuối năm	0.06000108
-1.631533	cuối tháng
-0.7751483	cuối tuần
-1.631533	cuối đời
-0.5901402	cuốn sách
-1.845413	cuộc bầu
-1.845413	cuộc cho
-1.845413	cuộc giao
-1.242141	cuộc hôn	0.03357856
-1.242141	cuộc họp
-1.845413	cuộc phát
-0.9890282	cuộc sống	-0.1060807
-1.845413	cuộc tham
-1.845413	cuộc tiếp
-1.845413	cuộc xây
-1.845413	cuộc đàm
-0.9890282	cuộc đời
-1.067261	cà mau
-0.4639901	cà phê
-1.435238	càng cần
-1.435238	càng nhanh
-1.435238	càng phát
-1.435238	càng tốt
-1.435238	càng vui
-1.435238	càng đông
-1.435238	càng được
-1.28911	cá chân
-0.6858388	cá nhân
-1.28911	cá thể
-1.28911	cá vịnh
-2.52966	các anh
-1.926388	các biện	0.2263944
-2.52966	các buổi
-2.52966	các bác
-1.926388	các bạn
-2.52966	các bậc
-2.52966	các bệnh
-2.52966	các bộ
-2.52966	các cam
-1.926388	các chuyên	-0.1022884
-2.52966	các chuyến
-2.52966	các cháu
-2.52966	các chương
-2.52966	các chị
-2.52966	các chủ
-2.52966	các cuộc
-2.52966	các công
-2.52966	các cơ
-1.673275	các cậu
-2.52966	các cổ
-2.52966	các cỗ
-2.52966	các cụm
-2.52966	các diễn
-1.926388	các doanh	-0.01295641
-2.52966	các dân
-1.926388	các dự	0.0008426309
-1.673275	các giải
-2.52966	các hiệp
-1.926388	các hoạt	0.3290249
-2.52966	các hãng
-2.52966	các hộ
-2.52966	các khu
-2.52966	các kết
-2.52966	các loại
-2.52966	các lĩnh
-2.52966	các lần
-1.926388	các mặt
-2.52966	các mụn
-2.52966	các nguồn
-2.52966	các ngành
-2.52966	các nhiều
-1.424593	các nhà	-0.04988585
-2.52966	các nhóm
-1.460084	các nước
-1.926388	các tay	-0.1022884
-1.926388	các thiết	-0.09607275
-2.52966	các thảm
-2.52966	các thủ
-1.926388	các trường
-2.52966	các tỉnh
-2.52966	các tổ
-2.52966	các tổn
-2.52966	các vùng
-1.926388	các vấn	0.4637235
-1.926388	các vận	0.1796891
-1.926388	các đĩa	0.1796891
-1.460084	các địa	-0.2470925
-1.926388	các đối
-2.52966	các đồng
-1.631533	cách hành
-1.028262	cách khác
-1.028262	cách mạng	-0.1925187
-1.631533	cách mọi
-1.631533	cách này
-1.631533	cách thích
-1.631533	cách về
-1.631533	cách xuất
-1.631533	cách đây
-1.631533	cái bánh
-1.631533	cái gì
-1.631533	cái lớn
-1.028262	cái này
-1.631533	cái séc
-1.631533	cái thân
-1.631533	cái trên
-1.631533	cái tên
-1.631533	cái đã
-1.631533	cái đước
-0.5901402	cán bộ
-1.067261	cánh </s>
-1.067261	cánh bên
-1.067261	cánh bướm
-1.49323	cáo bằng
-1.49323	cáo của
-1.49323	cáo di
-1.49323	cáo trạng
-1.49323	cáo trực
-1.49323	cáo về
-1.49323	cáo để
-1.49323	cáo ở
-0.8911703	câu hỏi
-0.8911703	câu này
-0.5901402	cãi nhau
-0.5901402	còi theo
-1.766232	còn bị
-1.766232	còn cao
-0.9098469	còn có
-1.766232	còn dính
-1.766232	còn hiệu
-1.766232	còn khoảng
-1.766232	còn lâu
-1.766232	còn lòi
-1.766232	còn nhằm
-1.766232	còn rất
-1.766232	còn tạo
-1.766232	còn đang
-1.766232	còn điều
-2.680045	có </s>
-2.076774	có ai	-0.1753459
-2.680045	có ba
-2.680045	có biết
-2.680045	có buổi
-2.680045	có bán
-2.680045	có bão
-2.680045	có bận
-2.076774	có bị
-1.823661	có bốn	0.004172862
-2.680045	có chinh
-2.680045	có chứa
-2.680045	có chức
-1.823661	có các
-2.680045	có cái
-2.680045	có dư
-2.680045	có giấy
-1.37324	có gì	-0.08411629
-2.680045	có gần
-2.680045	có gọi
-1.823661	có hiệu	-0.09154603
-2.680045	có hối
-2.680045	có hứng
-2.680045	có khoảng
-2.680045	có không
-2.680045	có khả
-2.680045	có khẩn
-2.680045	có lầm
-2.680045	có lắm
-2.680045	có lẽ
-2.680045	có mang
-1.186815	có muốn	-0.001104452
-2.680045	có màu
-2.680045	có mình
-2.076774	có một
-1.374676	có nhiều
-1.823661	có những
-2.680045	có nào
-2.680045	có nói
-2.680045	có năm
-2.680045	có phòng
-2.680045	có quan
-2.680045	có quyền
-2.680045	có rẽ
-2.680045	có sương
-2.680045	có sử
-2.680045	có sửa
-2.076774	có sự
-1.823661	có thêm
-0.6919651	có thể	-0.004716408
-2.680045	có thứ
-2.076774	có trên
-2.680045	có trải
-2.076774	có tính
-2.680045	có tổng
-2.076774	có tới	-0.1742005
-2.680045	có uống
-2.680045	có vượt
-2.076774	có vẻ
-2.680045	có xem
-2.680045	có điều
-2.680045	có đây
-2.680045	có đầy
-1.766232	cô cũng
-1.766232	cô cửu
-1.16296	cô gái
-1.766232	cô la
-1.766232	cô lê
-1.16296	cô ta
-1.766232	cô tiên
-1.766232	cô tụt
-1.766232	cô đơn
-1.766232	cô định
-0.9098469	cô ấy
-1.577933	công an
-1.577933	công bố
-1.577933	công cuộc
-2.181205	công dân
-2.181205	công mạng
-1.076138	công nghiệp	-0.03954563
-0.875835	công nghệ	-0.01238104
-2.181205	công ngốc
-2.181205	công nhất
-2.181205	công suất
-2.181205	công thương
-1.577933	công ty
-1.111629	công tác
-0.875835	công việc	-0.03115676
-2.181205	công và
-2.181205	công xây
-2.181205	công đã
-2.181205	công đại
-1.631533	cùng bút
-1.631533	cùng chồng
-1.028262	cùng kỳ	-0.1349908
-1.631533	cùng liều
-1.631533	cùng lúc
-1.631533	cùng ngày
-1.631533	cùng quan
-1.631533	cùng trường
-1.028262	cùng với
-0.1284334	cúm gia	-0.7915888
-0.8911703	căn hộ
-0.8911703	căn nhà
-0.2878988	cũ của
-1.89117	cũng có
-1.89117	cũng dự
-1.89117	cũng hay
-1.287899	cũng không
-1.89117	cũng là
-1.89117	cũng lờ
-0.5858004	cũng như
-1.89117	cũng quy
-1.89117	cũng sẽ
-1.89117	cũng trong
-1.89117	cũng xuất
-1.89117	cũng đang
-1.89117	cũng đưa
-1.89117	cũng được
-0.7751483	cơ bản
-1.631533	cơ hội
-0.7751483	cơ quan
-1.028262	cơ sở
-1.631533	cơ thể
-1.631533	cơ tối
-0.8911703	cơn gió
-0.8911703	cơn ngừng
-0.5901402	cư xá
-0.5901402	cưng ơi
-0.5901402	cước có
-0.5901402	cưới này
-0.5901402	cướp </s>
-0.5901402	cười </s>
-1.49323	cường các
-0.8899588	cường hơn	-0.2085822
-1.49323	cường hợp
-0.6368456	cường quan	0.06229603
-1.49323	cường trao
-0.5901402	cưỡng chiếm
-0.5901402	cạn rất
-1.368291	cạnh hàng
-0.2987156	cạnh tranh
-1.368291	cạnh việc
-0.763827	cả </s>
-1.868894	cả chúng
-1.012509	cả các
-1.868894	cả gia
-1.868894	cả hai
-1.868894	cả không
-1.868894	cả ngày
-1.868894	cả người
-1.868894	cả những
-1.868894	cả tại
-1.868894	cả và
-1.868894	cả vì
-1.868894	cả văn
-0.8911703	cải cách
-0.8911703	cải thiện
-1.669322	cảm của
-1.669322	cảm giác
-1.669322	cảm hứng
-1.669322	cảm nhận
-1.06605	cảm thấy
-1.669322	cảm và
-0.5642546	cảm ơn
-0.9411113	cảnh báo
-1.544383	cảnh mới
-0.4748068	cảnh sát
-1.544383	cảnh về
-1.544383	cảnh đẹp
-0.5901402	cấm tới
-1.287899	cấp </s>
-0.5858004	cấp cao	-0.04529166
-1.89117	cấp dưới
-1.89117	cấp hai
-1.89117	cấp không
-1.89117	cấp nguyễn
-1.89117	cấp nhà
-1.89117	cấp quảng
-1.89117	cấp quốc
-1.89117	cấp thứ
-0.8215943	cấp tám
-0.5901402	cất giấu
-0.5901402	cấu trúc
-1.49323	cầm chiều
-1.49323	cầm lần
-1.49323	cầm nâng
-1.49323	cầm năm
-1.49323	cầm theo
-1.49323	cầm để
-0.8899588	cầm ở
-1.736268	cần </s>
-1.736268	cần biết
-1.736268	cần nhắc
-0.8798837	cần phải
-1.736268	cần quan
-1.736268	cần quyết
-1.736268	cần thiết
-1.132997	cần thơ
-1.736268	cần tăng
-1.736268	cần tỉa
-1.736268	cần đẩy
-1.704084	cầu </s>
-1.704084	cầu các
-1.704084	cầu nối
-1.704084	cầu sở
-1.704084	cầu theo
-1.704084	cầu thị
-0.6345077	cầu thủ
-1.704084	cầu tiêu
-1.704084	cầu việc
-1.704084	cầu và
-0.2878988	cẩm đào
-0.8911703	cận của
-0.8911703	cận trình
-1.067261	cập </s>
-1.067261	cập nhật
-1.067261	cập và
-1.704084	cậu </s>
-1.704084	cậu bé
-1.704084	cậu bỏ
-1.704084	cậu chuẩn
-0.6345077	cậu có	-0.07267861
-1.704084	cậu làm
-1.704084	cậu nhanh
-1.704084	cậu ta
-1.704084	cậu đi
-1.704084	cậu đấy
-0.5901402	cắm mốc
-0.8911703	cắt bỏ
-0.8911703	cắt lọc
-0.5901402	cằm và
-0.5901402	cẳng chân
-0.8911703	cặp sừng
-0.8911703	cặp vợ
-0.4327257	cố gắng
-1.28911	cố không
-1.28911	cố và
-0.5901402	cốc bia
-0.5901402	cống ra
-0.6858388	cổ phiếu
-1.28911	cổ phần
-1.28911	cổ son
-1.28911	cổ điển
-0.8911703	cổng </s>
-0.8911703	cổng của
-0.8911703	cỗ bờm
-0.8911703	cỗ quan
-0.4308984	cộng hòa	-0.04392433
-1.736268	cộng một
-0.8798837	cộng sản	-0.1087438
-1.736268	cộng sống
-1.736268	cộng với
-1.132997	cộng đồng
-0.5901402	cột nhà
-0.5901402	cờ vua
-1.067261	cỡ </s>
-1.067261	cỡ của
-1.067261	cỡ từ
-1.067261	cụ dùng
-1.067261	cụ giữ
-1.067261	cụ thể
-1.1922	cục thú
-1.1922	cục thống
-1.1922	cục trưởng
-1.1922	cục đầu
-0.5901402	cụm rạp
-1.210853	của anh	0.07777816
-2.704084	của ban
-1.599017	của bạn	-0.1173135
-2.704084	của bể
-2.704084	của bộ
-2.704084	của cam
-1.847699	của chính	-0.1238315
-2.100812	của chúng
-2.100812	của chồng	-0.1753459
-2.704084	của chủ
-2.704084	của cuộc
-1.599017	của các
-1.847699	của công	-0.1303232
-2.704084	của cơ
-2.704084	của cỗ
-2.100812	của cộng
-2.704084	của dân
-2.704084	của dự
-2.100812	của em
-2.704084	của giải
-2.704084	của gần
-2.704084	của hiệp
-2.704084	của hãng
-2.100812	của hơn
-2.100812	của họ
-2.704084	của hội
-2.704084	của lãnh
-1.599017	của mình	-0.2515992
-2.704084	của mỗi
-2.704084	của một
-1.847699	của mỹ
-2.704084	của nghệ
-2.704084	của nghị
-2.704084	của nhà
-2.704084	của nhân
-2.704084	của nó
-2.704084	của năm
-2.704084	của nền
-2.704084	của pao
-2.704084	của phong
-2.704084	của phòng
-2.704084	của phóng
-1.847699	của quan	0.06229603
-2.704084	của quá
-2.704084	của quán
-2.704084	của quý
-2.704084	của sự
-2.704084	của tay
-2.704084	của thời
-2.100812	của thủ	0.1279313
-2.704084	của tiếng
-2.704084	của trung
-2.704084	của truyền
-2.704084	của trường
-2.704084	của trẻ
-1.398714	của tôi	-0.2612934
-2.704084	của tấn
-1.634508	của tổ	1.093991
-2.100812	của tổng	-0.152739
-2.704084	của uỷ
-2.704084	của viện
-1.072551	của việt	0.1111505
-2.704084	của vợ
-2.704084	của y
-2.704084	của yến
-2.100812	của ông
-2.704084	của đông
-2.704084	của đại
-1.847699	của đạo	-0.0694088
-2.704084	của đảng
-2.704084	của đội
-2.704084	của đức
-2.704084	của ấn
-2.704084	của ủy
-0.5901402	củng cố
-1.368291	cứ cơ
-0.7650201	cứ hành	0.02002595
-1.368291	cứ ra
-1.368291	cứ tiếp
-1.368291	cứ tự
-1.49323	cứu nhiều
-1.49323	cứu năm
-1.49323	cứu nạn
-1.49323	cứu phát
-1.49323	cứu từng
-1.49323	cứu việt
-1.49323	cứu về
-1.49323	cứu đã
-0.8911703	cử chỉ
-0.8911703	cử ủy
-1.368291	cửa </s>
-0.7650201	cửa hàng
-0.7650201	cửa khẩu
-1.368291	cửa lò
-0.8911703	cửu kiếm
-0.8911703	cửu long
-0.4327257	cực của	-0.1357438
-1.28911	cực trên
-1.28911	cực vào
-0.5901402	cựu chiến
-0.4639901	da cam
-1.067261	da ngón
-0.5901402	dai dẳng
-0.4639901	danh hiệu
-1.067261	danh sách
-0.5901402	dao dồi
-0.2878988	di động
-1.736268	diễn biến
-1.736268	diễn hàng
-1.736268	diễn ngô
-0.6666923	diễn ra
-1.736268	diễn trong
-1.132997	diễn viên
-1.736268	diễn võ
-1.736268	diễn văn
-1.736268	diễn đinh
-1.736268	diễn đàn
-1.1922	diện bà
-1.1922	diện giữa
-0.5889288	diện việt	0.9550852
-1.820589	do báo
-1.820589	do bão
-1.820589	do bóp
-1.820589	do băng
-1.820589	do bộ
-1.820589	do chịu
-1.820589	do chủ
-1.217318	do cúm	0.356495
-1.820589	do của
-1.820589	do liên
-1.820589	do nên
-1.820589	do tai
-1.820589	do thái
-1.820589	do thời
-1.820589	do trung
-1.820589	do tư
-1.704084	doanh </s>
-1.704084	doanh các
-1.704084	doanh du
-1.704084	doanh hầu
-0.3972788	doanh nghiệp	-0.03341102
-1.704084	doanh thu
-1.704084	doanh thế
-0.1840434	du lịch
-0.5889288	dung bài	-0.1533908
-1.1922	dung lượng
-1.1922	dung quất
-0.8911703	duy khương
-0.8911703	duy đức
-0.5901402	duyên </s>
-1.067261	duyệt đã
-0.4639901	duyệt đề	-0.1445341
-1.1922	dài </s>
-0.5889288	dài hơn
-1.1922	dài phải
-0.5901402	dàn xếp
-0.6858388	dành cho
-1.28911	dành mười
-1.28911	dành riêng
-1.28911	dành thì
-0.5901402	dào khả
-0.5901402	dám mơ
-0.5901402	dán </s>
-0.5901402	dáng gì
-1.225117	dân chủ	-0.2536216
-2.081502	dân các
-1.47823	dân cách	-0.1925187
-1.47823	dân hai	-0.1926345
-2.081502	dân khẳng
-2.081502	dân lập
-2.081502	dân ngoài
-1.225117	dân nhân	-0.272523
-2.081502	dân nước
-1.225117	dân thành	-0.07173386
-1.225117	dân trung	-0.1111975
-2.081502	dân tỉnh
-0.7761321	dân tộc	0.01665258
-2.081502	dân việt
-1.47823	dân ở
-0.5901402	dâng do
-0.5901402	dây an
-1.067261	dính dáng
-0.4639901	dính án	-0.2122679
-1.1922	dù biết
-1.1922	dù cán
-1.1922	dù lượng
-1.1922	dù thiếu
-1.544383	dùng dầu
-0.9411113	dùng hàng
-1.544383	dùng rau
-1.544383	dùng thử
-1.544383	dùng tủ
-1.544383	dùng điện
-0.9411113	dùng để
-0.5901402	dĩ có
-1.49323	dũng bày
-0.8899588	dũng cho
-1.49323	dũng cảm
-1.49323	dũng diễn
-1.49323	dũng hy
-1.49323	dũng khẳng
-1.49323	dũng đã
-0.2878988	dư luận
-1.28911	dương a
-1.28911	dương là
-1.28911	dương năm
-1.28911	dương truyền
-1.28911	dương văn
-0.8911703	dưới hình
-0.8911703	dưới đã
-0.2108769	dường như
-0.5901402	dại dột
-0.8911703	dạng </s>
-0.8911703	dạng hóa
-0.5901402	dạo này
-1.067261	dạy </s>
-1.067261	dạy nghề
-1.067261	dạy tiếng
-0.2878988	dấu một
-0.5901402	dầu thực
-1.067261	dẫn cước
-0.4639901	dẫn đầu
-0.5901402	dẳng cả
-0.2878988	dị ứng
-1.669322	dịch bệnh
-0.8129369	dịch chứng	-0.01986098
-0.8129369	dịch cúm	0.2981589
-1.669322	dịch ngày
-1.669322	dịch tai
-1.669322	dịch truyền
-1.669322	dịch vụ
-1.669322	dịch đạt
-0.6858388	dịp cuối
-1.28911	dịp năm
-0.6858388	dịp để
-1.067261	dọa chính
-1.067261	dọa một
-1.067261	dọa nguy
-0.5901402	dồi dào
-0.5901402	dồn để
-0.5901402	dột mới
-1.631533	dục du
-1.631533	dục giải
-1.631533	dục giữa
-1.631533	dục quá
-1.631533	dục thường
-1.631533	dục thể
-1.631533	dục và
-1.631533	dục đào
-1.028262	dục đại	-0.1679128
-1.631533	dục đều
-1.669322	dụng chạy
-1.669322	dụng các
-1.669322	dụng cầu
-1.669322	dụng tiếng
-1.669322	dụng tủ
-1.669322	dụng từ
-1.669322	dụng và
-1.669322	dụng điện
-1.669322	dụng được
-1.06605	dụng để
-1.669322	dụng độc
-1.011926	dự báo
-2.081502	dự hội
-0.5882717	dự kiến	-0.0006947666
-2.081502	dự lễ
-2.081502	dự thảo
-2.081502	dự toán
-2.081502	dự tính
-2.081502	dự xi
-0.3774183	dự án	-0.03574989
-0.2108769	dựa vào
-1.49323	dựng một
-1.49323	dựng nhà
-1.49323	dựng quan
-0.6368456	dựng và	-0.1388571
-1.49323	dựng vào
-1.49323	dựng vừa
-1.067261	e là
-0.4639901	e u
-0.8274961	em </s>
-1.932563	em biết
-1.329291	em có
-1.932563	em hơn
-1.932563	em không
-1.932563	em lại
-1.932563	em mãi
-1.932563	em sắp
-1.329291	em sẽ
-1.932563	em từ
-1.932563	em việt
-1.932563	em vào
-1.932563	em xin
-1.932563	em yêu
-1.932563	em đi
-1.932563	em đặt
-0.5901402	eo hẹp
-1.28911	ga miệng
-0.4327257	ga po
-1.28911	ga tại
-0.5901402	ghi điểm
-0.5901402	ghét anh
-0.5901402	ghê gớm
-1.067261	ghế của
-1.067261	ghế ngồi
-1.067261	ghế tầng
-1.951868	gia </s>
-1.951868	gia công
-0.6450632	gia cầm	0.004633248
-1.951868	gia khiêm
-1.951868	gia lai
-1.095484	gia nhập	-0.09922728
-1.951868	gia phòng
-1.951868	gia thị
-1.951868	gia tích
-1.951868	gia về
-1.951868	gia với
-1.095484	gia đình
-1.951868	gia đầu
-0.06292165	giai đoạn	-0.07762165
-1.736268	gian bay
-1.736268	gian diễn
-1.736268	gian dài
-1.736268	gian lận
-1.736268	gian nào
-0.8798837	gian qua	-0.0357187
-1.736268	gian quên
-1.736268	gian quý
-1.132997	gian tới
-1.736268	gian với
-1.736268	gian ở
-1.736268	giao </s>
-1.736268	giao ban
-0.6312014	giao dịch	-0.0791482
-1.736268	giao lần
-1.736268	giao thiệp
-1.736268	giao thông
-1.736268	giao tiếp
-1.736268	giao tranh
-1.736268	giao việt
-1.736268	giao đất
-0.5901402	gien </s>
-0.5901402	già </s>
-0.5901402	giành vé
-0.5901402	giày ở
-1.845413	giá </s>
-1.845413	giá bao
-1.242141	giá cao
-1.845413	giá chung
-1.845413	giá chừng
-1.845413	giá cả
-1.845413	giá em
-1.845413	giá hai
-1.845413	giá hàng
-1.845413	giá họ
-1.845413	giá không
-1.845413	giá một
-1.845413	giá thành
-0.9890282	giá trị
-1.845413	giá tốt
-0.8911703	giác ngẫm
-0.8911703	giác trị
-1.435238	giám khảo
-0.8319668	giám định
-0.3656623	giám đốc
-1.736268	giáo </s>
-0.4294634	giáo dục	-0.01253952
-1.736268	giáo hội
-1.736268	giáo thánh
-1.132997	giáo viên
-1.736268	giáo việt
-1.736268	giáo đường
-0.5901402	giãn tĩnh
-0.8911703	gió biển
-0.8911703	gió mạnh
-1.49323	giúp anh
-1.49323	giúp cấu
-1.49323	giúp cứu
-0.8899588	giúp tôi
-0.6368456	giúp đỡ
-0.5901402	giường đôi
-1.368291	giả bên
-1.368291	giả màn
-1.368291	giả mạo
-1.368291	giả thuyết
-1.368291	giả thành
-1.368291	giả ít
-1.868894	giải bóng
-1.868894	giải mã
-1.868894	giải phim
-1.265622	giải pháp
-1.868894	giải phóng
-1.012509	giải quyết
-1.868894	giải thích
-0.763827	giải thưởng
-1.868894	giải trí
-1.868894	giải được
-1.868894	giải đấu
-1.868894	giải đặc
-1.1922	giảm giá
-1.1922	giảm thiểu
-1.1922	giảm tỷ
-1.1922	giảm đi
-0.5901402	giản chút
-0.5901402	giảng dạy
-0.8911703	giấu nhau
-0.8911703	giấu trong
-1.1922	giấy chứng
-0.5889288	giấy tờ
-1.1922	giấy xác
-0.2878988	giật trên	-0.2229768
-0.5901402	giặt khô
-0.5901402	giết như
-0.2878988	giềng tốt	-0.2144079
-0.5901402	giỏi nấu
-0.8468012	giới </s>
-1.951868	giới cắm
-1.951868	giới lần
-1.951868	giới nhìn
-0.6464983	giới thiệu	0.01665258
-1.348597	giới tính
-1.951868	giới và
-0.8822922	giới vê	-0.08880842
-1.951868	giới đã
-1.951868	giới được
-1.034786	giờ </s>
-1.89117	giờ bạn
-1.89117	giờ bỏ
-1.89117	giờ chúng
-1.89117	giờ có
-1.89117	giờ cửa
-1.89117	giờ giật
-1.89117	giờ khuyên
-1.89117	giờ kinh
-1.89117	giờ rồi
-1.287899	giờ thì
-1.89117	giờ trà
-1.89117	giờ trở
-1.89117	giờ tôi
-1.89117	giờ đi
-1.287899	giờ để
-1.368291	giữ bốn
-1.368291	giữ lấy
-1.368291	giữ những
-1.368291	giữ năm
-0.7650201	giữ sức
-2.005114	giữa </s>
-2.005114	giữa chính
-2.005114	giữa các
-2.005114	giữa cộng
-2.005114	giữa doanh
-0.30103	giữa hai	-0.7703013
-2.005114	giữa nhật
-2.005114	giữa thành
-2.005114	giữa tỉnh
-0.9000467	giữa việt	0.7953104
-0.5901402	gom xử
-0.5901402	gà </s>
-1.1922	gái buông
-1.1922	gái dao
-1.1922	gái yêu
-1.1922	gái ở
-1.1922	gây nguy
-0.5889288	gây ra
-1.1922	gây đau
-0.8911703	gêm lần
-0.8911703	gêm sẽ
-0.7146991	gì </s>
-1.165119	gì cho
-1.418233	gì cả	-0.1531429
-2.021504	gì giúp
-2.021504	gì họ
-1.165119	gì không	-0.05717561
-2.021504	gì mới
-2.021504	gì nhé
-2.021504	gì nữa
-1.418233	gì phải
-2.021504	gì trong
-2.021504	gì tối
-1.418233	gì đáng
-2.021504	gì đến
-0.8911703	gò hàn
-0.8911703	gò vấp
-0.5901402	gòn giải
-0.5901402	góc nhìn
-1.435238	góp mặt
-1.435238	góp nhất
-0.8319668	góp phần
-1.435238	góp tới
-1.435238	góp vốn
-1.435238	góp đất
-0.8911703	gạo vụ
-0.8911703	gạo được
-1.1922	gấp ba
-1.1922	gấp gần
-0.5889288	gấp đôi
-1.16296	gần bốn
-1.766232	gần em
-1.16296	gần hai
-1.16296	gần mười
-1.766232	gần một
-1.766232	gần nhất
-1.16296	gần năm
-1.16296	gần tâm	-0.2020351
-1.16296	gần đây
-0.8911703	gắn bó
-0.8911703	gắn chặt
-1.067261	gắng nghĩ
-1.067261	gắng nói
-1.067261	gắng vượt
-0.5119069	gặp gỡ
-0.7650201	gặp nhau
-1.368291	gặp ở
-1.28911	gọi cuối
-1.28911	gọi gì
-1.28911	gọi hai
-0.6858388	gọi là
-0.5901402	gọng kính
-0.5901402	gốc nghĩa
-0.5901402	gỗ thiếc
-0.5901402	gớm </s>
-1.067261	gỡ những
-1.067261	gỡ và
-1.067261	gỡ đại
-1.1922	gửi </s>
-1.1922	gửi thư
-1.1922	gửi tin
-1.1922	gửi ít
-0.5901402	ha lô
-2.317283	hai </s>
-2.317283	hai ba
-1.330414	hai bên	-0.01601508
-2.317283	hai chiều
-2.920554	hai con
-2.920554	hai cư
-2.317283	hai dự	0.0008426309
-2.920554	hai huấn
-2.920554	hai lần
-2.920554	hai mét
-0.8390521	hai mươi	0.2016246
-0.3526902	hai nghìn	-1.411202
-2.920554	hai ngày
-2.317283	hai người
-1.815487	hai năm	0.1079427
-1.029384	hai nước	-0.1414464
-2.317283	hai phần
-2.920554	hai phẩy
-2.920554	hai thành
-1.850978	hai tháng
-1.850978	hai triệu	0.1903348
-2.064169	hai trong
-1.613749	hai trăm	0.2720915
-2.920554	hai trường
-2.920554	hai tình
-2.920554	hai tỉ
-2.920554	hai tới
-2.920554	hai từ
-1.850978	hai tỷ	-0.1203247
-2.920554	hai va
-2.920554	hai ông
-2.920554	hai đại
-2.920554	hai đảng
-2.317283	hai đến
-1.704084	hay bia
-1.704084	hay cách
-1.704084	hay khinh
-1.704084	hay khác
-1.704084	hay muộn
-1.704084	hay nghe
-1.704084	hay ngả
-1.704084	hay nhất
-1.704084	hay những
-1.704084	hay nào
-1.704084	hay quá
-1.704084	hay số
-1.704084	hay ảnh
-0.5901402	hi vọng
-0.5901402	hinh vào
-0.5901402	hiền nghèo
-0.5901402	hiểm từ
-0.5901402	hiển nhiên
-1.368291	hiểu </s>
-1.368291	hiểu mà
-1.368291	hiểu sai
-1.368291	hiểu thêm
-1.368291	hiểu ông
-1.368291	hiểu được
-2.005114	hiện </s>
-2.005114	hiện báo
-2.005114	hiện bất
-1.148729	hiện dự	0.094134
-2.005114	hiện giờ
-2.005114	hiện khi
-2.005114	hiện là
-2.005114	hiện mười
-2.005114	hiện một
-1.401842	hiện nay
-2.005114	hiện phần
-2.005114	hiện ra
-2.005114	hiện sinh
-2.005114	hiện sống
-1.401842	hiện tượng
-2.005114	hiện tốt
-1.401842	hiện đã	-0.184094
-2.005114	hiện được
-2.005114	hiện đạt
-1.401842	hiện ở
-1.669322	hiệp </s>
-0.8129369	hiệp hội
-1.669322	hiệp một
-1.06605	hiệp phụ	-0.00675559
-1.669322	hiệp đấu
-0.5997456	hiệp định	-0.08559757
-1.736268	hiệu bánh
-1.736268	hiệu cầu
-1.736268	hiệu lớn
-1.736268	hiệu lực
-0.4294634	hiệu quả	-0.022056
-1.736268	hiệu thắt
-1.736268	hiệu truyền
-1.736268	hiệu ứng
-1.28911	hoa </s>
-1.28911	hoa hồ
-1.28911	hoa kỳ
-1.28911	hoa lư
-1.28911	hoa thì
-1.067261	hoan do
-1.067261	hoan kim
-1.067261	hoan phim
-0.2878988	hoà thành	-0.0133978
-0.6879982	hoàn lại
-0.6879982	hoàn thành	-0.1329091
-0.9411113	hoàn toàn
-1.544383	hoàn tĩnh
-0.8911703	hoàng chung
-0.8911703	hoàng văn
-1.435238	hoạch những
-1.435238	hoạch phát
-0.3656623	hoạch và	-0.5346173
-1.435238	hoạch vô
-1.028262	hoạt hình
-1.631533	hoạt trong
-0.1383027	hoạt động
-1.544383	hoặc bảo
-1.544383	hoặc còn
-1.544383	hoặc của
-1.544383	hoặc hỏi
-1.544383	hoặc thùng
-1.544383	hoặc tôn
-1.544383	hoặc từ
-1.544383	hoặc ăn
-1.544383	hoặc đặt
-0.2878988	hun sen
-1.368291	huy chương
-1.368291	huy hiệu
-1.368291	huy quân
-1.368291	huy sinh
-1.368291	huy trận
-1.368291	huy đồn
-0.5901402	huynh luôn
-0.8911703	huyết </s>
-0.8911703	huyết sắc
-1.067261	huyện cái
-1.067261	huyện thanh
-1.067261	huyện đông
-0.8911703	huấn luyện
-0.8911703	huấn thứ
-0.5901402	huế để
-0.5901402	huống đối
-0.5901402	hy sinh
-1.631533	hà còn
-1.631533	hà nam
-0.1383027	hà nội	-0.0879268
-1.631533	hà thể
-0.2878988	hài lòng
-1.28911	hàn lâm
-0.4327257	hàn quốc
-1.28911	hàn thành
-1.265622	hàng </s>
-1.868894	hàng ghế
-1.265622	hàng hóa
-1.868894	hàng là
-1.868894	hàng mở
-1.868894	hàng nghìn
-1.868894	hàng ngày
-1.868894	hàng ngọc
-1.868894	hàng nhu
-1.868894	hàng phát
-1.868894	hàng thời
-1.265622	hàng trăm
-0.7993179	hàng đầu	-0.09381808
-1.845413	hành bầu
-1.845413	hành chính
-1.845413	hành lại
-1.845413	hành ngày
-1.845413	hành ngăn
-1.845413	hành qua
-1.845413	hành quy
-1.845413	hành trung
-1.845413	hành trưởng
-1.845413	hành vi
-0.3521825	hành động
-0.8911703	hào cho
-0.8911703	hào dân
-1.067261	hát cũng
-1.067261	hát hết
-1.067261	hát mà
-0.8911703	hãng cố
-0.8911703	hãng phim
-1.435238	hãy cho
-1.435238	hãy chụp
-1.435238	hãy nói
-1.435238	hãy tỉa
-1.435238	hãy đưa
-1.435238	hãy để
-1.435238	hãy đọc
-0.8911703	hè khi
-0.8911703	hè thu
-1.631533	hình chính
-1.631533	hình gì
-1.631533	hình kể
-1.631533	hình như
-1.631533	hình này
-1.631533	hình nổi
-1.631533	hình ra
-1.631533	hình thành
-1.028262	hình thức
-1.631533	hình thực
-1.544383	hòa </s>
-0.9411113	hòa bình
-0.6879982	hòa dân	-0.2669183
-0.9411113	hòa nhân	-0.04212196
-1.544383	hòa nhộn
-0.5901402	hòm còn
-1.544383	hóa các
-1.544383	hóa giáo
-1.544383	hóa luật
-1.544383	hóa nghệ
-1.544383	hóa quan
-1.544383	hóa thông
-1.544383	hóa trong
-1.544383	hóa từ
-1.544383	hóa việt
-0.5901402	hô hấp
-0.5901402	hôi nhiều
-0.2878988	hôm qua
-0.3358157	hôn nhân	-0.2555164
-1.1922	hôn rồi
-0.8911703	hùng của
-0.8911703	hùng yêu
-0.5901402	hút hơn
-1.1922	hơi hay
-1.1922	hơi khác
-1.1922	hơi thích
-1.1922	hơi vắng
-1.47823	hơn </s>
-2.081502	hơn ba
-2.081502	hơn bốn
-2.081502	hơn bợp
-2.081502	hơn cho
-2.081502	hơn cả
-2.081502	hơn dự
-1.225117	hơn hai
-2.081502	hơn hết
-2.081502	hơn lợi
-2.081502	hơn mà
-2.081502	hơn mười
-2.081502	hơn mồm
-1.47823	hơn một	-0.1928427
-2.081502	hơn năm
-1.225117	hơn nữa	-0.102953
-1.225117	hơn sáu
-2.081502	hơn trong
-2.081502	hơn tám
-2.081502	hơn tôi
-2.081502	hơn và
-2.081502	hơn đặc
-2.081502	hơn ưa
-0.5901402	hương đã
-0.8911703	hướng năm
-0.8911703	hướng tới
-1.368291	hưởng chưa
-1.368291	hưởng chất
-1.368291	hưởng của
-1.368291	hưởng tới
-1.368291	hưởng đến
-1.368291	hưởng ứng
-0.5901402	hạ đường
-0.5901402	hạch toán
-1.28911	hại cho
-1.28911	hại do
-1.28911	hại gì
-1.28911	hại mình
-1.28911	hại nhiều
-0.8911703	hạn chế
-0.8911703	hạn của
-0.8911703	hạng </s>
-0.8911703	hạng từ
-0.5901402	hạnh phúc
-1.28911	hạt cơ
-0.2195343	hạt nhân	-0.0638196
-0.8911703	hải quan
-0.8911703	hải từng
-0.5901402	hấp của
-0.8911703	hầu hết
-0.8911703	hầu như
-0.5901402	hận không
-1.067261	hậu chiến
-1.067261	hậu quả
-1.067261	hậu tình
-0.5901402	hằng ngày
-0.8911703	hẳn lên
-0.8911703	hẳn vậy
-0.5901402	hẹn ông
-0.5901402	hẹp muốn
-0.9868688	hết bao
-0.9868688	hết là
-1.59014	hết lúa
-1.59014	hết mình
-0.9868688	hết sức
-1.59014	hết thế
-1.59014	hết xe
-0.5901402	hề giấu
-1.530937	hệ giữa
-2.134208	hệ hai
-0.5026754	hệ hợp	-0.6677387
-0.5898255	hệ hữu	0.1760913
-1.277824	hệ kinh	0.2448083
-2.134208	hệ mật
-2.134208	hệ một
-2.134208	hệ ngoại
-2.134208	hệ năm
-1.530937	hệ thống
-2.134208	hệ việt
-1.530937	hệ đối	-0.01391286
-1.766232	họ cho
-1.766232	họ có
-1.766232	họ cả
-1.766232	họ không
-1.766232	họ kề
-1.766232	họ muốn
-1.766232	họ mới
-1.766232	họ phạt
-1.766232	họ sống
-1.766232	họ theo
-0.9098469	họ đã
-1.766232	họ đạt
-1.766232	họ đừng
-0.5901402	họa khác
-1.148729	học </s>
-2.005114	học cho
-2.005114	học chuyên
-2.005114	học công
-2.005114	học cũ
-2.005114	học cơ
-2.005114	học giáo
-2.005114	học nga
-2.005114	học nào
-2.005114	học này
-2.005114	học quý
-1.148729	học sinh
-2.005114	học trường
-2.005114	học tập
-2.005114	học viễn
-1.148729	học việt	0.8967491
-1.401842	học và	-0.2261179
-2.005114	học để
-2.005114	học ở
-1.1922	họp giao
-1.1922	họp kéo
-1.1922	họp lần
-1.1922	họp mạng
-1.49323	hỏi chi
-1.49323	hỏi của
-1.49323	hỏi hoặc
-1.49323	hỏi mình
-1.49323	hỏi người
-1.49323	hỏi những
-1.49323	hỏi vì
-1.49323	hỏi ý
-0.8911703	hỏng chỗ
-0.8911703	hỏng không
-0.5901402	hối hận
-0.1760913	hồ chí	-0.2632414
-1.16296	hồ cẩm	0.07932408
-1.766232	hồ của
-1.766232	hồ dán
-1.766232	hồ sơ
-1.368291	hồi cho
-1.368291	hồi của
-1.368291	hồi giáo
-1.368291	hồi năm
-1.368291	hồi tháng
-1.368291	hồi tưởng
-0.5901402	hồn ma
-1.067261	hồng </s>
-1.067261	hồng ba
-1.067261	hồng cầu
-0.2108769	hỗ trợ
-0.5901402	hỗn hợp
-0.7650201	hộ </s>
-0.7650201	hộ chiếu
-1.368291	hộ nghèo
-1.368291	hộ nuôi
-1.118542	hội </s>
-2.223609	hội chợ
-1.620337	hội của
-2.223609	hội gặp
-2.223609	hội hóa
-1.367224	hội liên	-0.1177328
-2.223609	hội lớn
-2.223609	hội mười
-2.223609	hội nghe
-1.367224	hội nghị
-2.223609	hội nguyễn
-2.223609	hội nhà
-2.223609	hội nhân
-1.620337	hội nhập
-2.223609	hội này
-2.223609	hội phát
-2.223609	hội phật
-2.223609	hội quốc
-2.223609	hội sinh
-1.367224	hội thảo
-2.223609	hội trường
-1.620337	hội viên
-2.223609	hội và
-2.223609	hội vùng
-2.223609	hội điện
-2.223609	hội đàm
-1.154033	hội đồng	-0.1767746
-0.5901402	hộp đêm
-0.5901402	hỡi có
-0.5901402	hợi hai
-2.280336	hợp </s>
-2.280336	hợp bị
-2.280336	hợp giả
-2.280336	hợp hoạt
-2.280336	hợp hành
-2.280336	hợp hơn
-2.280336	hợp mong
-1.423952	hợp quốc	-0.08977316
-2.280336	hợp số
-2.280336	hợp thêm
-2.280336	hợp thông
-2.280336	hợp thời
-0.2130748	hợp tác	-0.03014261
-2.280336	hợp vào
-1.423952	hợp đồng
-2.280336	hợp động
-0.5901402	hụt thương
-0.8911703	hủy cái
-0.8911703	hủy trong
-0.8911703	hứng làm
-0.8911703	hứng và
-0.02996322	hữu nghị	-0.07188544
-0.8911703	in xong
-0.8911703	in đô
-0.4639901	khai mạc
-1.067261	khai từ
-2.09529	khi bình
-1.492019	khi bạn
-1.492019	khi các
-2.09529	khi có
-2.09529	khi giai
-2.09529	khi hai
-2.09529	khi kim
-2.09529	khi lao
-2.09529	khi mới
-2.09529	khi nhân
-2.09529	khi nào
-2.09529	khi nói
-2.09529	khi nối
-2.09529	khi nộp
-2.09529	khi phát
-2.09529	khi quét
-2.09529	khi ra
-2.09529	khi thay
-2.09529	khi thành
-2.09529	khi thực
-2.09529	khi trung
-2.09529	khi tình
-2.09529	khi việt
-2.09529	khi vấn
-2.09529	khi xem
-2.09529	khi đã
-1.492019	khi đó
-1.492019	khi được
-0.5901402	khinh miệt
-0.5901402	khiêm bày
-1.067261	khiến hai
-1.067261	khiến người
-1.067261	khiến tôi
-0.04575749	khoa học	-0.02479675
-0.4327257	khoán thành	-0.07173386
-0.6858388	khoán việt	0.9550852
-0.6879982	khoảng bốn	-0.1474546
-0.6879982	khoảng mười	-0.06532113
-1.544383	khoảng một
-1.544383	khoảng thời
-1.544383	khoảng tám
-0.5901402	khoẻ </s>
-1.736268	khu bốn
-1.736268	khu công
-1.132997	khu kinh	0.3031444
-1.736268	khu tham
-1.736268	khu tự
-0.243038	khu vực	-0.05200991
-0.5901402	khuyên được
-0.2878988	khuyến khích
-0.2108769	khuôn khổ
-0.5901402	khuất mắt
-1.704084	khác biệt
-1.704084	khác chúng
-1.704084	khác hoặc
-1.704084	khác là
-1.704084	khác một
-1.704084	khác nhau
-1.704084	khác như
-1.704084	khác sao
-1.704084	khác trường
-1.704084	khác từ
-1.704084	khác về
-1.704084	khác với
-1.704084	khác đối
-1.544383	khách có
-1.544383	khách du
-1.544383	khách hiện
-1.544383	khách hàng
-1.544383	khách là
-1.544383	khách quan
-0.9411113	khách sạn
-1.544383	khách vừa
-0.2108769	khán giả
-1.067261	khánh </s>
-1.067261	khánh của
-1.067261	khánh việt
-0.5901402	khâu nội
-0.5901402	khép lại
-1.1922	khí ga
-1.1922	khí hậu
-1.1922	khí sinh
-1.1922	khí độc
-1.067261	khích cụ
-1.067261	khích lệ
-1.067261	khích những
-0.4639901	khó khăn
-1.067261	khó ăn
-1.1922	khóa của
-0.5889288	khóa hai	0.01962025
-1.1922	khóa trước
-0.5901402	khói nhiệt
-0.5901402	khô </s>
-0.8911703	khôn </s>
-0.8911703	khôn ngoan
-0.7511935	không </s>
-2.041252	không ai	-0.08205451
-2.294365	không bao	-0.09607275
-2.897636	không biết
-2.897636	không bán
-2.294365	không cho
-2.897636	không chụp
-2.897636	không coi
-1.590831	không có	-0.2107601
-2.294365	không cần	-0.1738358
-2.897636	không dám
-2.897636	không dùng
-2.897636	không dựa
-2.897636	không giỏi
-2.897636	không hi
-2.897636	không hiệu
-2.041252	không hoàn	-0.1938858
-2.897636	không hẳn
-2.294365	không không
-2.897636	không làm
-2.897636	không lúc
-2.897636	không muốn
-2.897636	không mình
-2.897636	không nghe
-2.897636	không nghĩ
-2.041252	không ngừng	-0.0247575
-2.897636	không nhìn
-2.897636	không niêm
-2.897636	không nên
-2.897636	không phù
-1.792569	không phải
-2.897636	không quản
-2.897636	không rồi
-2.897636	không rộng
-2.294365	không sao
-2.897636	không sáng
-2.897636	không thành
-2.041252	không thường	-0.137685
-2.897636	không thấy
-2.294365	không thể
-0.3343682	không trăm	-1.175098
-2.897636	không trả
-2.897636	không vấp
-2.897636	không vừa
-2.897636	không ích
-2.897636	không ăn
-2.294365	không được
-2.897636	không đồng
-2.897636	không ạ
-2.897636	không ổn
-0.5901402	khúc thu
-1.067261	khăn hơn
-1.067261	khăn tắm
-1.067261	khăn ấy
-0.5901402	khương phó
-0.4639901	khả năng
-1.067261	khả phiêu
-0.8911703	khảo chính
-0.8911703	khảo tại
-0.8911703	khấu luôn
-0.8911703	khấu mà
-0.5901402	khẩn cấp
-1.028262	khẩu </s>
-0.7751483	khẩu của	-0.2551862
-1.631533	khẩu hàng
-1.631533	khẩu lớn
-1.631533	khẩu nhưng
-1.631533	khẩu thuỷ
-1.631533	khẩu tăng
-1.631533	khẩu từ
-0.04139268	khẳng định	-0.04629525
-1.28911	khỏe </s>
-1.28911	khỏe hơn
-1.28911	khỏe lại
-1.28911	khỏe mạnh
-1.28911	khỏe nhé
-0.5901402	khốc liệt
-0.5901402	khối lượng
-0.5901402	khốn khổ
-1.368291	khổ </s>
-1.368291	khổ hiệp
-1.368291	khổ hội
-1.368291	khổ hợp
-1.368291	khổ sở
-1.368291	khổ thế
-0.5901402	khởi công
-0.2108769	khủng bố	-0.1796463
-0.5901402	khứ hồi
-0.5901402	ki lô
-0.4327257	kia </s>
-1.28911	kia chỉ
-1.28911	kia ấy
-1.736268	kim chỉ
-1.736268	kim khâu
-1.736268	kim mã
-0.1918855	kim ngạch	0.0384111
-1.736268	kim viên
-1.736268	kim vô
-1.566652	kinh </s>
-1.064857	kinh doanh
-2.169924	kinh nghiệm
-1.566652	kinh phí
-0.1484198	kinh tế	-0.1485023
-2.169924	kinh vào
-1.1922	kiếm của
-1.1922	kiếm cứu
-1.1922	kiếm một
-1.1922	kiếm đối
-1.59014	kiến có
-1.59014	kiến của
-1.59014	kiến dự
-1.59014	kiến mới
-1.59014	kiến phát
-0.7337556	kiến sẽ
-0.9868688	kiến trong
-0.2878988	kiềm chế	-0.1660721
-0.8911703	kiều </s>
-0.8911703	kiều từ
-1.368291	kiểm chứng
-0.7650201	kiểm soát
-1.368291	kiểm sát
-0.7650201	kiểm tra	-0.05243775
-0.8911703	kiểu bấm
-0.8911703	kiểu này
-0.5901402	kiệm chi
-1.067261	kiện cho
-1.067261	kiện trở
-1.067261	kiện đãi
-0.5901402	kiệt sức
-0.8911703	kèm mấu
-0.8911703	kèm theo
-0.5901402	kén chọn
-0.5901402	kéo dài
-0.1840434	kép tê	-0.05257845
-0.5901402	kê thành
-0.5901402	kí ức
-0.5901402	kích cỡ
-1.067261	kính khác
-1.067261	kính thời
-1.067261	kính đọc
-1.766232	ký </s>
-1.766232	ký gần
-1.766232	ký hiệp
-1.766232	ký hợp
-1.766232	ký khoảng
-1.16296	ký kết
-1.16296	ký là
-1.766232	ký nghiệm
-1.766232	ký quyết
-1.766232	ký thỏa
-1.16296	ký trên
-1.766232	ký đạt
-0.8911703	kẹt lại
-0.8911703	kẹt ở
-0.5901402	kẻ thừa
-0.3881634	kế hoạch	-0.1265865
-1.49323	kế sản
-0.8899588	kế toán
-1.669322	kết chương
-1.06605	kết hợp
-1.669322	kết luận
-1.06605	kết quả
-1.669322	kết quốc
-1.06605	kết thúc
-1.669322	kết tin
-1.669322	kết với
-1.669322	kết đặc
-0.5901402	kề vai
-1.49323	kể khi
-1.49323	kể ngăn
-0.3881634	kể từ	-0.3283159
-1.49323	kể về
-1.067261	kịch </s>
-1.067261	kịch sẽ
-1.067261	kịch thuộc
-1.28911	kỳ hai
-1.28911	kỳ họp
-0.6858388	kỳ năm
-1.28911	kỳ đặc
-1.28911	kỷ </s>
-0.2195343	kỷ niệm
-0.5889288	kỹ sư
-1.1922	kỹ thuật
-1.1922	kỹ vừa
-1.067261	la này
-1.067261	la năm
-1.067261	la rút
-1.368291	lai </s>
-0.7650201	lai của
-1.368291	lai mới
-1.368291	lai đẹp
-1.368291	lai ở
-0.6858388	lan </s>
-1.28911	lan của
-1.28911	lan này
-1.28911	lan đang
-0.2108769	lao động
-0.5901402	len tin
-0.5889288	li a
-1.1922	li lớn
-1.1922	li ti
-0.5901402	lim pích
-0.5336026	linh bảy	-0.1772831
-1.434378	linh chín	-0.07104723
-1.64757	linh hai	-0.1357909
-1.198584	linh một	-0.1121676
-0.7998705	linh năm	-0.09417433
-0.7096938	linh sáu	-0.3346544
-2.503954	linh thiệt
-0.7377226	linh tám	-0.2667232
-0.5901402	liêm tỉnh
-1.265622	liên hiệp	-0.1962443
-1.012509	liên hoan
-1.012509	liên hợp	-0.2769046
-0.763827	liên quan	-0.07185272
-1.265622	liên tục
-0.7993179	liên đoàn	-0.07096935
-0.5901402	liêng của
-0.5901402	liềm đỏ
-0.8911703	liều lĩnh
-0.8911703	liều mạng
-0.5901402	liệt của
-1.1922	liệu chưa
-0.5889288	liệu của
-1.1922	liệu nhạy
-1.435238	lo làm
-0.5788537	lo lắng	0.04085362
-1.435238	lo việc
-1.435238	lo về
-1.435238	lo đồng
-0.5901402	loan </s>
-0.5901402	long </s>
-0.5901402	loè loẹt
-1.28911	loại dài
-1.28911	loại hình
-1.28911	loại nhạc
-1.28911	loại rượu
-1.28911	loại thịt
-0.5901402	loạn lạc
-0.5901402	loẹt như
-0.5901402	luyến ái
-0.5901402	luyện viên
-1.59014	luôn bị
-0.9868688	luôn coi	0.2192521
-1.59014	luôn diễn
-1.59014	luôn gắn
-1.59014	luôn là
-1.59014	luôn lấy
-1.59014	luôn mong
-1.59014	luôn thắng
-1.59014	luôn đứng
-1.28911	luận báo
-1.28911	luận giám
-1.28911	luận tại
-1.28911	luận tốt
-1.28911	luận đồng
-1.28911	luật lệ
-1.28911	luật nào
-1.28911	luật sư
-1.28911	luật với
-1.28911	luật đã
-1.067261	ly </s>
-1.067261	ly a
-1.067261	ly hôn
-2.012175	là anh
-2.615446	là bao
-2.615446	là biểu
-2.615446	là bạn
-2.615446	là bản
-2.615446	là bến
-2.012175	là bệnh
-2.615446	là bộ
-2.615446	là chung
-2.615446	là chìa
-2.615446	là chúng
-2.615446	là chỗ
-2.615446	là chủ
-2.615446	là con
-2.615446	là cuộc
-2.615446	là cái
-2.615446	là cô
-2.615446	là cầu
-2.615446	là danh
-2.012175	là dịp	-0.1349908
-2.615446	là em
-2.615446	là giá
-2.615446	là giáo
-2.615446	là giải
-2.012175	là hai
-2.615446	là huyết
-2.615446	là hành
-2.615446	là hơn
-2.615446	là hậu
-2.012175	là hội	-0.2247099
-2.615446	là khi
-2.615446	là không
-2.615446	là khủng
-2.615446	là kim
-2.615446	là luôn
-2.615446	là lì
-2.012175	là lúc
-2.615446	là lần
-2.615446	là lỗi
-2.615446	là mang
-2.615446	là may
-2.615446	là muộn
-2.615446	là mô
-1.54587	là mười	-0.08218321
-1.308641	là một	-0.1641779
-2.615446	là mục
-2.615446	là nguồn
-2.615446	là ngôi
-1.54587	là người
-2.615446	là nhân
-1.54587	là những
-2.615446	là nội
-2.615446	là phim
-2.615446	là phổ
-2.615446	là sáu
-2.615446	là sự
-2.615446	là thành
-2.615446	là thúc
-2.615446	là toàn
-2.615446	là trong
-2.615446	là trái
-2.012175	là trên	-0.2229768
-2.615446	là tăng
-2.012175	là từ
-2.012175	là việc
-2.615446	là viện
-2.615446	là vui
-2.615446	là vì
-2.615446	là vô
-2.615446	là vấn
-2.012175	là về	-0.2189084
-2.615446	là xe
-2.615446	là điều
-2.615446	là điểm
-2.615446	là được
-2.615446	là đến
-2.615446	là đồ
-2.615446	là đội
-2.615446	là động
-2.615446	là ảnh
-2.615446	là ở
-2.158342	làm </s>
-2.158342	làm bằng
-2.158342	làm chưa
-2.158342	làm các
-2.158342	làm cái
-2.158342	làm công
-2.158342	làm của
-1.301957	làm gì
-2.158342	làm hại
-2.158342	làm khôn
-1.555071	làm kế	-0.1753459
-2.158342	làm luật
-2.158342	làm lúc
-2.158342	làm mới
-2.158342	làm người
-2.158342	làm nó
-2.158342	làm phụ
-1.555071	làm sao
-2.158342	làm sạch
-2.158342	làm tiếc
-2.158342	làm trong
-1.053275	làm việc
-2.158342	làm ăn
-2.158342	làm đi
-1.555071	làm được
-1.555071	làm ơn
-2.158342	làm ủy
-0.5901402	lành </s>
-0.3656623	lào </s>
-1.435238	lào do
-1.435238	lào mười
-1.435238	lào vừa
-0.5901402	lác sữa
-0.2878988	láng giềng	0.07932408
-0.8911703	lâm khoa
-0.8911703	lâm văn
-1.067261	lâu </s>
-1.067261	lâu lắm
-1.067261	lâu ấy
-0.5901402	lây lan
-0.8911703	lãm chất
-0.8911703	lãm giáo
-0.2878988	lãng phí
-0.1840434	lãnh đạo
-0.5901402	lão phường
-1.368291	lê duy
-1.368291	lê khả
-1.368291	lê minh
-1.368291	lê thánh
-0.7650201	lê thị
-1.06605	lên </s>
-1.669322	lên một
-1.669322	lên mức
-1.669322	lên nông
-1.669322	lên năm
-1.669322	lên sáu
-1.669322	lên tiếng
-1.669322	lên toàn
-1.669322	lên tới
-1.06605	lên đến
-0.5901402	lì lợm
-0.8911703	lính </s>
-0.8911703	lính thời
-0.5901402	líp pin
-0.5901402	lò phản
-0.5901402	lòi ra
-1.1922	lòng trước
-1.1922	lòng tôi
-1.1922	lòng tự
-1.1922	lòng về
-1.067261	lô mét
-1.067261	lô uyn
-1.067261	lô đèn
-0.5901402	lùi tham
-0.5901402	lúa gạo
-1.59014	lúc bị
-1.59014	lúc các
-1.59014	lúc mấy
-1.59014	lúc mọi
-0.7337556	lúc nào	-0.07791954
-1.59014	lúc này
-1.59014	lúc trong
-1.59014	lúc đi
-1.736268	lý </s>
-1.736268	lý bằng
-1.132997	lý do
