
\data\
ngram 1=636
ngram 2=1579
ngram 3=73

\1-grams:
-0.8771244	</s>
-99	<s>	-0.1612637
-2.847161	ai	-0.003295004
-3.324282	an	-0.07972299
-1.690814	anh	-0.351313
-3.324282	ban	-0.08013503
-2.324282	bao	-0.2482838
-3.324282	bay	-0.07703513
-2.847161	bia	-0.01755922
-2.479184	biết	-0.1420944
-3.324282	biển	-0.08013503
-3.023252	buồn	-0.0791042
-3.023252	buổi	-0.07848452
-3.324282	bà	-0.07951682
-3.324282	bàn	-0.07765688
-3.324282	bày	-0.01850954
-3.023252	bánh	-0.07931057
-3.324282	báo	-0.0684474
-3.324282	báu	-0.07827774
-3.023252	bây	-0.2855454
-3.324282	bão	-0.01850954
-3.324282	bên	-0.07972299
-3.324282	bóng	-0.01850954
-3.324282	bưu	-0.08013503
-3.324282	bạ	-0.01850954
-3.324282	bạc	-0.01850954
-1.861884	bạn	-0.064794
-3.324282	bạo	-0.07848451
-3.324282	bản	-0.07992906
-3.324282	bảo	-0.08013503
-3.324282	bảy	-0.01850954
-3.324282	bất	-0.07992906
-3.324282	bận	-0.07765688
-3.324282	bật	-0.08013503
-3.324282	bậy	-0.07992906
-3.324282	bắt	-0.07992906
-2.847161	bằng	-0.07931055
-3.023252	bến	-0.06440941
-2.546131	bị	-0.07724247
-3.324282	bịt	-0.08013503
-3.023252	bỏ	-0.07951684
-3.023252	bố	-0.01803466
-3.324282	bộ	-0.07992906
-3.324282	cao	-0.07992906
-3.324282	chai	-0.01850954
-2.722223	chiếc	-0.07931056
-3.324282	chiếu	-0.07662013
-3.023252	chiều	-0.07992908
-1.962555	cho	-0.4648823
-3.324282	chuyên	-0.08013503
-3.324282	chuyến	-0.08013503
-3.324282	chuyển	-0.07951682
-2.421192	chuyện	-0.05435392
-3.324282	chuẩn	-0.07910419
-3.324282	chuốc	-0.07951682
-3.324282	chìa	-0.08013503
-3.324282	chín	-0.08013503
-3.324282	chính	-0.07827774
-3.324282	chúc	-0.07641248
-2.210339	chúng	-0.7119399
-3.324282	chút	-0.01850954
-2.722223	chưa	-0.2713768
-3.023252	chương	-0.2882333
-3.324282	chạy	-0.07992906
-3.324282	chấn	-0.01850954
-3.324282	chậm	-0.07889772
-3.324282	chật	-0.01850954
-3.324282	chắc	-0.08013503
-3.324282	chắn	-0.07641248
-3.324282	chắp	-0.0755809
-3.023252	chẳng	-0.07744975
-3.023252	chết	-0.2861672
-2.722223	chỉ	-0.07328581
-2.023252	chị	-0.4184042
-3.324282	chọn	-0.07972299
-3.023252	chồng	-0.0705577
-2.847161	chỗ	-0.07265776
-2.847161	chờ	-0.06419583
-3.023252	chụp	-0.07786395
-3.324282	chữ	-0.08013503
-3.324282	coi	-0.07992906
-2.546131	con	-0.0682358
-2.847161	cuối	-0.01755922
-2.847161	cuộc	-0.07391294
-3.324282	cà	-0.08013503
-3.023252	càng	-0.0791042
-3.324282	cá	-0.07972299
-2.847161	các	-0.07223855
-3.023252	cách	-0.07662015
-2.625313	cái	-0.07097851
-3.324282	cánh	-0.01850954
-3.324282	câu	-0.07724248
-3.324282	cãi	-0.07972299
-1.68083	có	-0.1472541
-2.546131	cô	-0.2313771
-2.625313	công	-0.3256306
-3.324282	căn	-0.07992906
-3.324282	cũ	-0.07662013
-3.324282	cơ	-0.07951682
-3.324282	cơn	-0.08013503
-3.324282	cưng	-0.07992906
-3.324282	cưới	-0.07724248
-2.625313	cả	-0.08440343
-2.479184	cảm	-0.2735029
-3.023252	cảnh	-0.079723
-3.023252	cấp	-0.004767202
-3.023252	cần	-0.07786395
-2.421192	cậu	-0.1734585
-3.324282	cặp	-0.07992906
-2.847161	cố	-0.1953964
-3.324282	cốc	-0.07972299
-3.324282	cổng	-0.01850954
-3.324282	cỡ	-0.01850954
-2.06901	của	-0.265276
-3.023252	cứ	-0.07931057
-2.847161	cửa	-0.1449316
-3.324282	dai	-0.08013503
-3.324282	do	-0.08013503
-3.023252	doanh	-0.01732133
-3.324282	duyên	-0.01850954
-3.324282	dài	-0.07827774
-3.023252	dành	-0.07931057
-3.324282	dây	-0.08013503
-3.324282	dùng	-0.07992906
-3.324282	dưới	-0.07992906
-3.324282	dường	-0.07869116
-3.324282	dạo	-0.07724248
-3.324282	dẳng	-0.07931055
-3.324282	dị	-0.08013503
-2.847161	dục	-0.07848451
-3.324282	dụng	-0.07992906
-2.324282	em	-0.08186964
-3.324282	ghét	-0.07139893
-3.324282	ghê	-0.08013503
-2.847161	ghế	-0.07578894
-2.847161	gian	-0.07744973
-3.324282	giao	-0.08013503
-3.324282	gien	-0.01850954
-3.324282	giày	-0.07744973
-2.847161	giá	-0.06568862
-3.324282	giác	-0.08013503
-3.324282	giám	-0.08013503
-3.324282	giáo	-0.07972299
-3.324282	gió	-0.08013503
-2.847161	giúp	-0.1827201
-3.324282	giường	-0.07992906
-3.324282	giả	-0.08013503
-3.324282	giải	-0.08013503
-3.324282	giấy	-0.07972299
-3.324282	giặt	-0.08013503
-3.324282	giết	-0.07869116
-3.324282	giỏi	-0.08013503
-3.023252	giới	-0.2884394
-2.120162	giờ	-0.008005597
-3.023252	giữ	-0.07869118
-3.324282	giữa	-0.01850954
-3.324282	gái	-0.07972299
-2.210339	gì	-0.1020174
-3.324282	gần	-0.08013503
-3.023252	gắng	-0.07662015
-3.324282	gặp	-0.08013503
-2.847161	gọi	-0.07641248
-3.324282	gớm	-0.01850954
-3.324282	gỡ	-0.07827774
-2.847161	gửi	-0.017797
-2.847161	hai	-0.01803464
-2.546131	hay	-0.07744972
-2.722223	hiểu	-0.07433054
-3.324282	hiện	-0.07703513
-3.324282	hiệp	-0.07951682
-3.324282	hiệu	-0.08013503
-3.324282	hoàn	-0.07972299
-3.324282	huy	-0.08013503
-2.722223	hàng	-0.1094192
-2.847161	hành	-0.2068891
-2.722223	hãy	-0.07181895
-3.324282	hè	-0.07972299
-3.023252	hình	-0.07703514
-3.324282	hôi	-0.07889772
-3.023252	hôm	-0.2880271
-2.847161	hôn	-0.2044075
-2.847161	hơi	-0.07807089
-2.722223	hơn	-0.09194802
-3.023252	hại	-0.07516453
-3.324282	hạnh	-0.08013503
-3.324282	hải	-0.07992906
-3.324282	hận	-0.0684474
-3.324282	hẳn	-0.07931055
-2.847161	hết	-0.2054432
-2.722223	họ	-0.3303243
-2.722223	học	-0.01708329
-3.324282	hỏi	-0.07662013
-3.023252	hỏng	-0.06781233
-3.324282	hối	-0.08013503
-3.324282	hồ	-0.07662013
-3.023252	hồi	-0.07620475
-3.023252	hộ	-0.01827217
-2.722223	hội	-0.07951683
-3.324282	hỡi	-0.07118877
-3.324282	hủy	-0.07931055
-3.324282	hứng	-0.07744973
-3.324282	in	-0.08013503
-2.847161	khi	-0.07097851
-3.324282	khiến	-0.06462286
-3.324282	khoa	-0.07951682
-3.324282	khoảng	-0.07889772
-3.324282	khuyên	-0.07641248
-2.847161	khác	-0.07620474
-2.722223	khách	-0.06675177
-3.324282	khánh	-0.07662013
-3.324282	khóa	-0.07662013
-3.324282	khô	-0.01850954
-1.568408	không	-0.2511461
-3.324282	khăn	-0.08013503
-3.324282	khả	-0.08013503
-3.324282	khẩn	-0.07992906
-2.722223	khỏe	-0.01541339
-3.324282	khốn	-0.08013503
-3.324282	khổ	-0.01850954
-3.324282	khủng	-0.07992906
-3.324282	kia	-0.01850954
-2.847161	kinh	-0.145407
-3.324282	kiến	-0.07662013
-3.324282	kiệt	-0.07951682
-3.324282	kí	-0.08013503
-3.324282	kính	-0.07972299
-3.324282	ký	-0.01850954
-3.324282	kẻ	-0.08013503
-3.324282	kể	-0.07972299
-3.324282	kịch	-0.08013503
-3.324282	kỷ	-0.01850954
-3.324282	la	-0.07724248
-3.023252	lai	-0.2851304
-3.324282	li	-0.07992906
-3.324282	linh	-0.08013503
-2.722223	lo	-0.1676489
-3.023252	loại	-0.079723
-3.324282	luôn	-0.08013503
-3.324282	ly	-0.07972299
-2.045529	là	-0.04206559
-2.178154	làm	-0.1909787
-3.324282	lành	-0.01850954
-3.324282	lâu	-0.01850954
-3.324282	lãng	-0.08013503
-3.324282	lên	-0.01850954
-3.324282	lì	-0.08013503
-3.324282	lúc	-0.07972299
-3.324282	lý	-0.01850954
-3.324282	lượt	-0.07972299
-2.479184	lại	-0.06406945
-2.722223	lấy	-0.07516452
-3.023252	lầm	-0.01827217
-3.023252	lần	-0.2876145
-3.324282	lẫn	-0.08013503
-3.023252	lắm	-0.01660684
-3.023252	lắng	-0.2869948
-3.324282	lẻ	-0.01850954
-3.324282	lịch	-0.07744973
-3.324282	lối	-0.07992906
-3.324282	lồi	-0.01850954
-2.625313	lỗi	-0.05600136
-3.023252	lớn	-0.01803466
-3.324282	lợi	-0.01850954
-3.324282	lợm	-0.01850954
-3.324282	ma	-0.08013503
-3.324282	mai	-0.01850954
-3.324282	mang	-0.08013503
-3.324282	may	-0.08013503
-3.324282	miền	-0.08013503
-3.324282	mong	-0.07869116
-3.023252	mua	-0.0791042
-2.06901	muốn	-0.1534447
-3.324282	muộn	-0.08013503
-2.722223	mà	-0.2609697
-3.023252	mày	-0.07307657
-2.847161	máy	-0.07495616
-3.324282	mì	-0.01850954
-2.06901	mình	-0.07292002
-2.847161	món	-0.0139769
-3.023252	mô	-0.2884394
-3.324282	môi	-0.01850954
-3.324282	môn	-0.01850954
-3.324282	mù	-0.01850954
-3.023252	mùa	-0.07703514
-3.324282	mũi	-0.07889772
-3.324282	mơ	-0.07992906
-3.023252	mưa	-0.07869118
-3.324282	mạnh	-0.0755809
-2.847161	mấy	-0.4686986
-3.324282	mắc	-0.08013503
-3.324282	mắn	-0.01850954
-3.023252	mắt	-0.01612985
-3.023252	mẹ	-0.01803466
-3.324282	mệt	-0.07931055
-3.023252	mọi	-0.07807091
-3.324282	mồ	-0.08013503
-2.045529	một	-0.02621601
-2.722223	mới	-0.0671763
-3.324282	mờ	-0.07910419
-3.324282	mở	-0.07972299
-2.847161	mục	-0.4713864
-3.324282	nam	-0.01850954
-3.023252	nay	-0.06781233
-3.324282	ngay	-0.01850954
-3.324282	nghe	-0.07703513
-3.324282	nghiêm	-0.08013503
-3.324282	nghiệp	-0.01850954
-2.722223	nghĩ	-0.07433054
-3.324282	nghề	-0.08013503
-2.847161	ngoài	-0.07869116
-3.324282	nguội	-0.07931055
-3.324282	ngành	-0.07765688
-2.479184	ngày	-0.01181324
-3.324282	ngân	-0.07951682
-3.324282	ngôi	-0.0684474
-2.421192	người	-0.07641248
-3.324282	ngẩn	-0.07910419
-3.324282	ngẫm	-0.07951682
-3.324282	ngập	-0.07992906
-3.324282	ngọn	-0.08013503
-2.847161	ngồi	-0.0127762
-3.324282	ngớ	-0.08013503
-3.324282	ngủ	-0.07765688
-3.324282	nha	-0.01850954
-2.847161	nhanh	-0.07889772
-2.847161	nhau	-0.07286721
-2.625313	nhiêu	-0.08823616
-2.479184	nhiều	-0.1418548
-3.023252	nhà	-0.2857528
-2.847161	nhân	-0.2035771
-3.023252	nhé	-0.2270198
-3.023252	nhìn	-0.287408
-3.023252	nhí	-0.2270198
-2.421192	như	-0.2400075
-3.324282	nhưng	-0.07433053
-3.324282	nhạc	-0.07848451
-3.023252	nhảm	-0.2884394
-3.324282	nhất	-0.07744973
-2.847161	nhận	-0.07578894
-3.324282	nhắc	-0.07992906
-3.324282	nhẹ	-0.01850954
-3.324282	nhỏ	-0.07889772
-2.324282	những	-0.2020976
-3.324282	niêm	-0.08013503
-3.324282	niềm	-0.07972299
-2.37004	nào	-0.05544075
-2.148191	này	-0.07960057
-3.023252	nên	-0.07662015
-2.722223	nó	-0.01133096
-2.178154	nói	-0.1455262
-3.324282	nóng	-0.07433053
-3.324282	năm	-0.01850954
-3.324282	năng	-0.08013503
-3.023252	nơi	-0.07118879
-3.324282	nướng	-0.07992906
-3.324282	nấu	-0.08013503
-3.324282	nắng	-0.08013503
-3.324282	nẻ	-0.08013503
-3.324282	nến	-0.07889772
-3.324282	nối	-0.07972299
-3.324282	nỗi	-0.07992906
-3.324282	nữ	-0.01850954
-2.546131	nữa	-0.1492076
-3.324282	phi	-0.07972299
-3.023252	phim	-0.01827217
-3.324282	phiền	-0.08013503
-3.324282	phát	-0.08013503
-3.324282	phê	-0.01850954
-3.324282	phí	-0.07889772
-2.546131	phòng	-0.05990222
-3.324282	phúc	-0.07807089
-2.324282	phải	-0.09693245
-3.324282	phản	-0.07992906
-3.324282	phấn	-0.08013503
-3.324282	phần	-0.01850954
-3.324282	phố	-0.01850954
-3.324282	phổ	-0.07992906
-2.722223	qua	-0.1098946
-3.023252	quan	-0.01803466
-3.324282	quyết	-0.01850954
-3.324282	quà	-0.07433053
-2.625313	quá	-0.208777
-3.324282	quê	-0.08013503
-3.324282	quên	-0.07703513
-2.722223	quý	-0.335513
-3.324282	quản	-0.08013503
-3.023252	quầy	-0.07951684
-3.324282	quỉ	-0.08013503
-3.023252	quốc	-0.07992908
-3.324282	ra	-0.07972299
-3.023252	riêng	-0.07328582
-3.324282	rút	-0.07889772
-3.023252	răng	-0.079723
-3.023252	rượu	-0.01827217
-2.37004	rất	-0.1142399
-2.847161	rằng	-0.05621899
-3.324282	rẽ	-0.08013503
-2.210339	rồi	-1.035401
-3.324282	rửa	-0.07951682
-3.324282	sai	-0.07765688
-2.625313	sao	-0.006478459
-3.324282	sau	-0.0755809
-3.324282	say	-0.01850954
-3.324282	sách	-0.01850954
-3.023252	sáng	-0.01612985
-3.324282	sát	-0.01850954
-3.324282	séc	-0.07724248
-3.324282	sô	-0.07910419
-3.324282	sương	-0.08013503
-3.324282	sạn	-0.07118877
-3.324282	sắp	-0.07992906
-2.324282	sẽ	-0.06162477
-3.324282	số	-0.07972299
-2.625313	sống	-0.01684513
-3.324282	sớm	-0.07910419
-2.722223	sức	-0.07620475
-3.324282	sử	-0.08013503
-3.324282	sửa	-0.0684474
-3.023252	sự	-0.07827776
-2.178154	ta	-0.2123712
-3.324282	tai	-0.07910419
-3.324282	tan	-0.08013503
-3.324282	tha	-0.08013503
-3.324282	thang	-0.07972299
-3.324282	thanh	-0.08013503
-3.324282	thao	-0.07972299
-3.324282	theo	-0.07992906
-3.324282	thiệp	-0.07807089
-3.324282	thiệt	-0.07951682
-3.023252	thiệu	-0.2884394
-3.023252	thoát	-0.07474773
-3.324282	thua	-0.01850954
-3.324282	thuộc	-0.07992906
-2.847161	thành	-0.07578894
-3.324282	thái	-0.01850954
-3.324282	thám	-0.08013503
-3.023252	tháng	-0.07992908
-3.023252	thân	-0.01803466
-3.324282	thãi	-0.01850954
-2.847161	thì	-0.1953964
-2.722223	thích	-0.1089433
-3.324282	thô	-0.08013503
-2.625313	thôi	-0.2653258
-3.023252	thông	-0.01779702
-3.324282	thư	-0.07724248
-3.324282	thưa	-0.07931055
-3.023252	thường	-0.07097852
-3.324282	thảo	-0.07992906
-3.324282	thấp	-0.07992906
-3.324282	thất	-0.08013503
-2.479184	thấy	-0.1157812
-2.421192	thật	-0.1492765
-3.324282	thắng	-0.01850954
-3.324282	thắt	-0.08013503
-2.625313	thế	-0.264135
-2.120162	thể	-0.1137812
-2.479184	thời	-0.2057091
-3.324282	thủ	-0.08013503
-3.023252	thứ	-0.07951684
-2.847161	thức	-0.0755809
-3.324282	thừa	-0.08013503
-2.847161	tin	-0.145407
-3.324282	tiên	-0.01850954
-2.847161	tiêu	-0.07495616
-3.324282	tiếc	-0.07931055
-3.324282	tiến	-0.08013503
-3.023252	tiếp	-0.07931057
-3.324282	tiết	-0.01850954
-2.479184	tiền	-0.059489
-3.324282	to	-0.08013503
-2.847161	toàn	-0.005990207
-3.324282	toái	-0.07972299
-3.324282	trai	-0.07972299
-3.324282	triển	-0.07992906
-2.479184	trong	-0.1277494
-3.324282	trung	-0.07992906
-3.324282	tránh	-0.07641248
-3.324282	trên	-0.01850954
-2.847161	trình	-0.004522175
-3.324282	trò	-0.07848451
-3.324282	trông	-0.07992906
-3.324282	trưng	-0.08013503
-3.324282	trước	-0.01850954
-3.324282	trường	-0.08013503
-3.324282	trưởng	-0.07516451
-3.023252	trả	-0.07744975
-3.324282	trận	-0.07992906
-3.324282	trẻ	-0.07827774
-3.023252	trọng	-0.07869118
-3.324282	trộm	-0.07516451
-3.023252	trời	-0.079723
-3.023252	trở	-0.0764125
-3.324282	tuyệt	-0.01850954
-3.023252	tuần	-0.06526265
-3.324282	tuổi	-0.01850954
-3.324282	tài	-0.08013503
-3.324282	tác	-0.01850954
-3.324282	tám	-0.01850954
-3.023252	tâm	-0.01779702
-3.324282	tây	-0.08013503
-3.023252	tên	-0.01827217
-3.324282	tìm	-0.07889772
-3.324282	tín	-0.08013503
-3.324282	tóc	-0.07662013
-1.449221	tôi	-0.1224011
-3.324282	tôn	-0.07992906
-3.324282	tùy	-0.07992906
-3.324282	túc	-0.07931055
-3.324282	túi	-0.07889772
-3.324282	tăng	-0.08013503
-3.324282	tĩnh	-0.01850954
-3.023252	tương	-0.2884394
-3.023252	tưởng	-0.01684514
-3.324282	tại	-0.07931055
-3.324282	tạm	-0.07889772
-3.023252	tả	-0.2878208
-3.324282	tất	-0.07931055
-3.023252	tầm	-0.07992908
-3.324282	tầng	-0.08013503
-2.722223	tập	-0.328441
-3.324282	tắc	-0.07972299
-3.324282	tắm	-0.07641248
-3.324282	tế	-0.01850954
-3.023252	tỉa	-0.0791042
-2.625313	tối	-0.1468239
-3.324282	tốn	-0.07848451
-2.847161	tốt	-0.1456445
-3.023252	tới	-0.07474773
-2.847161	tờ	-0.2070953
-3.324282	tục	-0.07869116
-3.023252	tủ	-0.2884394
-2.847161	từ	-0.07412179
-3.324282	tử	-0.07972299
-3.023252	tự	-0.0764125
-3.324282	u	-0.08013503
-2.847161	uống	-0.06504948
-3.324282	va	-0.08013503
-3.324282	viên	-0.01850954
-3.324282	viễn	-0.07992906
-2.28289	việc	-0.1081379
-3.324282	việt	-0.08013503
-3.324282	vui	-0.07931055
-3.324282	vuông	-0.08013503
-3.324282	và	-0.07992906
-2.625313	vào	-0.01660683
-3.324282	vâng	-0.01850954
-3.324282	vé	-0.07889772
-2.625313	vì	-0.1424254
-2.847161	vô	-0.07889772
-3.324282	vương	-0.07889772
-3.324282	vượt	-0.07951682
-3.023252	vấn	-0.2884394
-3.023252	vẫn	-0.0791042
-2.625313	vậy	-0.1715304
-3.324282	vắng	-0.01850954
-2.37004	về	-0.04711972
-3.324282	vị	-0.07765688
-3.324282	vọng	-0.08013503
-2.28289	với	-0.04676069
-3.023252	vở	-0.0780709
-3.324282	vỡ	-0.01850954
-3.023252	vợ	-0.2884394
-3.023252	vừa	-0.01589116
-3.324282	xa	-0.08013503
-3.324282	xe	-0.01850954
-2.546131	xem	-0.07662012
-2.421192	xin	-0.202967
-3.324282	xong	-0.01850954
-3.324282	xuyên	-0.07951682
-3.324282	xuống	-0.01850954
-3.324282	xưa	-0.01850954
-3.324282	yên	-0.08013503
-2.847161	yêu	-0.2068891
-3.324282	yết	-0.01850954
-3.324282	ích	-0.08013503
-3.023252	ít	-0.07869118
-2.625313	ông	-0.009396464
-2.722223	ý	-0.2744746
-2.847161	ăn	-0.07516451
-2.479184	đang	-0.1231691
-2.120162	đi	-0.02890712
-2.847161	điều	-0.4699412
-3.023252	điểm	-0.07349496
-3.324282	điện	-0.01850954
-3.324282	đàn	-0.08013503
-3.023252	đánh	-0.07662015
-2.625313	đâu	-0.265088
-2.324282	đây	-0.08508967
-1.926342	đã	0.03523151
-3.324282	đèn	-0.0684474
-3.324282	đêm	-0.01850954
-2.324282	đó	-0.1492795
-3.324282	đóng	-0.08013503
-3.023252	đôi	-0.01827217
-3.324282	đùa	-0.07931055
-3.324282	đúm	-0.07807089
-3.324282	đúng	-0.01850954
-3.324282	đơn	-0.07931055
-2.847161	đường	-0.06419583
-2.045529	được	-0.1492691
-3.324282	đạt	-0.07641248
-3.023252	đấy	-0.2270198
-3.023252	đầu	-0.07118879
-3.324282	đầy	-0.01850954
-3.324282	đằng	-0.08013503
-3.324282	đặn	-0.01850954
-2.722223	đặt	-0.07537276
-3.023252	đẹp	-0.07765689
-2.245101	đến	-0.01731488
-3.023252	đề	-0.07516453
-3.023252	đều	-0.07620475
-2.324282	để	-0.09283835
-3.324282	định	-0.08013503
-2.847161	đọc	-0.07931055
-3.324282	đốc	-0.07139893
-3.023252	đối	-0.2865812
-2.847161	đồ	-0.01755922
-3.324282	đồn	-0.07992906
-2.847161	đồng	-0.2066829
-3.023252	đổ	-0.07992908
-3.324282	đỗ	-0.01850954
-3.324282	độ	-0.08013503
-2.847161	động	-0.07931055
-3.023252	đời	-0.01732133
-3.324282	đứa	-0.07910419
-3.324282	đức	-0.07972299
-2.479184	đừng	-0.3451867
-3.023252	ơi	-0.07869118
-2.722223	ơn	-0.06291221
-3.324282	ước	-0.08013503
-3.324282	ạ	-0.01850954
-2.722223	ảnh	-0.01684513
-2.479184	ấy	0.004642069
-2.178154	ở	-0.1646271
-3.324282	ức	-0.01850954
-3.324282	ứng	-0.0684474

\2-grams:
-1.104735	<s> anh	-0.1918919
-3.219557	<s> bây
-3.219557	<s> bưu
-1.333215	<s> bạn	0.01974303
-3.219557	<s> bằng
-3.219557	<s> bị
-3.219557	<s> bịt
-3.219557	<s> chiếc
-3.219557	<s> chiều
-2.201134	<s> cho	0.1589793
-3.219557	<s> chuyến
-3.219557	<s> chúc
-1.492916	<s> chúng	0.4533702
-3.219557	<s> chắc
-3.219557	<s> chắp
-3.219557	<s> chỉ
-3.219557	<s> chị
-3.219557	<s> chữ
-3.219557	<s> con
-3.219557	<s> cuộc
-3.219557	<s> các
-3.219557	<s> cách
-2.201134	<s> có
-2.148709	<s> cô	0.08510109
-3.219557	<s> công
-3.219557	<s> cưng
-2.148709	<s> cảm	-0.1840243
-3.219557	<s> cảnh
-2.201134	<s> cậu	-0.04263878
-3.219557	<s> cặp
-3.219557	<s> cửa
-3.219557	<s> dạo
-2.052317	<s> em
-3.219557	<s> ghế
-3.219557	<s> giá
-3.219557	<s> giấy
-2.459688	<s> giờ
-2.459688	<s> giữ
-3.219557	<s> gửi
-3.219557	<s> hai
-3.219557	<s> hiệp
-3.219557	<s> hoàn
-3.219557	<s> hàng
-2.148709	<s> hãy
-3.219557	<s> hôn
-3.219557	<s> hải
-2.148709	<s> họ	0.2087587
-3.219557	<s> khách
-1.948164	<s> không
-3.219557	<s> kể
-3.219557	<s> linh
-3.219557	<s> lo
-2.459688	<s> làm
-3.219557	<s> lượt
-3.219557	<s> lối
-3.219557	<s> mày
-3.219557	<s> máy
-1.447158	<s> mình	-0.0009235945
-2.459688	<s> món
-3.219557	<s> mùa
-3.219557	<s> mấy
-3.219557	<s> mẹ
-2.201134	<s> một
-3.219557	<s> mục
-2.459688	<s> ngày
-3.219557	<s> ngân
-2.459688	<s> người
-3.219557	<s> nhanh
-3.219557	<s> nhưng
-2.459688	<s> những
-2.459688	<s> nó
-3.219557	<s> nói
-3.219557	<s> nẻ
-3.219557	<s> phi
-3.219557	<s> phim
-2.459688	<s> phòng
-3.219557	<s> quý
-2.459688	<s> quầy
-3.219557	<s> quỉ
-3.219557	<s> số
-3.219557	<s> sớm
-3.219557	<s> thang
-3.219557	<s> theo
-3.219557	<s> tháng
-2.459688	<s> thật	0.01870257
-3.219557	<s> thời
-2.459688	<s> thứ
-3.219557	<s> thức
-3.219557	<s> trình
-3.219557	<s> trời
-3.219557	<s> tuần
-3.219557	<s> tây
-3.219557	<s> tóc
-0.8560934	<s> tôi	-0.03600534
-3.219557	<s> tại
-3.219557	<s> tạm
-3.219557	<s> tập
-2.459688	<s> tối
-2.459688	<s> từ
-3.219557	<s> việc
-2.459688	<s> vào
-3.219557	<s> vâng
-2.459688	<s> vở
-3.219557	<s> xem
-1.669007	<s> xin	0.06095121
-2.459688	<s> ông
-3.219557	<s> đang
-2.459688	<s> đi
-2.459688	<s> điều	0.3293811
-2.201134	<s> đây	-0.6939691
-2.459688	<s> đã
-3.219557	<s> đó
-3.219557	<s> đùa
-2.459688	<s> đến
-2.459688	<s> để	-0.0982359
-3.219557	<s> đồ
-3.219557	<s> đồn
-2.459688	<s> đồng
-3.219557	<s> động
-3.219557	<s> đời
-2.201134	<s> đừng	-0.0060215
-2.459688	<s> ở
-1.24952	ai </s>
-1.24952	ai có
-1.24952	ai là
-0.7723989	an toàn
-1.33502	anh </s>
-0.3547148	anh chị	0.0101344
-2.405867	anh cô
-2.405867	anh không
-2.405867	anh mới
-2.405867	anh nên
-2.405867	anh nữa
-2.405867	anh sao
-1.134474	anh ta	0.02744848
-2.405867	anh thật
-2.405867	anh thế
-2.405867	anh đi
-2.405867	anh đã
-2.405867	anh đúng
-1.33502	anh ấy
-0.7723989	ban nha
-0.6051593	bao giờ
-1.772399	bao lâu
-0.7539759	bao nhiêu	0.0422605
-0.7723989	bay đi
-1.24952	bia </s>
-1.24952	bia chai
-1.24952	bia hơi
-0.5466493	biết </s>
-1.617497	biết nhau
-1.617497	biết rằng
-1.617497	biết tên
-1.617497	biết về
-0.7723989	biển nhẹ
-1.073429	buồn vương
-1.073429	buồn vậy
-1.073429	buổi hội
-1.073429	buổi tối
-0.7723989	bà ý
-0.7723989	bàn rồi
-0.7723989	bày </s>
-1.073429	bánh mà
-1.073429	bánh mì
-0.7723989	báo không
-0.7723989	báu để
-0.3135602	bây giờ
-0.7723989	bão </s>
-0.7723989	bên ngoài
-0.7723989	bóng </s>
-0.7723989	bưu điện
-0.7723989	bạ </s>
-0.7723989	bạc </s>
-1.067557	bạn </s>
-2.234797	bạn biết
-2.234797	bạn buồn
-1.067557	bạn có	0.05945573
-2.234797	bạn hay
-2.234797	bạn hiểu
-2.234797	bạn học
-2.234797	bạn không
-2.234797	bạn làm
-2.234797	bạn nghĩ
-2.234797	bạn nói
-2.234797	bạn phải
-2.234797	bạn sao
-2.234797	bạn thật
-2.234797	bạn trông
-1.067557	bạn đã
-2.234797	bạn được
-2.234797	bạn đến
-2.234797	bạn đổ
-2.234797	bạn ở
-0.7723989	bạo nào
-0.7723989	bản mô
-0.7723989	bảo thủ
-0.7723989	bảy </s>
-0.7723989	bất cứ
-0.7723989	bận gì
-0.7723989	bật tín
-0.7723989	bậy tầm
-0.7723989	bắt mày
-1.24952	bằng mắt
-1.24952	bằng mọi
-1.24952	bằng tai
-1.073429	bến tôi
-1.073429	bến đỗ
-1.55055	bị dị
-1.55055	bị giết
-1.55055	bị hỏng
-1.55055	bị tắc
-1.55055	bị u
-1.55055	bị về
-0.7723989	bịt mũi
-1.073429	bỏ cuộc
-1.073429	bỏ giày
-1.073429	bố </s>
-1.073429	bố mẹ
-0.7723989	bộ lớn
-0.7723989	cao cấp
-0.7723989	chai </s>
-1.374459	chiếc khăn
-1.374459	chiếc kính
-1.374459	chiếc răng
-1.374459	chiếc đèn
-0.7723989	chiếu của
-1.073429	chiều mai
-1.073429	chiều trẻ
-1.374258	cho anh
-2.134127	cho biết
-1.063279	cho bạn	-0.05084441
-2.134127	cho các
-2.134127	cho nghiêm
-2.134127	cho phòng
-0.3203351	cho tôi	-0.01702341
-2.134127	cho vui
-1.374258	cho đến
-0.7723989	chuyên môn
-0.7723989	chuyến bay
-0.7723989	chuyển nó
-1.675489	chuyện </s>
-1.675489	chuyện nhảm
-1.675489	chuyện tiền
-1.675489	chuyện trò
-1.675489	chuyện và
-0.9156201	chuyện với
-1.675489	chuyện đó
-0.7723989	chuẩn bị
-0.7723989	chuốc lấy
-0.7723989	chìa khóa
-0.7723989	chín năm
-0.7723989	chính bao
-0.7723989	chúc một
-1.886342	chúng không
-0.7191027	chúng ta	0.01927634
-0.2108534	chúng tôi	-0.03574031
-0.7723989	chút </s>
-0.3036112	chưa </s>
-1.374459	chưa làm
-0.3135602	chương trình
-0.7723989	chạy thoát
-0.7723989	chấn </s>
-0.7723989	chậm lại
-0.7723989	chật </s>
-0.7723989	chắc chắn
-0.7723989	chắn là
-0.7723989	chắp cho
-1.073429	chẳng hiểu
-1.073429	chẳng phải
-0.3135602	chết rồi	0.6702902
-1.374459	chỉ cho
-1.374459	chỉ cần
-1.374459	chỉ huy
-1.374459	chỉ như
-1.31356	chị </s>
-2.073429	chị cho
-0.30103	chị có	0.0632391
-1.002581	chị muốn
-2.073429	chị thích
-2.073429	chị được
-2.073429	chị đấy
-2.073429	chị đừng
-0.7723989	chọn món
-1.073429	chồng anh
-1.073429	chồng mới
-1.24952	chỗ làm
-1.24952	chỗ nào
-1.24952	chỗ ở
-1.24952	chờ phản
-1.24952	chờ thưa
-1.24952	chờ tôi
-1.073429	chụp thật
-1.073429	chụp ảnh
-0.7723989	chữ ký
-0.7723989	coi trọng
-1.55055	con gái
-1.55055	con một
-1.55055	con phải
-1.55055	con trai
-1.55055	con đã
-1.55055	con đầu
-1.24952	cuối </s>
-1.24952	cuối tuần
-1.24952	cuối đời
-1.24952	cuộc cho
-1.24952	cuộc hôn
-1.24952	cuộc sống
-0.7723989	cà phê
-1.073429	càng nhanh
-1.073429	càng tốt
-0.7723989	cá nhân
-1.24952	các buổi
-1.24952	các bạn
-1.24952	các cậu
-1.073429	cách khác
-1.073429	cách này
-1.471369	cái bánh
-1.471369	cái này
-1.471369	cái séc
-1.471369	cái thân
-1.471369	cái đã
-0.7723989	cánh </s>
-0.7723989	câu này
-0.7723989	cãi nhau
-2.415852	có </s>
-2.415852	có bão
-2.415852	có bận
-1.655983	có bị
-1.655983	có gì
-2.415852	có gọi
-2.415852	có hối
-2.415852	có hứng
-2.415852	có không
-2.415852	có khả
-2.415852	có khẩn
-2.415852	có lầm
-2.415852	có lắm
-2.415852	có mang
-1.144458	có muốn	0.01462867
-2.415852	có mình
-2.415852	có một
-2.415852	có nhiều
-2.415852	có nói
-2.415852	có phòng
-2.415852	có rẽ
-2.415852	có sương
-2.415852	có sử
-2.415852	có sửa
-0.60206	có thể
-2.415852	có đây
-1.55055	cô la
-1.55055	cô đơn
-1.55055	cô định
-0.4797025	cô ấy
-1.471369	công tác
-0.3041293	công việc
-0.7723989	căn hộ
-0.7723989	cũ của
-0.7723989	cơ hội
-0.7723989	cơn gió
-0.7723989	cưng ơi
-0.7723989	cưới này
-0.7115002	cả </s>
-1.471369	cả chúng
-1.471369	cả ngày
-1.471369	cả vì
-1.617497	cảm giác
-1.617497	cảm nhận
-0.8576282	cảm thấy
-0.5466493	cảm ơn
-1.073429	cảnh sát
-1.073429	cảnh đẹp
-1.073429	cấp </s>
-1.073429	cấp không
-1.073429	cần phải
-1.073429	cần tỉa
-1.675489	cậu bỏ
-1.675489	cậu chuẩn
-0.6046413	cậu có	-0.0573919
-1.675489	cậu làm
-1.675489	cậu nhanh
-1.675489	cậu ta
-0.7723989	cặp vợ
-0.4896514	cố gắng
-1.24952	cố không
-0.7723989	cốc bia
-0.7723989	cổng </s>
-0.7723989	cỡ </s>
-0.8604318	của anh	0.1877742
-0.8604318	của bạn	-0.02662212
-2.027671	của chúng
-2.027671	của họ
-1.267803	của mình	-0.07818022
-2.027671	của quý
-0.8604318	của tôi	-0.1845453
-2.027671	của việt
-1.073429	cứ hành
-1.073429	cứ tiếp
-1.24952	cửa </s>
-0.4896514	cửa hàng
-0.7723989	dai dẳng
-0.7723989	do thái
-1.073429	doanh </s>
-1.073429	doanh thế
-0.7723989	duyên </s>
-0.7723989	dài phải
-1.073429	dành riêng
-1.073429	dành thì
-0.7723989	dây an
-0.7723989	dùng tủ
-0.7723989	dưới hình
-0.7723989	dường như
-0.7723989	dạo này
-0.7723989	dẳng cả
-0.7723989	dị ứng
-1.24952	dục quá
-1.24952	dục thường
-1.24952	dục đều
-0.7723989	dụng tủ
-0.7015513	em </s>
-1.772399	em biết
-1.772399	em có
-1.772399	em sắp
-1.772399	em sẽ
-1.772399	em xin
-1.772399	em đi
-1.772399	em đặt
-0.7723989	ghét anh
-0.7723989	ghê gớm
-1.24952	ghế của
-1.24952	ghế ngồi
-1.24952	ghế tầng
-1.24952	gian dài
-1.24952	gian nào
-1.24952	gian quý
-0.7723989	giao thiệp
-0.7723989	gien </s>
-0.7723989	giày ở
-1.24952	giá em
-1.24952	giá không
-1.24952	giá tốt
-0.7723989	giác ngẫm
-0.7723989	giám đốc
-0.7723989	giáo đường
-0.7723989	gió biển
-1.24952	giúp anh
-0.4896514	giúp tôi
-0.7723989	giường đôi
-0.7723989	giả bên
-0.7723989	giải quyết
-0.7723989	giấy tờ
-0.7723989	giặt khô
-0.7723989	giết như
-0.7723989	giỏi nấu
-0.3135602	giới thiệu	0.146228
-1.21665	giờ </s>
-1.976519	giờ bạn
-1.976519	giờ bỏ
-1.976519	giờ chúng
-1.976519	giờ có
-1.976519	giờ cửa
-1.976519	giờ khuyên
-1.976519	giờ kinh
-1.976519	giờ rồi
-1.976519	giờ thì
-1.976519	giờ trở
-1.976519	giờ tôi
-1.976519	giờ đi
-1.21665	giờ để
-1.073429	giữ lấy
-1.073429	giữ sức
-0.7723989	giữa </s>
-0.7723989	gái yêu
-0.7191027	gì </s>
-1.886342	gì cho
-1.126474	gì cả	-0.04879005
-1.886342	gì giúp
-1.886342	gì không
-1.886342	gì mới
-1.886342	gì nữa
-1.886342	gì phải
-1.886342	gì tối
-0.7723989	gần nhất
-1.073429	gắng nghĩ
-1.073429	gắng nói
-0.7723989	gặp gỡ
-1.24952	gọi cuối
-1.24952	gọi gì
-1.24952	gọi hai
-0.7723989	gớm </s>
-0.7723989	gỡ những
-1.24952	gửi </s>
-1.24952	gửi thư
-1.24952	gửi ít
-1.24952	hai </s>
-1.24952	hai phần
-1.24952	hai va
-1.55055	hay bia
-1.55055	hay cách
-1.55055	hay khác
-1.55055	hay muộn
-1.55055	hay nghe
-1.55055	hay ảnh
-1.374459	hiểu mà
-1.374459	hiểu sai
-1.374459	hiểu ông
-1.374459	hiểu được
-0.7723989	hiện giờ
-0.7723989	hiệp hội
-0.7723989	hiệu thắt
-0.7723989	hoàn toàn
-0.7723989	huy trận
-0.6145902	hàng </s>
-1.374459	hàng ghế
-1.374459	hàng mở
-1.24952	hành trưởng
-0.4896514	hành động
-1.374459	hãy cho
-1.374459	hãy chụp
-1.374459	hãy nói
-1.374459	hãy tỉa
-0.7723989	hè khi
-1.073429	hình gì
-1.073429	hình thức
-0.7723989	hôi nhiều
-0.3135602	hôm qua
-0.4896514	hôn nhân	0.02733597
-1.24952	hôn rồi
-1.24952	hơi hay
-1.24952	hơi thích
-1.24952	hơi vắng
-0.6145902	hơn </s>
-1.374459	hơn lợi
-1.374459	hơn tôi
-1.073429	hại mình
-1.073429	hại nhiều
-0.7723989	hạnh phúc
-0.7723989	hải quan
-0.7723989	hận không
-0.7723989	hẳn vậy
-0.4896514	hết bao
-1.24952	hết xe
-1.374459	họ sống
-0.3036112	họ đã
-1.374459	học </s>
-1.374459	học cũ
-1.374459	học tập
-1.374459	học viễn
-0.7723989	hỏi mình
-1.073429	hỏng chỗ
-1.073429	hỏng không
-0.7723989	hối hận
-0.7723989	hồ của
-1.073429	hồi của
-1.073429	hồi tưởng
-1.073429	hộ </s>
-1.073429	hộ chiếu
-1.374459	hội gặp
-1.374459	hội phát
-1.374459	hội thảo
-1.374459	hội viên
-0.7723989	hỡi có
-0.7723989	hủy cái
-0.7723989	hứng làm
-0.7723989	in xong
-1.24952	khi bạn
-1.24952	khi nói
-1.24952	khi vấn
-0.7723989	khiến tôi
-0.7723989	khoa học
-0.7723989	khoảng thời
-0.7723989	khuyên được
-1.24952	khác chúng
-1.24952	khác sao
-1.24952	khác đối
-1.374459	khách có
-1.374459	khách hiện
-1.374459	khách là
-1.374459	khách sạn
-0.7723989	khánh của
-0.7723989	khóa của
-0.7723989	khô </s>
-0.3409015	không </s>
-1.768405	không ai
-1.768405	không bao	-0.01871268
-2.528274	không biết
-2.528274	không cho
-2.528274	không chụp
-1.768405	không có
-2.528274	không cần
-2.528274	không dùng
-2.528274	không giỏi
-2.528274	không hẳn
-2.528274	không không
-2.528274	không muốn
-2.528274	không mình
-2.528274	không nghĩ
-2.528274	không nhìn
-2.528274	không niêm
-2.528274	không phải
-2.528274	không rồi
-2.528274	không sao
-2.528274	không sáng
-2.528274	không thành
-2.528274	không thể
-2.528274	không trả
-2.528274	không vừa
-2.528274	không ích
-2.528274	không ăn
-2.528274	không đồng
-2.528274	không ạ
-0.7723989	khăn tắm
-0.7723989	khả năng
-0.7723989	khẩn cấp
-1.374459	khỏe </s>
-1.374459	khỏe hơn
-1.374459	khỏe lại
-1.374459	khỏe nhé
-0.7723989	khốn khổ
-0.7723989	khổ </s>
-0.7723989	khủng bố
-0.7723989	kia </s>
-1.24952	kinh </s>
-0.4896514	kinh doanh
-0.7723989	kiến của
-0.7723989	kiệt sức
-0.7723989	kí ức
-0.7723989	kính đọc
-0.7723989	ký </s>
-0.7723989	kẻ thừa
-0.7723989	kể từ
-0.7723989	kịch thuộc
-0.7723989	kỷ </s>
-0.7723989	la này
-0.3135602	lai của
-0.7723989	li lớn
-0.7723989	linh thiệt
-0.6145902	lo lắng	0.146228
-1.374459	lo việc
-1.374459	lo về
-1.073429	loại hình
-1.073429	loại nhạc
-0.7723989	luôn thắng
-0.7723989	ly hôn
-2.051152	là anh
-2.051152	là bao
-2.051152	là bản
-2.051152	là bến
-2.051152	là chìa
-2.051152	là con
-2.051152	là hành
-2.051152	là hội
-2.051152	là không
-2.051152	là luôn
-2.051152	là lì
-2.051152	là may
-2.051152	là mô
-2.051152	là một
-2.051152	là người
-2.051152	là những
-2.051152	là toàn
-2.051152	là vô
-2.051152	là đồ
-1.918527	làm chưa
-1.918527	làm công
-0.8476793	làm gì
-1.918527	làm lúc
-1.918527	làm tiếc
-1.918527	làm trong
-0.8476793	làm việc
-1.918527	làm đi
-1.918527	làm được
-1.918527	làm ơn
-0.7723989	lành </s>
-0.7723989	lâu </s>
-0.7723989	lãng phí
-0.7723989	lên </s>
-0.7723989	lì lợm
-0.7723989	lúc mấy
-0.7723989	lý </s>
-0.7723989	lượt gọi
-0.8576282	lại </s>
-1.617497	lại cái
-1.617497	lại lần
-1.617497	lại lịch
-1.617497	lại ngay
-1.617497	lại những
-1.374459	lấy làm
-1.374459	lấy phiền
-1.374459	lấy tiền
-1.374459	lấy tờ
-1.073429	lầm </s>
-1.073429	lầm lẫn
-0.3135602	lần nữa
-0.7723989	lẫn bất
-1.073429	lắm </s>
-1.073429	lắm chuyện
-0.3135602	lắng về
-0.7723989	lẻ </s>
-0.7723989	lịch làm
-0.7723989	lối dành
-0.7723989	lồi </s>
-1.471369	lỗi bạn
-1.471369	lỗi lầm
-1.471369	lỗi quý
-1.471369	lỗi tôi
-1.471369	lỗi vì
-1.073429	lớn </s>
-1.073429	lớn cứ
-0.7723989	lợi </s>
-0.7723989	lợm </s>
-0.7723989	ma bắt
-0.7723989	mai </s>
-0.7723989	mang đứa
-0.7723989	may mắn
-0.7723989	miền quê
-0.7723989	mong cậu
-1.073429	mua cái
-1.073429	mua vé
-2.027671	muốn gửi
-2.027671	muốn hủy
-2.027671	muốn lấy
-2.027671	muốn mua
-2.027671	muốn ngồi
-2.027671	muốn nhìn
-2.027671	muốn nói
-2.027671	muốn rửa
-2.027671	muốn trả
-0.9568238	muốn uống
-1.267803	muốn đi
-2.027671	muốn đặt
-2.027671	muốn đọc
-1.267803	muốn ở
-0.7723989	muộn dưới
-0.3036112	mà </s>
-1.374459	mà không
-1.073429	mày là
-1.073429	mày đi
-1.24952	máy rút
-1.24952	máy với
-1.24952	máy ở
-0.7723989	mì </s>
-0.8604318	mình </s>
-1.267803	mình có
-2.027671	mình hiểu
-2.027671	mình hơi
-2.027671	mình hại
-2.027671	mình không
-2.027671	mình kiệt
-1.267803	mình là
-2.027671	mình mong
-2.027671	mình những
-2.027671	mình rất
-2.027671	mình đang
-2.027671	mình đã
-1.24952	món </s>
-1.24952	món của
-1.24952	món quà
-0.3135602	mô tả	0.146228
-0.7723989	môi </s>
-0.7723989	môn </s>
-0.7723989	mù </s>
-1.073429	mùa hè
-1.073429	mùa này
-0.7723989	mũi lại
-0.7723989	mơ tương
-1.073429	mưa dai
-1.073429	mưa nhiều
-0.7723989	mạnh cho
-0.1786725	mấy giờ
-0.7723989	mắc cỡ
-0.7723989	mắn </s>
-1.073429	mắt </s>
-1.073429	mắt em
-1.073429	mẹ </s>
-1.073429	mẹ ơi
-0.7723989	mệt vì
-1.073429	mọi giá
-1.073429	mọi người
-0.7723989	mồ hôi
-2.051152	một </s>
-2.051152	một buổi
-1.291284	một chiếc
-2.051152	một chiều
-2.051152	một chút
-2.051152	một cà
-2.051152	một cái
-2.051152	một căn
-2.051152	một cơn
-2.051152	một cốc
-2.051152	một giường
-2.051152	một kẻ
-2.051152	một ngày
-2.051152	một sự
-2.051152	một thời
-2.051152	một tờ
-2.051152	một ít
-2.051152	một đức
-1.374459	mới cưới
-1.374459	mới hiểu
-1.374459	mới không
-1.374459	mới nhắc
-0.7723989	mờ hay
-0.7723989	mở cửa
-0.1786725	mục tiêu
-0.7723989	nam </s>
-1.073429	nay hơi
-1.073429	nay không
-0.7723989	ngay </s>
-0.7723989	nghe thể
-0.7723989	nghiêm túc
-0.7723989	nghiệp </s>
-1.374459	nghĩ bây
-1.374459	nghĩ về
-1.374459	nghĩ xem
-1.374459	nghĩ đến
-0.7723989	nghề nghiệp
-1.24952	ngoài chiếc
-1.24952	ngoài nhé
-1.24952	ngoài trời
-0.7723989	nguội quá
-0.7723989	ngành gì
-1.617497	ngày </s>
-1.617497	ngày em
-1.617497	ngày hôm
-1.617497	ngày kia
-1.617497	ngày quốc
-1.617497	ngày tốt
-1.617497	ngày đó
-0.7723989	ngân hàng
-0.7723989	ngôi không
-1.675489	người bảo
-1.675489	người do
-1.675489	người khác
-1.675489	người khốn
-1.675489	người như
-1.675489	người quản
-1.675489	người thám
-1.675489	người yêu
-0.7723989	ngẩn nữa
-0.7723989	ngẫm nghĩ
-0.7723989	ngập tới
-0.7723989	ngọn nến
-1.24952	ngồi </s>
-1.24952	ngồi đây
-1.24952	ngồi ở
-0.7723989	ngớ ngẩn
-0.7723989	ngủ rồi
-0.7723989	nha </s>
-1.24952	nhanh càng
-1.24952	nhanh khỏe
-1.24952	nhanh lên
-1.24952	nhau cả
-1.24952	nhau một
-1.24952	nhau đến
-0.7115002	nhiêu </s>
-1.471369	nhiêu tiền
-1.471369	nhiêu tuổi
-1.471369	nhiêu đêm
-0.5466493	nhiều </s>
-1.617497	nhiều hơn
-1.617497	nhiều thì
-1.617497	nhiều tiền
-1.617497	nhiều ảnh
-0.3135602	nhà này	-0.04006837
-0.4896514	nhân của
-1.24952	nhân đều
-0.3135602	nhé </s>
-0.3135602	nhìn thấy
-0.3135602	nhí </s>
-1.675489	như mưa
-1.675489	như một
-1.675489	như ngập
-0.6046413	như thế	0.2082473
-0.9156201	như vậy
-0.7723989	nhưng bạn
-0.7723989	nhạc nào
-0.3135602	nhảm nhí	0.146228
-0.7723989	nhất ở
-1.24952	nhận một
-1.24952	nhận nhà
-1.24952	nhận ra
-0.7723989	nhắc tới
-0.7723989	nhẹ </s>
-0.7723989	nhỏ trong
-1.772399	những câu
-1.772399	những kí
-1.01253	những mục	0.3293811
-1.772399	những ngày
-0.7015513	những người
-1.772399	những ngọn
-1.772399	những thời
-0.7723989	niêm yết
-0.7723989	niềm tin
-0.7082183	nào </s>
-1.726641	nào không
-1.726641	nào rồi
-1.726641	nào đó
-1.726641	nào đối
-0.677097	này </s>
-1.94849	này cậu
-1.94849	này dường
-1.188621	này hay
-1.94849	này không
-1.94849	này sống
-1.94849	này tôi
-1.94849	này đến
-1.073429	nên nói
-1.073429	nên tập
-1.374459	nó </s>
-1.374459	nó cho
-1.374459	nó quá
-1.374459	nó vừa
-1.158658	nói cho
-0.8476793	nói chuyện	-0.03347421
-1.918527	nói gì
-1.918527	nói lại
-1.918527	nói ngớ
-1.918527	nói nhảm
-1.918527	nói thật
-1.918527	nói tầm
-1.918527	nói về
-1.918527	nói được
-1.918527	nói đến
-0.7723989	nóng bạn
-0.7723989	năm </s>
-0.7723989	năng tài
-1.073429	nơi anh
-1.073429	nơi miền
-0.7723989	nướng lắm
-0.7723989	nấu nướng
-0.7723989	nắng nóng
-0.7723989	nẻ môi
-0.7723989	nến trong
-0.7723989	nối máy
-0.7723989	nỗi buồn
-0.7723989	nữ </s>
-0.4797025	nữa </s>
-1.55055	nữa không
-1.55055	nữa đi
-1.55055	nữa được
-0.7723989	phi hành
-1.073429	phim </s>
-1.073429	phim khoa
-0.7723989	phiền toái
-0.7723989	phát triển
-0.7723989	phê </s>
-0.7723989	phí thời
-1.55055	phòng không
-1.55055	phòng một
-1.55055	phòng nào
-1.55055	phòng to
-1.55055	phòng trưng
-1.55055	phòng để
-0.7723989	phúc với
-1.772399	phải chờ
-1.772399	phải cãi
-1.772399	phải giặt
-1.772399	phải học
-1.772399	phải không
-1.772399	phải lo
-1.772399	phải tập
-1.772399	phải đạt
-1.01253	phải để
-0.7723989	phản hồi
-0.7723989	phấn chấn
-0.7723989	phần </s>
-0.7723989	phố </s>
-0.7723989	phổ thông
-0.6145902	qua </s>
-1.374459	qua say
-1.374459	qua tất
-1.073429	quan </s>
-1.073429	quan điểm
-0.7723989	quyết </s>
-0.7723989	quà bạn
-0.4005212	quá </s>
-1.471369	quá chật
-1.471369	quá sức
-0.7723989	quê yên
-0.7723989	quên đi
-1.374459	quý báu
-0.3036112	quý khách
-0.7723989	quản lý
-1.073429	quầy bánh
-1.073429	quầy thông
-0.7723989	quỉ tha
-1.073429	quốc khánh
-1.073429	quốc tế
-0.7723989	ra rằng
-1.073429	riêng cho
-1.073429	riêng với
-0.7723989	rút tiền
-1.073429	răng giả
-1.073429	răng hỏng
-1.073429	rượu </s>
-1.073429	rượu nhỏ
-1.726641	rất lấy
-1.726641	rất mắc
-1.726641	rất mệt
-0.9667727	rất nhiều
-1.726641	rất phấn
-1.726641	rất thích
-1.726641	rất tuyệt
-1.726641	rất vô
-1.24952	rằng anh
-1.24952	rằng không
-1.24952	rằng ta
-0.7723989	rẽ ngôi
-0.07255067	rồi </s>
-1.126474	rồi được
-0.7723989	rửa ảnh
-0.7723989	sai rồi
-1.471369	sao </s>
-1.471369	sao bạn
-1.471369	sao nỗi
-1.471369	sao rồi
-1.471369	sao đừng
-0.7723989	sau cho
-0.7723989	say </s>
-0.7723989	sách </s>
-1.073429	sáng </s>
-1.073429	sáng những
-0.7723989	sát </s>
-0.7723989	séc này
-0.7723989	sô cô
-0.7723989	sương mù
-0.7723989	sạn có
-0.7723989	sắp chết
-1.772399	sẽ chuốc
-1.772399	sẽ cố
-1.772399	sẽ gọi
-1.772399	sẽ không
-1.772399	sẽ nhận
-1.772399	sẽ nối
-1.772399	sẽ thoát
-1.772399	sẽ tự
-1.772399	sẽ vượt
-1.772399	sẽ đi
-0.7723989	số ghế
-1.471369	sống </s>
-1.471369	sống hạnh
-1.471369	sống nơi
-1.471369	sống riêng
-1.471369	sống vợ
-0.7723989	sớm hay
-1.374459	sức khỏe
-1.374459	sức mạnh
-1.374459	sức rồi
-1.374459	sức thường
-0.7723989	sử dụng
-0.7723989	sửa không
-1.073429	sự rất
-1.073429	sự tiến
-1.158658	ta </s>
-1.918527	ta có
-1.918527	ta mua
-1.918527	ta nên
-0.7512874	ta sẽ
-1.158658	ta đang
-0.8476793	ta đã
-0.7723989	tai con
-0.7723989	tan vỡ
-0.7723989	tha ma
-0.7723989	thang máy
-0.7723989	thanh sô
-0.7723989	thao thức
-0.7723989	theo quan
-0.7723989	thiệp với
-0.7723989	thiệt mới
-0.3135602	thiệu chương	0.146228
-1.073429	thoát như
-1.073429	thoát được
-0.7723989	thua </s>
-0.7723989	thuộc loại
-1.24952	thành một
-1.24952	thành phố
-1.24952	thành vấn
-0.7723989	thái </s>
-0.7723989	thám tử
-1.073429	tháng trước
-1.073429	tháng tám
-1.073429	thân </s>
-1.073429	thân răng
-0.7723989	thãi </s>
-1.24952	thì anh
-0.4896514	thì giờ	-0.1154171
-0.6145902	thích </s>
-1.374459	thích sống
-1.374459	thích vị
-0.7723989	thô bạo
-0.3041293	thôi </s>
-1.471369	thôi mà
-1.073429	thông </s>
-1.073429	thông tin
-0.7723989	thư này
-0.7723989	thưa ông
-1.073429	thường có
-1.073429	thường xuyên
-0.7723989	thảo chẳng
-0.7723989	thấp sáng
-0.7723989	thất vọng
-1.617497	thấy ai
-1.617497	thấy anh
-1.617497	thấy bến
-0.8576282	thấy rất
-1.617497	thấy thất
-1.617497	thấy đến
-1.675489	thật </s>
-0.5082493	thật là
-1.675489	thật nhiều
-1.675489	thật sự
-1.675489	thật thanh
-0.7723989	thắng </s>
-0.7723989	thắt dây
-1.471369	thế </s>
-0.3041293	thế nào	-0.1261291
-1.976519	thể chỉ
-1.976519	thể chờ
-1.976519	thể cảm
-1.976519	thể cố
-0.9056712	thể dục
-1.976519	thể giúp
-1.976519	thể hại
-1.976519	thể loại
-1.976519	thể là
-1.976519	thể làm
-1.976519	thể nói
-1.976519	thể tránh
-1.976519	thể xem
-1.976519	thể đặt
-1.617497	thời chỉ
-0.5466493	thời gian
-1.617497	thời tiết
-1.617497	thời xa
-1.617497	thời điểm
-0.7723989	thủ ghét
-1.073429	thứ bảy
-1.073429	thứ hai
-1.24952	thức này
-1.24952	thức vì
-1.24952	thức ăn
-0.7723989	thừa thãi
-0.4896514	tin </s>
-1.24952	tin nơi
-0.7723989	tiên </s>
-1.24952	tiêu của
-1.24952	tiêu nghề
-1.24952	tiêu trong
-0.7723989	tiếc vì
-0.7723989	tiến bộ
-1.073429	tiếp sức
-1.073429	tiếp tục
-0.7723989	tiết </s>
-0.8576282	tiền </s>
-1.617497	tiền bạc
-1.617497	tiền cho
-1.617497	tiền gần
-1.617497	tiền lẻ
-1.617497	tiền đến
-0.7723989	to cao
-1.24952	toàn </s>
-1.24952	toàn chuyện
-1.24952	toàn có
-0.7723989	toái khi
-0.7723989	trai yêu
-0.7723989	triển quốc
-1.617497	trong giáo
-1.617497	trong mắt
-1.617497	trong ngành
-0.8576282	trong phòng
-1.617497	trong trung
-1.617497	trong tương
-0.7723989	trung tâm
-0.7723989	tránh được
-0.7723989	trên </s>
-1.24952	trình </s>
-1.24952	trình không
-1.24952	trình độ
-0.7723989	trò về
-0.7723989	trông đẹp
-0.7723989	trưng bày
-0.7723989	trước </s>
-0.7723989	trường phổ
-0.7723989	trưởng đã
-1.073429	trả lại
-1.073429	trả tiền
-0.7723989	trận đánh
-0.7723989	trẻ em
-1.073429	trọng hơn
-1.073429	trọng ý
-0.7723989	trộm đã
-1.073429	trời mưa
-1.073429	trời nắng
-1.073429	trở thành
-1.073429	trở đi
-0.7723989	tuyệt </s>
-1.073429	tuần không
-1.073429	tuần này
-0.7723989	tuổi </s>
-0.7723989	tài chính
-0.7723989	tác </s>
-0.7723989	tám </s>
-1.073429	tâm </s>
-1.073429	tâm thành
-0.7723989	tây ban
-1.073429	tên </s>
-1.073429	tên trộm
-0.7723989	tìm thấy
-0.7723989	tín hiệu
-0.7723989	tóc của
-1.09691	tôi </s>
-1.887591	tôi biết
-2.64746	tôi bị
-2.64746	tôi chuyển
-2.64746	tôi chưa
-2.64746	tôi chẳng
-2.64746	tôi chết
-2.64746	tôi chọn
-2.64746	tôi chờ
-1.576612	tôi có	0.03523345
-1.887591	tôi cảm	-0.07773007
-0.9719713	tôi không
-2.64746	tôi là
-2.64746	tôi làm
-1.376067	tôi muốn
-2.64746	tôi mấy
-1.887591	tôi một
-2.64746	tôi nhận
-2.64746	tôi nói
-1.887591	tôi phải
-1.887591	tôi rất
-1.480221	tôi sẽ
-2.64746	tôi thao
-2.64746	tôi thích
-2.64746	tôi thấy
-2.64746	tôi thật
-2.64746	tôi trở
-2.64746	tôi tôn
-1.887591	tôi vẫn
-1.887591	tôi xem
-2.64746	tôi xin
-2.64746	tôi xuống
-1.887591	tôi đang
-2.64746	tôi đi
-1.480221	tôi đã
-2.64746	tôi đôi
-2.64746	tôi đường
-2.64746	tôi được
-2.64746	tôi để
-2.64746	tôi đọc
-2.64746	tôi ở
-0.7723989	tôn trọng
-0.7723989	tùy thân
-0.7723989	túc vào
-0.7723989	túi trong
-0.7723989	tăng cơ
-0.7723989	tĩnh </s>
-0.3135602	tương lai	0.146228
-1.073429	tưởng </s>
-1.073429	tưởng lại
-0.7723989	tại sao
-0.7723989	tạm thời
-0.3135602	tả công	0.1553294
-0.7723989	tất cả
-1.073429	tầm bạ
-1.073429	tầm bậy
-0.7723989	tầng trên
-1.374459	tập cho
-0.3036112	tập thể	-0.2714997
-0.7723989	tắc đường
-0.7723989	tắm được
-0.7723989	tế </s>
-1.073429	tỉa thôi
-1.073429	tỉa vuông
-0.7115002	tối nay
-1.471369	tối qua
-1.471369	tối rất
-1.471369	tối với
-0.7723989	tốn rất
-0.4896514	tốt </s>
-1.24952	tốt lành
-1.073429	tới đã
-1.073429	tới đầu
-0.4896514	tờ giới	0.146228
-1.24952	tờ tùy
-0.7723989	tục như
-0.3135602	tủ rượu
-1.24952	từ giờ
-1.24952	từ ngày
-1.24952	từ thời
-0.7723989	tử cố
-1.073429	tự hỏi
-1.073429	tự mình
-0.7723989	u lồi
-1.24952	uống bia
-1.24952	uống gì
-1.24952	uống không
-0.7723989	va li
-0.7723989	viên </s>
-0.7723989	viễn tưởng
-1.813792	việc </s>
-1.813792	việc anh
-1.813792	việc cái
-1.053923	việc của
-1.813792	việc kinh
-1.813792	việc như
-0.7429439	việc đó	0.006561808
-1.813792	việc ở
-0.7723989	việt nam
-0.7723989	vui thôi
-0.7723989	vuông đằng
-0.7723989	và càng
-1.471369	vào </s>
-1.471369	vào cuối
-1.471369	vào khoảng
-1.471369	vào mùa
-1.471369	vào đấy
-0.7723989	vâng </s>
-0.7723989	vé ngày
-0.7115002	vì em
-1.471369	vì hôm
-1.471369	vì đã
-1.471369	vì để
-1.24952	vô duyên
-1.24952	vô học
-1.24952	vô tâm
-0.7723989	vương trong
-0.7723989	vượt qua
-0.3135602	vấn đề
-1.073429	vẫn dành
-1.073429	vẫn khỏe
-0.7115002	vậy </s>
-0.7115002	vậy thôi	0.1553294
-1.471369	vậy đi
-0.7723989	vắng </s>
-1.726641	về </s>
-0.9667727	về chuyện
-1.726641	về chưa
-1.726641	về cuộc
-1.726641	về những
-1.726641	về nó
-1.726641	về việc
-1.726641	về ước
-0.7723989	vị gì
-0.7723989	vọng ghê
-1.813792	với anh
-1.813792	với bà
-1.813792	với bố
-1.813792	với cá
-1.813792	với các
-1.813792	với giám
-1.813792	với mình
-1.813792	với mọi
-1.813792	với người
-1.813792	với nhau
-1.813792	với tôi
-1.073429	vở kịch
-1.073429	vở những
-0.7723989	vỡ </s>
-0.3135602	vợ chồng
-1.073429	vừa </s>
-1.073429	vừa với
-0.7723989	xa xưa
-0.7723989	xe </s>
-1.55055	xem giúp
-1.55055	xem hộ
-1.55055	xem lại
-1.55055	xem nhà
-1.55055	xem phim
-1.55055	xem tên
-1.675489	xin anh
-1.675489	xin hãy
-0.5082493	xin lỗi
-1.675489	xin một
-1.675489	xin thua
-0.7723989	xong </s>
-0.7723989	xuyên hơn
-0.7723989	xuống </s>
-0.7723989	xưa </s>
-0.7723989	yên tĩnh
-0.4896514	yêu bằng
-1.24952	yêu hỡi
-0.7723989	yết </s>
-0.7723989	ích kỷ
-1.073429	ít gien
-1.073429	ít tiền
-1.471369	ông </s>
-1.471369	ông phải
-1.471369	ông ta
-1.471369	ông đang
-1.471369	ông ấy
-0.3036112	ý </s>
-1.374459	ý kiến
-1.24952	ăn nguội
-1.24952	ăn tối
-1.24952	ăn được
-1.617497	đang hết
-1.617497	đang hồi
-1.617497	đang lãng
-0.8576282	đang nói
-1.617497	đang đóng
-1.617497	đang ở
-0.9580958	đi </s>
-1.976519	đi anh
-1.976519	đi chậm
-1.976519	đi con
-1.976519	đi công
-1.976519	đi cảm
-1.976519	đi hết
-1.976519	đi ngủ
-1.976519	đi vậy
-1.976519	đi xem
-1.976519	đi ăn
-1.976519	đi đâu
-0.1786725	điều đó
-1.073429	điểm của
-1.073429	điểm này
-0.7723989	điện </s>
-0.7723989	đàn đúm
-1.073429	đánh giá
-1.073429	đánh này
-0.3041293	đâu </s>
-1.471369	đâu vào
-1.772399	đây </s>
-1.772399	đây có
-0.7539759	đây là
-1.772399	đây rồi
-1.01253	đây được
-2.170339	đã </s>
-2.170339	đã biết
-2.170339	đã bật
-2.170339	đã bị
-2.170339	đã chuyện
-2.170339	đã chạy
-2.170339	đã chỉ
-2.170339	đã có
-2.170339	đã gửi
-2.170339	đã in
-2.170339	đã không
-2.170339	đã khỏe
-2.170339	đã ly
-2.170339	đã làm
-2.170339	đã quên
-2.170339	đã tan
-2.170339	đã thấy
-2.170339	đã tiếp
-2.170339	đã tốn
-2.170339	đã tự
-2.170339	đã về
-2.170339	đã đánh
-2.170339	đã được
-2.170339	đã đặt
-2.170339	đã ở
-0.7723989	đèn không
-0.7723989	đêm </s>
-0.7015513	đó </s>
-1.01253	đó cho
-1.772399	đó khiến
-1.01253	đó không
-1.772399	đó là
-1.772399	đó tôi
-0.7723989	đóng cổng
-1.073429	đôi </s>
-1.073429	đôi cánh
-0.7723989	đùa thôi
-0.7723989	đúm với
-0.7723989	đúng </s>
-0.7723989	đơn quá
-1.24952	đường không
-1.24952	đường như
-1.24952	đường đến
-2.051152	được </s>
-2.051152	được chín
-2.051152	được chưa
-2.051152	được coi
-2.051152	được cô
-2.051152	được giải
-2.051152	được gì
-0.5006024	được không	-0.113829
-2.051152	được làm
-2.051152	được lỗi
-2.051152	được mà
-2.051152	được một
-2.051152	được những
-2.051152	được rằng
-0.7723989	đạt được
-0.3135602	đấy </s>
-1.073429	đầu anh
-1.073429	đầu tiên
-0.7723989	đầy </s>
-0.7723989	đằng sau
-0.7723989	đặn </s>
-1.374459	đặt bàn
-1.374459	đặt chỗ
-1.374459	đặt một
-1.374459	đặt niềm
-1.073429	đẹp quá
-1.073429	đẹp thật
-1.85158	đến </s>
-1.091711	đến bao	-0.01871268
-1.85158	đến chỗ
-1.85158	đến cuối
-1.85158	đến giờ
-1.85158	đến hết
-1.85158	đến khi
-1.85158	đến không
-1.85158	đến rồi
-1.85158	đến tháng
-1.85158	đến việc
-1.073429	đề nữa
-1.073429	đề được
-1.073429	đều là
-1.073429	đều đặn
-1.772399	để làm
-1.772399	để ngồi
-1.772399	để tìm
-1.01253	để tôi
-1.772399	để túi
-1.772399	để tăng
-1.772399	để ông
-1.772399	để đàn
-1.772399	để đồ
-0.7723989	định giao
-1.24952	đọc báo
-1.24952	đọc sách
-1.24952	đọc điều
-0.7723989	đốc anh
-0.3135602	đối với
-1.24952	đồ </s>
-1.24952	đồ nữ
-1.24952	đồ vô
-0.7723989	đồn cảnh
-1.24952	đồng hồ
-0.4896514	đồng ý	0.1558408
-1.073429	đổ mồ
-1.073429	đổ đầy
-0.7723989	đỗ </s>
-0.7723989	độ chuyên
-1.24952	động khủng
-1.24952	động kinh
-1.24952	động thô
-1.073429	đời </s>
-1.073429	đời sống
-0.7723989	đứa con
-0.7723989	đức tin
-0.5466493	đừng có
-0.8576282	đừng lo
-0.8576282	đừng nói
-1.073429	ơi con
-1.073429	ơi lần
-1.374459	ơn anh
-1.374459	ơn bạn
-1.374459	ơn rất
-1.374459	ơn đổ
-0.7723989	ước mơ
-0.7723989	ạ </s>
-1.374459	ảnh </s>
-1.374459	ảnh bóng
-1.374459	ảnh mờ
-1.374459	ảnh vào
-1.617497	ấy </s>
-1.617497	ấy bao
-1.617497	ấy có
-1.617497	ấy sẽ
-1.617497	ấy thấp
-1.617497	ấy đâu
-1.617497	ấy đã
-1.918527	ở </s>
-1.918527	ở bao
-1.918527	ở cho
-1.918527	ở giữa
-1.158658	ở ngoài
-1.918527	ở trong
-1.918527	ở trường
-0.8476793	ở đâu	-0.03117153
-0.8476793	ở đây	-0.04531798
-0.7723989	ức </s>
-0.7723989	ứng không

\3-grams:
-0.1962947	<s> anh chị
-1.249653	<s> anh ta
-1.594349	<s> anh ấy
-0.853986	của anh chị
-0.5529559	không bao giờ
-0.5529559	đến bao giờ
-1.365869	<s> bạn có
-0.7290472	cho bạn </s>
-0.853986	của bạn </s>
-0.6062005	<s> cho tôi
-0.7290472	nói chuyện với
-1.206168	<s> chúng ta
-0.4115145	<s> chúng tôi
-0.5529559	thiệu chương trình
-1.53068	anh chị </s>
-0.2787536	anh chị có
-1.076276	anh chị muốn
-0.853986	bạn có thể
-0.7975221	chị có muốn
-1.251926	chị có thể
-0.7290472	cậu có muốn
-0.7290472	tôi có thể
-0.7290472	<s> cô ấy
-0.5529559	tả công việc
-0.5529559	gì cả </s>
-0.2746433	<s> cảm ơn
-0.5529559	tôi cảm thấy
-0.4964921	<s> cậu có
-0.5529559	tờ giới thiệu
-0.5529559	thì giờ để
-0.7290472	<s> họ đã
-0.2354232	được không </s>
-0.5529559	tương lai của
-0.5529559	lo lắng về
-1.097024	có muốn uống
-1.251926	<s> mình có
-0.5529559	của mình </s>
-0.5529559	những mục tiêu
-0.950896	bao nhiêu </s>
-0.5529559	hôn nhân của
-0.5529559	nhảm nhí </s>
-0.3995821	thế nào </s>
-0.5529559	nhà này </s>
-0.5529559	chết rồi </s>
-1.097024	anh ta </s>
-1.097024	anh ta đã
-0.853986	chúng ta sẽ
-0.5529559	giới thiệu chương
-0.5529559	vậy thôi </s>
-0.5529559	<s> thật là
-0.7290472	như thế nào
-0.2746433	tập thể dục
-1.388587	<s> tôi có
-1.842991	<s> tôi cảm
-1.498295	<s> tôi không
-0.7459666	<s> tôi muốn
-1.842991	<s> tôi sẽ
-1.842991	<s> tôi vẫn
-1.293319	cho tôi một
-1.155016	chúng tôi sẽ
-1.155016	chúng tôi đã
-0.3995821	của tôi </s>
-0.5529559	mô tả công
-0.6853818	<s> xin lỗi
-0.5529559	đồng ý </s>
-0.5529559	<s> điều đó
-0.2746433	ở đâu </s>
-0.07918125	<s> đây là
-0.7290472	ở đây được
-0.7290472	việc đó </s>
-0.5529559	<s> để tôi
-0.4964921	<s> đừng có
-0.950896	<s> đừng nói

\end\
